0,1,2,3,4,5,6,7,8,9,10,11,12,13,14,15,16,17,18,19,20,21,22,23,24,25,26,27,28,29,30,31,32,33,34,35,36,37,38,39,40,41,42,43,44,45,46,47,48,49,50,51,52,53,54,55,56,57,58,59,60,61,62,63,64,65,66,67,68,69,70,71,72,73,74,75,76,77,78,79,80,81,82,83,84,85,86,87,88,89,90,91,92,93,94,95,96,97,98,99,100,101,102,103,104,105,106,107,108,109,110,111,112,113,114,115,116,117,118,119,120,121,122,123,124,125,126,127,128,129,130,131,132,133,134,135,136,137,138,139,140,141,142,143,144,145,146,147,148,149,150,151,152,153,154,155,156,157,158,159,160,161,162,163,164,165,166,167,168,169,170,171,172,173,174,175,176,177,178,179,180,181,182,183,184,185,186,187,188,189,190,191,192,193,194,195,196,197,198,199,200,201,202,203,204,205,206,207,208,209,210,211,212,213,214,215,216,217,218,219,220,221,222,223,224,225,226,227,228,229,230,231,232,233,234,235,236,237,238,239,240,241,242,243,244,245,246,247,248,249,250,251,252,253,254,255,256,257,258,259,260,261,262,263,264,265,266,267,268,269,270,271,272,273,274,275,276,277,278,279,280,281,282,283,284,285,286,287,288,289,290,291,292,293,294,295,296,297,298,299,300,301,302,303,304,305,306,307,308,309,310,311,312,313,314,315,316,317,318,319,320,321,322,323,324,325,326,327,328,329,330,331,332,333,334,335,336,337,338,339,340,341,342,343,344,345,346,347,348,349,350,351,352,353,354,355,356,357,358,359,360,361,362,363,364,365,366,367,368,369,370,371,372,373,374,375,376,377,378,379,380,381,382,383,384,385,386,387,388,389,390,391,392,393,394,395,396,397,398,399,400,401,402,403,404,405,406,407,408,409,410,411,412,413,414,415,416,417,418,419,420,421,422,423,424,425,426,427,428,429,430,431,432,433,434,435,436,437,438,439,440,441,442,443,444,445,446,447,448,449,450,451,452,453,454,455,456,457,458,459,460,461,462,463,464,465,466,467,468,469,470,471,472,473,474,475,476,477,478,479,480,481,482,483,484,485,486,487,488,489,490,491,492,493,494,495,496,497,498,499
0.02803696,-0.50342786,-0.5127027,-0.8419856,-0.16750297,0.9353794,-1.1319621,-1.1059484,-0.43052799,-0.54452306,0.79214066,-0.99303526,0.08229437,0.25026014,-0.10053529,-0.0936578,0.33406818,-0.57116777,-0.1628294,-0.5103252,0.6708585,0.11840913,-0.30946156,-0.78034174,0.14862682,-0.3193582,-1.0032766,-0.71528363,-0.49406222,0.11868174,0.40413615,0.8394666,0.15205093,-0.4849034,0.68230885,-1.2398657,-0.7826843,-0.47288984,-1.1170807,0.06774806,-0.6651053,0.24711218,0.1238196,-0.24291554,-0.17539786,0.13771069,-0.29539004,0.0215042,0.6536597,-0.18185325,0.28600442,0.0397425,-1.0853314,0.4277033,0.5805011,-0.18408498,-0.9506427,0.28872794,-0.063815795,-0.6722832,-1.1502326,0.72631145,0.46873757,-1.3082521,-0.13689484,-0.14491141,-0.45276403,0.08276455,0.482971,-0.30138326,-0.5298488,-0.19994323,0.47396868,-0.19154882,0.46028805,-1.3164712,-0.6845186,-0.2294755,-0.06650622,0.53932357,0.24637426,-0.29741055,-1.1944357,-0.67995816,-0.4996947,-0.5921373,-0.24203454,0.60270315,-0.94585323,0.122763745,0.06754321,-0.46197972,-0.02965323,-0.6285426,-0.37768438,0.4591808,-0.33049676,-0.56423557,0.03782053,-0.5194335,0.55600315,-0.5986402,-0.5648827,-0.22992222,0.4029001,-0.3023872,0.22947946,-0.15517448,0.5654529,-0.10103489,0.19892828,-1.1643912,-0.03827211,-1.1038682,0.07347138,-0.05115253,-0.4380436,-0.14580181,0.95109874,0.7832931,0.08761348,0.68056154,-0.46865022,0.40974924,-0.15930754,-0.4869,-1.1566577,-1.3306603,0.91041577,-0.70139486,-0.63888663,-0.38444296,1.1575807,-0.13879924,0.25486895,-0.7229514,-0.003562636,0.68864405,-0.864143,-0.42090225,-0.52765644,0.49366465,-0.34994507,-1.0186756,0.5289804,-0.13578294,0.17584887,-0.4694171,1.0349605,-0.1453313,-1.0423346,-0.15131888,-0.6479798,-1.09464,-0.62250614,-0.36787316,-0.8736571,0.95360637,-0.06375807,0.13428618,-0.54857206,-0.94210625,0.5885953,-0.87252516,0.46011248,-0.6525745,0.45348018,0.002832403,0.7087858,0.7582991,1.0247653,-0.76653224,-0.8331669,-0.23003034,-0.38815272,-1.3081155,-0.8287711,-0.43101546,-0.30247778,0.92169356,-0.03287519,-0.5225146,-0.39213172,-0.22433536,0.40410912,-0.42565945,-1.4321617,1.1492956,-0.010669238,-0.44226784,0.95780665,0.3520192,0.83836704,0.727451,-0.39697486,-0.055804025,-0.58484834,-0.3741736,-0.3635875,-1.1076362,-0.02583171,0.72048664,-0.008646585,0.51689786,-0.2452476,-0.22240396,-0.28300247,-1.3668029,0.20473628,-0.4870233,0.7886378,-0.009445242,-0.68260556,-0.19249569,0.9168632,0.37778062,0.52835786,0.4505453,-0.15595359,0.09423592,0.10082877,-0.6577954,1.227969,-1.2664824,-0.57959014,0.44382885,-1.0890942,0.7193611,-0.8666223,0.6576632,0.15201262,-0.33015367,-0.68303293,-0.41440538,0.26283762,0.63069755,-0.63003945,-0.7393913,1.0082881,-0.26181996,-0.3492244,0.06432223,-0.6004617,1.0314739,-0.40231204,0.14720653,-0.6491274,-0.4584419,-0.96866477,-0.86336505,0.000286301,-0.91019577,1.07825,-0.27504784,-0.60347956,-1.2363592,-0.7608004,-0.6362969,-1.1160036,-0.76521784,-1.3367443,0.70813006,-1.3367062,-0.24675782,0.46813658,0.043774355,-1.1988518,-1.1622287,0.58908993,-0.7514748,0.43332756,0.61099833,-0.1709591,0.6328519,0.17553793,-0.67852473,0.7229971,-0.19645311,-0.2830569,-1.3943694,-0.076221,0.8104472,-0.42108575,-0.16935481,-0.17647016,-0.20892455,-0.29795706,1.090164,-0.34017676,0.3096398,-0.34232816,-0.5167672,-0.3046755,0.24680029,0.26820412,0.27919045,0.5243079,0.22697565,-0.09387,-0.8707469,-0.7548396,-0.4453362,0.0738917,0.83005124,-0.5713473,0.7449918,-0.4733291,-1.198085,-0.000797179,-0.15454692,0.43993804,-0.33833912,-0.22138374,0.2663608,0.34347263,0.13010429,-0.43313652,0.36398026,-1.0435283,0.09720584,-0.07315054,-1.4127731,-0.95115834,-0.8070002,-0.9484154,0.8631643,-0.92744666,-0.117029734,-0.27867788,0.96657133,-1.3244379,0.16625664,0.814859,-0.034429107,0.16791458,0.73608226,-0.61110985,-0.60304946,-0.39704815,-0.84355795,-0.061724313,-0.82794994,-1.0650716,-1.1198833,-0.68134093,-0.30348775,-0.024471581,0.35118496,-1.078632,0.27213314,0.94757587,-0.645556,1.0543464,-0.03378156,-0.52751696,0.6117241,-0.8034807,0.102125876,-0.5295419,-1.2060041,0.6629173,-0.11302234,-1.0698438,0.3720829,-0.17944407,0.25132397,-0.08837804,-0.03625842,-0.25500116,-0.28068116,-0.75576276,-0.7419366,-0.049297098,-0.44082102,0.57271653,-0.29413766,-0.84615195,-1.0881214,0.63215417,-0.33030054,-0.9699959,-0.19129705,-0.19924484,-0.43643856,0.86712927,-0.66891986,0.21858446,0.19570687,-0.67429364,0.72102195,-0.66390723,-0.81817085,-1.1978059,-0.72242904,0.3278095,0.5022797,0.04008065,-0.046171658,0.37616637,-0.28971392,-0.5930711,-0.67707825,0.24637903,-0.5708623,0.5342769,-0.5676469,0.8809156,0.8767522,0.9344406,-1.3857857,0.78999853,-0.12598571,-0.54688936,0.4232114,0.017324964,-1.2472545,0.5030351,0.36253607,0.6777478,-0.5016429,0.08761868,-0.371994,-0.8259622,0.29384118,0.31372112,-0.8373444,0.40570804,-0.85811365,0.51801586,-0.045314673,0.9953334,-1.1485096,-1.026742,-0.24529986,-0.15069886,-0.55936813,0.7922091,0.35949743,0.74500257,-0.38179213,0.3309059,-0.6053583,0.85708594,0.30547225,-0.034592684,0.3840054,0.41495368,-1.0368916,0.7797126,-0.65533817,-0.72889555,0.7139475,-0.9552538,0.9348605,0.030891724,-0.1622696,-0.22164701,-0.47082835,-0.14735803,0.04304757,-0.34886286,-0.73249125,-0.7632676,-1.0135871,-1.0813954,0.16984172,0.8228703,-0.31886855,0.34985223,-0.016088579,-0.42770782,0.06281912,0.33458927,0.43953988,0.184197,-1.1729816,-1.2770025,-1.1819406,-0.42527914,-0.61343634,-0.112546586,0.033537064,-0.14641573,0.12911409,0.2644777,-0.38987362,-1.0267128,0.049805716,-0.07668249,-0.69322693,0.12503067,-0.30587903,-0.43648544,-0.8013455,-0.60314834,-0.6262288,-0.07071972,-0.001820797,-1.1498216,-0.31337902
1.3830568,0.30264074,1.1396135,1.172429,1.4149272,0.070526056,0.9910185,1.1137426,-0.260117,-0.32040814,0.1780675,1.6018802,0.4261833,0.33259526,1.8265371,0.22875166,1.672317,1.3217864,0.8715553,1.6787487,0.52969813,1.2246052,-0.030860137,1.0149335,1.2931132,0.4696477,1.325223,1.2721615,0.9100523,0.8765976,0.72603863,0.856163,0.35116154,0.39643985,0.17682904,0.75989467,1.2603998,-0.031740386,0.19763374,1.5106869,0.9556242,1.1372943,1.1388711,0.2778634,1.64951,0.29529914,1.1253216,1.2348222,0.29097554,1.4771922,1.0441718,1.5004351,0.48685586,0.51216066,0.4732696,1.9559165,0.709976,0.44642457,0.17524521,0.57047385,0.02767139,0.91255647,-0.20451482,0.5341075,0.44484013,0.91342235,0.027827866,1.3528473,1.2166077,0.18578242,0.82544416,1.3459387,1.7659838,1.2675967,0.13640866,0.5882812,1.4812624,1.8450081,1.3507154,0.9996519,-0.006418014,0.98891747,1.4056832,0.6138664,0.3480915,1.0746737,1.0754073,0.943017,1.0190982,1.1032147,0.29776445,0.67547405,1.019992,1.4905826,0.21694149,0.35410833,-0.14214297,0.78131,1.6121991,0.5346305,0.8083264,0.036532395,1.0740384,0.672908,0.21250266,1.4837334,1.3901118,0.5004735,1.6835586,0.84889364,-0.10350753,0.65082645,1.3265815,1.467356,1.2376587,0.7077585,0.6620611,0.20162313,-0.17654058,0.31187114,1.2831821,0.4173816,1.3462044,0.63806003,0.54696095,1.1712204,1.2636188,1.3788513,1.3268383,0.6872516,0.47357982,1.2415043,0.34534734,0.7904311,0.2085482,1.26586,1.5945452,1.0209414,0.21201317,0.7085446,0.756782,1.4823172,1.8575402,1.7078339,0.15741272,0.9482889,0.47657886,0.93219787,1.0949435,-0.13436724,0.8505983,0.90312916,0.6783458,1.7009257,0.48242372,0.5765793,1.2252166,0.014027945,1.0199348,0.23596947,1.7582761,0.18814854,0.23636264,0.9101011,1.2762774,1.0374388,0.957606,1.1297362,0.7059574,-0.033191793,1.1198773,1.1688588,1.3799591,0.32140887,0.5290248,0.70663357,1.4059072,1.063769,0.6015574,0.92692465,1.2695758,-0.031352967,1.2796863,0.70478946,0.5078213,0.8315697,0.48853472,0.27445272,-0.22522594,1.0456011,-0.23138125,0.13241719,0.29631257,1.4537513,0.3490001,1.3660989,0.7817721,0.5519417,1.5691309,0.78555065,0.30028754,0.7520254,0.899353,1.2399536,0.38436058,0.65136,0.3871276,1.6558678,-0.40673998,-0.04487728,0.69939494,1.2817254,0.61129856,1.1076535,0.49780118,0.17608371,0.8040975,0.96986574,1.1056619,0.28847155,0.2443151,1.0390007,1.3222843,1.5817672,1.429299,1.3021039,1.4663467,0.112740286,1.0100834,0.5414794,1.1331476,1.2522067,0.08202028,0.72379273,0.4009442,1.2799562,1.3757029,0.78673655,1.4892874,0.89223176,0.47039747,1.4284322,1.0384692,0.8906651,1.4164033,1.1451043,1.2836492,1.2327158,1.5548009,0.9960576,0.8244538,0.43085063,0.37999743,0.311867,-0.18570483,0.3794188,0.59313613,0.67633224,1.077126,1.6180418,0.5355292,1.2278541,1.0695,1.1631414,0.8859471,1.082604,0.4859835,0.370299,0.5215265,0.60157007,1.1093317,1.3355186,0.72225964,0.71863437,1.1631231,0.5594422,-0.061367244,0.8273236,1.3659332,0.65922266,0.6566836,-0.074019715,-0.07532575,0.5377555,-0.19512047,-0.11319343,0.020361008,0.8074595,0.3554784,1.5745057,1.3912928,1.3473996,-0.039970722,0.8757006,1.1938587,-0.18490273,0.9624202,1.3874987,0.9943217,1.5308038,-0.015123381,0.9219686,0.65269995,0.4172344,0.5226025,1.2641768,0.8079446,0.8682992,0.8882721,0.83065265,0.6251735,0.7574927,1.2394487,0.62181085,0.758059,1.2584126,0.8357963,1.5143813,1.6370665,0.83829325,1.307559,0.98311013,0.659618,0.62642,0.77172214,0.68535507,0.29507476,0.45701334,1.071981,1.0220809,0.48634717,1.1294814,1.0511292,0.6099271,1.460702,0.5739811,0.8121594,1.259529,0.75813353,0.59583443,1.1827791,1.2002577,1.7100097,1.6974756,0.77488315,0.4486269,0.8865074,1.3997197,0.8810071,0.5889159,-0.12861578,1.3573921,1.2947142,0.97658527,1.4096869,0.19853109,0.9447272,0.97249377,0.22913025,1.1359701,1.4490418,0.79703134,1.607704,0.31896237,1.1624967,0.9323935,0.69985837,1.0188136,0.47590852,0.9385789,1.0061785,0.35628054,0.15185872,1.165994,1.4537821,1.386185,1.0248952,0.13714698,0.9395839,1.3860482,0.5991564,0.73775864,0.70548445,-0.063148156,0.81182075,-0.35280403,0.33330593,0.5080306,-0.05029125,0.81427836,1.3031135,0.8348724,0.6026585,0.66199094,-0.1010935,1.3865752,0.96969444,1.3278475,1.8711447,0.9648265,0.82719177,0.40272966,0.9011567,0.75685936,1.0100812,0.6238043,0.95493746,0.70430434,-0.12770884,0.8465213,0.36355263,1.0821732,0.58312017,1.4180053,1.1512611,1.2444708,1.4958706,1.2121711,-0.06365807,0.377185,0.18835104,0.6111707,0.16755171,-0.12248037,0.29120845,0.5140883,1.2532591,1.5278504,0.3726673,1.0467732,0.7456946,1.24995,1.1600434,0.9894603,1.0936731,0.10203618,1.1137455,1.393705,0.9827773,-0.08154682,1.2720795,0.28748587,-0.1948499,0.04893394,0.46309042,0.6374422,0.4570293,1.8478968,1.4036373,0.3097347,0.8323939,0.6484388,0.41238618,0.018478505,0.91423917,1.1400342,0.45540577,1.2487142,0.69667935,0.8141451,-0.35959953,1.2591152,1.2041463,0.4174133,0.8480367,1.0993257,0.2536235,1.4251366,0.39482474,1.6397604,0.4621073,1.4651716,0.38200775,1.6113067,0.4428836,0.9067253,-0.12815765,0.5465901,1.2005516,0.44142807,0.28588027,1.2795198,-0.29990187,1.4715123,0.9442221,1.0931649,0.4006304,0.3487764,-0.16706197,1.4543767,0.32307297,0.68789667,0.35973474,0.6399161,0.624734,1.0282739,0.26607096,1.7808406,1.2987721,0.80686486
-0.81475097,0.18720287,-0.12187974,0.01761895,-0.43357584,0.096403785,-0.950206,0.74925184,0.028663006,0.128976,-0.66684425,0.079189345,0.82052225,-0.79242975,0.3425319,-0.4358034,-0.51339346,0.23270309,0.22086845,0.3058435,0.030843053,-0.8784808,0.9468608,-0.2369828,-0.39822134,0.08489415,-0.05210141,-0.19402252,0.18892112,0.27049962,-0.66339195,0.36774936,-0.7297311,-0.5917398,-0.6825426,0.9212095,-0.6184248,0.36639234,-0.107697316,-0.38287765,0.35996228,0.4538821,-0.31910548,-1.005608,-0.28594103,-0.35472363,0.39516574,0.032015573,-0.10205936,-0.4395378,0.67277,-0.09246035,-0.20511033,-0.2950701,-0.8149732,-0.5501445,0.75237983,-0.6270732,0.26243663,-0.5550442,0.5583686,-0.6131259,0.85186654,0.33708113,-0.16534956,0.05368947,0.053393077,-1.0737389,-0.19956051,-0.5795814,0.36031047,-0.4374463,-0.8210823,0.3024431,-0.18726206,0.32445616,-0.15580352,0.20040339,0.2862581,0.18926875,0.46467933,-0.20309086,-0.6746893,0.09245033,-0.012971691,0.21122068,-0.40201804,-0.4395094,0.130086,0.539821,-0.11147633,0.15654418,0.15418218,0.01101336,-0.269395,-0.17539649,0.25439423,-0.6743598,-0.8607755,-0.4477253,0.19002686,0.20010991,0.19341964,0.2610352,0.09711594,-0.6751354,0.6852914,-0.38034484,0.4271736,-0.74227965,-0.8975324,0.14044777,-1.0995965,0.11761045,0.16641359,0.094799,0.92910504,0.5046399,0.6301811,-0.5425231,-0.42113286,0.4092532,-0.5187561,0.108738676,-0.37922785,-0.64939517,-0.3793007,0.22140867,0.21529765,0.62203497,0.81421685,-0.26024845,-0.38006386,-0.7404688,0.3172155,0.16668157,0.10343435,-0.31161544,0.26313072,0.46305963,-0.10045886,-0.9463815,-0.25441456,0.47792593,0.1731192,-0.72243685,-0.2464711,0.7830836,0.3279333,-0.24103588,-0.9624752,-0.2795125,-0.2664646,-0.24505806,-0.32877827,-0.9997336,0.17282028,0.4496317,-0.78484684,-0.34935337,0.089344405,-0.25521484,-0.6855713,0.7621942,0.4183861,-0.9916198,-0.10719972,-0.9304232,0.9450158,0.19628881,-0.2402154,-0.4328054,-0.21417367,-0.91514426,-0.062684834,0.2933814,0.004760776,0.3851867,-0.62078625,-0.22618018,0.89362305,-0.6563923,0.08704403,-0.56136703,-0.05476695,0.19028358,-0.003198729,0.20094122,-0.46845257,0.8844972,-0.2707018,0.28015023,0.266387,0.83083314,0.1532959,-0.30544853,0.118043266,0.6067038,0.78726155,-0.050386805,-0.16973816,-0.23516713,0.047342002,-0.23933184,-0.36061963,-0.94805175,0.39254606,-0.30110702,-0.62957776,-0.7271498,0.95992625,0.32475734,-0.24043721,0.21895206,0.8505803,0.4431952,0.10316583,0.13508084,0.50607735,-0.3237594,0.16611567,0.4932532,-0.42314807,-0.28176436,-0.10335689,-0.29083887,-0.34682766,-0.001598215,0.48748186,-0.62090755,0.80453426,-0.92905104,0.048792116,-0.13937764,0.62650305,-0.022421898,-0.36155114,0.2516036,-0.71067345,0.04117012,-0.29005808,-0.17065923,0.78555894,-0.59447026,0.4614579,0.2336497,0.22479422,-0.24118601,-0.5753318,-0.11014394,0.32948273,-0.069549225,0.40365675,0.5847981,0.4584818,0.425418,-0.614133,-0.7303964,-0.19951096,-0.5987343,-0.20776331,0.44098797,-0.48529106,0.14967074,-0.11583624,-0.81578255,-0.046872515,-0.38709253,-0.33972508,-0.6061533,-0.5474275,-0.46589136,-0.000580009,0.12563539,0.07812934,-1.0551629,0.4015365,0.454099,0.3687925,0.44299495,-0.37061617,-0.7953041,-0.83531237,-0.3418003,-0.25996232,-0.9452718,0.3004116,-0.44289327,0.31455573,0.27884123,-0.41550314,-0.1046661,0.7302016,0.69471073,0.7464143,-0.3396293,-0.9222399,-0.29963607,-0.35682443,0.03204873,-0.17675464,-0.4571613,0.05184259,-0.23022677,0.27873072,0.59179467,0.014683152,0.67727226,-0.7130839,-0.28060383,-0.2262076,-0.48126435,-0.36521918,0.2782738,0.5335142,-0.13642444,0.19935334,-0.022377588,0.33318704,-0.10279409,0.012826616,-0.64117265,0.4813825,-0.2976707,0.64158785,0.5901222,0.7651623,0.28871143,0.0672188,-0.45137414,-0.60490006,-0.16833168,-0.07039833,0.3442058,0.5685509,-0.30775523,0.003915536,-0.7432304,0.064018175,0.22839852,-0.4431126,0.31959218,0.68058,-0.7950644,0.3745399,-0.5619678,-0.81211567,0.43537152,-0.2639837,0.29352137,-0.09675474,0.6233276,-0.19548854,-0.05003488,0.80929655,-0.8355188,-0.3475018,0.3792962,-0.39860293,-0.49543294,-0.5578169,-0.2726923,-0.48537216,0.08714882,-0.6476137,-0.43207926,-0.004327355,0.22290182,0.2577568,0.15991347,0.31979144,0.12963407,-0.9012066,-0.49372938,0.25426278,-0.40764284,0.23992428,-0.27446795,0.16860974,0.09807534,-0.7740186,0.6959552,0.66273123,0.3641783,-0.025438344,-0.38614756,-0.64888775,-0.5488568,0.15918666,0.08095674,0.7362514,0.30225563,-0.14546695,0.5756509,-0.47546545,-0.3568701,0.07798382,-0.23191306,0.06850788,-0.43475965,0.32281643,-0.9758322,-0.45794126,0.001411465,0.61095566,-0.17210886,-0.41668192,-0.5015131,0.2547065,0.08875607,-0.6661856,0.16460319,0.525481,-0.56217545,0.6495836,-0.47487077,0.060651865,0.5333572,-0.17719908,-0.7466934,0.29834336,0.060958423,0.74528474,0.14517933,0.37842122,0.3781166,-0.32139584,0.534682,0.11521691,0.41371304,-0.47510585,0.75581664,-0.08505385,0.41058844,-0.16900893,-1.0277237,-0.026191112,0.52562153,0.14106311,-0.10266285,0.56880194,0.055944305,-0.71281534,-0.21757376,-0.7713833,0.32805723,-0.04265332,-0.59838474,-0.42860296,-0.75030524,-0.07732972,0.77941054,-0.26886523,0.33922863,0.68694514,-0.43022627,0.021227894,-0.90260625,-0.24781026,0.08941921,-0.7749506,0.6300714,0.34163916,-0.54968446,-0.9944019,-0.83850497,0.05213575,-0.06727131,-0.7570266,-0.43233272,-0.08261582,-0.31501353,-0.2135034,0.5968061,-0.18608929,-0.767931,0.37225398,0.19675615,-0.32901123,0.32015714,0.4035853,-0.40091288,0.28470957,-0.5492834,-0.1559767,-0.11080469,-0.32615358,-0.1908996,0.009905909,-0.8636744,0.14328077,-0.1139968,0.036808677,-0.7556734,-0.03290297,0.058385983,-0.8636213,-0.5640904,0.4391521,-0.3073109
1.0652021,0.894832,0.42778254,0.49119362,0.6309192,-0.5593712,-0.16931832,-0.024026547,1.0650715,0.43525586,0.4043547,-0.4037129,0.34279913,0.5216574,0.7262218,0.92352045,0.8646684,1.003827,0.8607646,0.8529418,1.0165598,0.74970543,-0.19238766,0.79986185,1.5953346,1.3816073,0.65241706,-0.072336875,0.38832587,0.70474213,1.2777758,0.95177835,0.16736743,0.6417607,-0.17059225,0.4077418,1.0497915,-0.3590189,1.2954468,0.022220848,1.5594813,1.1799273,1.2095503,0.9218782,0.7943304,0.8742714,1.599981,1.2140415,0.26219624,0.96408445,0.28742558,1.1313127,1.3380693,0.013309881,0.97614634,1.011946,1.250401,1.2713217,0.8339153,0.6715777,0.4683748,0.03323227,0.6083452,0.24739091,0.045680407,0.7853605,0.8824578,0.63330036,0.15041964,1.4683508,0.5468031,0.24492256,1.1042466,-0.4907387,0.17508994,0.72505933,0.78796524,-0.07860001,0.52576095,-0.008298656,0.4262195,0.8125933,0.2635758,-0.29947188,0.4320881,0.44763792,1.0270162,-0.04671693,1.2412372,1.013076,0.39189166,0.24271603,0.14788833,0.19840355,-0.23731205,-0.37239164,0.5116026,0.4416564,0.040528126,1.3204415,0.47224107,-0.16539341,-0.05770307,0.11994419,0.48404393,0.66204554,0.2500795,-0.25731647,0.6766765,0.19299123,0.37161252,-0.037804384,0.1256732,0.28575587,0.76743895,0.9436305,0.27635068,0.28911668,0.30325213,0.84090936,-0.2445079,0.37104952,-0.11918143,1.6177349,0.1954512,0.9529313,0.37898797,1.200938,1.280317,1.0103811,0.33528605,-0.31286764,0.4231891,-0.45023888,-0.034894705,0.9940846,0.7502078,0.34314138,1.2298272,0.4418536,0.7853574,0.08368795,0.95426327,0.6303368,0.3799103,0.4472973,1.1899177,1.0258051,-0.13837317,0.022940453,0.32371056,0.3647107,1.2145512,1.0757178,-0.048407163,0.01196385,0.5369209,-0.059137568,1.0876873,0.965099,0.6246712,0.45165566,0.1025066,0.34787506,1.2810163,1.3568329,1.1636643,0.22381334,0.72216785,0.74612063,0.7371687,0.7833538,1.5480496,-0.08555625,0.03969618,0.6446923,0.7089596,0.47026122,0.8739145,-0.03528163,0.77918184,0.8576841,-0.04244919,-0.083764955,1.3886302,0.9052946,0.5259115,0.48163557,0.808355,1.510078,0.20153883,0.10787772,0.88634586,0.8830712,0.07754098,1.349027,0.5621963,0.88528204,0.73731315,0.9771187,1.2373502,0.6036861,0.60900533,-0.141691,-0.2791175,0.71087927,0.0198438,1.5067925,1.234599,0.22500141,0.55736357,1.107796,1.1448961,0.2988059,1.3432118,0.41673064,0.92222714,1.3934318,-0.24115452,1.1042039,0.6761425,0.11448522,0.62189656,0.9665653,-0.005039103,1.1871146,1.0691581,0.80822486,0.7517325,0.9125089,0.4238295,0.49588874,-0.08167748,1.4351,0.9948011,0.47939995,0.64699197,0.8463219,1.0658484,0.6874751,0.286371,0.45245263,0.14657246,-0.014220075,0.88748246,1.286273,0.7476687,0.42817774,1.6159635,0.2210993,1.1400174,0.73091495,0.36858863,-0.2356178,0.28751376,0.31772396,1.2946849,0.27046338,-0.19971253,1.0658256,1.4124289,0.063603796,0.36178923,0.21083753,0.65753216,0.18868117,0.84126437,0.8819539,0.68739516,0.6200313,0.6009773,0.20854276,-0.1354503,0.03840066,0.31175336,-0.13809109,0.64750373,0.5167305,0.24884258,0.65742254,0.793138,0.22590233,0.8486762,0.25063053,0.413705,1.0289397,-0.13420132,0.076982334,0.7154335,1.4029847,0.77700305,1.2188876,0.6831118,0.774019,0.3936793,0.7777161,1.2734787,0.6778894,-0.3657304,0.48380613,0.21192189,1.1267246,1.1836145,0.21053714,0.996484,0.53497154,0.9258255,0.96369225,0.82758856,0.23158488,0.6316797,0.4312551,0.46395808,0.28314048,0.001536724,0.76300126,1.5388519,1.6117333,0.64073604,1.4176269,0.8817872,0.44633475,0.2884652,0.9833464,1.1448499,0.7893204,1.4003457,0.43786073,0.19680096,0.43069416,1.1551713,0.4422961,1.0008235,1.0306503,-0.01660534,0.6710426,0.21890733,-0.39272517,1.187065,1.1945853,0.4954477,1.6773992,1.0139086,0.31275406,0.7161722,-0.48308894,0.21170874,1.1477292,1.2503549,0.123907864,0.18098842,1.1648557,0.29548454,0.52584124,0.29874283,1.2764761,0.06673275,1.2417893,-0.075534865,0.08416215,-0.13644435,0.039813835,1.211914,0.28775895,0.20282936,0.6839088,1.0622692,1.305869,0.47917444,0.19865403,0.76549095,0.8825079,0.96222484,-0.058567684,0.45878848,1.4456731,0.32878923,0.9566433,1.0773891,0.26823086,0.61620915,-0.028446473,1.221747,0.81533504,0.20409423,0.40402383,0.56616753,0.30486265,0.15100081,0.05376625,0.64165515,1.1198366,1.7189901,1.3479513,-0.018609526,0.028516117,1.0818216,0.3876356,1.1136394,0.1547933,0.7051244,0.5389825,1.1530828,0.46577272,-0.5084614,0.8385566,1.0340877,0.80340064,0.8746167,0.5372787,0.95125306,0.36085802,0.43787608,0.07766879,0.81649715,0.98691237,-0.023880789,0.46958598,0.62765014,-0.02731714,0.85507,-0.2052605,1.1402081,0.9105684,1.4854238,0.2827422,0.52927274,1.5100135,0.45941982,1.1101551,1.0687122,0.35840204,0.9264234,1.3619274,-0.30833787,0.06974905,1.0354131,1.5312974,0.40370762,0.8230338,0.17169276,0.24094933,1.3854653,0.45766985,0.3534461,0.90058696,0.3937809,0.24231228,1.4408746,0.19705041,1.6557881,0.5367245,1.5691767,0.94640434,0.12132046,-0.09629942,0.69027984,0.20911866,0.07716907,1.5745695,-0.2293407,0.15795428,0.6636947,0.3250412,-0.09940975,0.27626148,-0.024943423,0.937928,0.88178957,0.9835694,0.23121034,0.1691928,0.14529961,0.26292348,0.20161957,0.9842487,1.3665915,1.0203202,0.04390593,0.01996717,0.108407155,0.0852423,-0.0829156,-0.18567087,0.5388174,1.4985585,0.61370283,-0.012351492,0.04451324,-0.02102133,0.13702506,1.2192059,0.6269158,0.2722342,0.70297325,0.8259424,0.6368547,0.3776904,0.5068952,1.1045802
1.0453774,1.1509514,1.4896859,0.67722,1.5180862,1.0672525,0.70421964,0.9648407,1.6071705,1.3669126,1.3171587,1.8762547,0.80132264,1.3275988,1.103073,1.1336081,0.87172043,0.38637072,0.407381,1.3444766,0.12806666,0.7386258,0.15448679,0.5265811,0.86099035,0.023613825,1.6385647,0.80943245,0.89502066,0.5449603,1.004486,0.65254277,0.41597894,1.044764,0.7108281,0.6315444,-0.009961827,0.48962748,0.44065982,1.6607369,0.44410595,1.6416653,1.1819696,1.0201824,0.2776089,1.4081386,1.7945362,0.5003679,0.65438473,0.78726906,1.1079799,0.9433719,0.8572678,0.17218684,0.85623175,1.8129022,0.7065771,1.7178346,0.21839921,1.1378089,0.87567806,0.25523856,0.13830808,1.0980806,0.5113815,0.53664297,-0.28646907,0.4518089,0.623216,1.065968,0.18433365,1.3818604,1.0643458,0.828046,0.080078445,1.1016859,0.8817487,1.5587959,0.69263744,0.9832686,0.63649327,0.8922625,1.2244449,1.0042382,1.0475975,0.7843701,0.6866167,0.8227887,0.62501454,0.8695492,0.99662757,1.4130577,1.5667397,1.5794127,1.2841386,1.4383881,0.69851595,1.0328414,1.2252045,1.0528661,1.4628044,1.1347666,1.5331509,0.66770875,1.1293316,0.80781066,1.3170981,0.69027793,0.15421973,1.835661,1.0473355,0.37588987,0.24165614,1.3354323,0.86865944,1.1064724,1.4211333,0.10550125,1.1296086,0.12612468,1.0972481,0.37034374,0.15855975,1.0805782,1.0603278,1.1383533,1.0426716,0.6801284,0.8516506,0.47007507,-0.26996717,-0.008799681,0.1659894,-0.016798818,0.6821883,1.3641179,0.36253592,1.1714736,0.36305615,0.8820769,0.891076,1.043694,1.7711694,0.77247024,1.3991649,1.0698214,0.2686269,0.23353624,1.4184158,0.3316058,1.3922852,1.3191869,0.44324312,0.9706043,0.9570326,0.20744497,0.6215162,0.11591624,0.62785983,0.6765067,0.8083946,0.97570676,0.50203425,1.5471973,1.1140152,0.003440807,1.5404527,0.84356654,0.3857825,0.34347087,0.90621144,0.8898436,0.6675093,0.9655359,1.1213686,0.77421963,1.4923867,0.38096657,1.4737517,0.68443763,0.45952505,0.8824938,1.0145652,0.41694543,1.1442242,0.7311741,1.4026489,0.9525601,1.3269415,0.8364177,1.2247491,0.08124578,1.385703,0.723993,0.544997,1.1018429,1.1371255,0.9340075,0.01659617,0.48385572,-0.31562018,0.29971844,0.82881796,0.5652756,1.0885324,1.7727879,1.115856,1.7994642,1.1941504,0.79995763,0.7422165,0.6375663,-0.012992898,0.7663499,0.21340814,1.2119905,0.58266073,0.6670624,1.5490551,0.4838055,1.2025954,1.1111507,0.3262306,0.5127639,1.2321925,1.2566438,1.9746794,1.3228683,0.7142716,0.99117464,0.94583714,1.0658324,0.59997827,0.56810945,0.4681727,-0.37105268,1.1951329,0.9771834,0.8266616,1.027771,0.96721673,0.45356452,1.1698608,0.7422568,0.36244962,0.35461333,0.25679412,1.9133905,1.4662297,1.4499153,0.893093,1.2362889,0.85039526,0.9946674,0.9238653,0.087999694,0.9894927,1.6485897,1.1947182,1.4150752,1.4639419,0.2064972,1.608564,0.88000387,1.3834504,1.73781,0.5391762,1.5192823,0.008374362,0.84202653,-0.19261827,1.0902569,1.2150556,0.8124068,0.8945942,0.99361074,0.87651837,1.969811,1.2575297,1.4872684,-0.14455639,-0.06041186,0.75404245,0.74989474,0.55542403,1.1954992,0.7769632,0.3331456,-0.10151349,0.9724912,0.9968852,0.5017106,0.06700424,0.5313525,1.3106713,0.380719,1.080339,1.0678989,0.6248667,0.60166013,0.8212818,0.5506938,1.6256253,0.9587379,0.45814794,1.4856787,0.48453707,1.2914425,1.538972,0.61478734,0.51625794,0.78808033,0.44913626,1.5397111,0.85342574,0.661731,0.75340146,0.8918218,0.7439489,0.72326577,1.5920986,1.1346554,1.2180454,1.4291029,1.089482,1.160077,1.4479097,1.4544203,0.5172227,1.0527059,1.5756029,0.77317524,0.15650992,1.5582267,0.43479967,0.44662157,0.79208326,0.1669452,0.17637722,1.476319,1.1799988,0.4849261,1.5062451,0.59612954,1.5482515,0.019436251,1.7133046,1.6953875,0.9795626,1.0505221,1.6757041,1.0719266,0.7541718,0.4185444,1.470746,0.82311034,0.7611099,0.050141104,1.9142634,0.9226338,0.44616336,0.6674107,1.8197256,0.37792888,1.4032453,0.28272358,0.52973026,1.6351684,0.9550725,1.4169687,0.5327832,1.2085475,1.5488298,0.6487315,1.9813168,0.9222465,0.70437294,1.8615506,0.7635167,0.3199173,0.8323139,1.1669044,1.5482259,0.37692395,0.44275457,1.6755002,0.88585687,1.3515885,0.6613674,0.5858505,1.1296307,1.2643404,1.0153108,0.20224597,1.8660198,1.1812252,1.6197587,0.7535842,0.91184056,1.2848788,0.776977,0.45979342,0.4247567,1.0647558,1.2138194,1.1605182,1.2168808,0.15735558,1.1016549,0.8344747,0.12433991,1.1200699,0.42883492,0.55508393,0.87881595,0.71516705,0.9442795,0.8571615,1.1257962,1.3218834,0.58604854,0.3608128,0.91284,0.5790767,1.4885437,-0.013494258,0.5242332,1.2456502,1.2422388,1.9164326,0.44794366,1.8793963,0.48428705,1.2852111,0.40962923,0.15456946,0.07031339,1.248818,1.3871908,0.6008344,1.3893526,0.53704345,1.8542792,0.92878693,1.6123567,0.44217888,0.5646452,0.918957,-0.02392055,1.095424,0.24035266,0.52503175,0.81655806,0.15065505,0.9234846,0.91735494,1.3458972,1.4197292,-0.33272532,0.364,0.46639174,1.0483559,0.8747962,0.75770414,0.5527965,0.77838194,0.36223423,0.62389135,-0.23411341,1.6898822,0.51787585,0.22067182,0.8297581,1.3625218,0.124926865,1.1903192,0.6137421,0.7239042,1.6506884,1.1889215,0.6205332,1.440778,0.70629436,1.3670527,0.7589053,1.3737504,1.4189457,0.61936224,0.01040818,0.48961672,0.71800315,0.68615276,1.1522527,0.44155645,1.0585177,0.29679912,0.7474038,0.21142629,1.0539514,1.0649594
0.3354312,1.4398284,1.0603064,1.0819405,1.1239357,1.2102971,0.71813005,0.4746272,0.855179,1.3118224,1.411343,0.004210301,1.9184446,0.7231835,1.4375656,1.0970073,0.7604301,1.2388514,0.16780776,0.5201658,0.84858894,1.5040454,1.6751406,0.4352147,0.62865955,1.3065839,1.3554742,0.6508448,0.24397628,0.39182273,0.84950083,0.1671865,0.6301623,0.73997563,0.3456554,0.21935229,-0.12449737,0.45124462,0.68937784,0.77019453,1.2657768,0.6112041,1.0598232,-0.015001423,1.1707569,1.1399466,0.8994983,0.39177808,1.7551717,0.25256267,1.0119411,1.5851072,0.2177614,1.1774621,1.2709563,0.75328624,0.14799015,1.4189706,0.13071564,0.48929664,1.0701904,1.6447182,0.82358754,2.049561,1.2396975,0.9244462,0.8262757,1.0976095,0.10697971,0.39303333,0.96465755,0.73408127,1.7423534,0.119870104,1.3099697,0.5414574,0.46137738,0.2601974,1.444756,-0.017139954,1.1436436,1.023563,1.1981913,0.7499497,1.457676,1.7727643,0.65410906,1.6532773,1.0216583,1.6393346,1.3301585,0.96245414,0.20957297,0.5698065,1.3886147,0.49056917,0.69765615,0.88104045,0.3068608,0.017576829,0.96058583,0.405774,0.8159056,0.25650945,0.019955814,0.71617323,1.4398484,1.3634865,0.09867189,1.2245588,1.0263996,1.016131,0.7547359,1.5297157,1.4624451,1.6293049,0.9669058,0.7042828,0.63348883,0.71487683,1.0752125,0.2393214,1.5786394,1.8998389,-0.020465644,0.3257702,0.09212953,1.6697173,1.4997268,1.3789532,1.1069608,0.8958996,0.52159125,1.4869084,1.1541897,0.7258712,0.62409,0.1334501,1.0306877,0.4872212,0.6539078,0.6555809,0.9177793,1.2060084,1.3390208,0.556639,1.159396,0.36439583,0.800865,0.23707595,1.718274,0.26863888,0.94289815,0.74162096,-0.068295926,0.8085537,1.2768365,1.2569555,1.0079502,0.84983355,0.81144845,1.0758146,1.2902483,0.25796804,0.07122276,0.1586234,0.57437605,1.0635076,0.48941353,0.10150732,1.4943355,1.8574207,0.81609184,1.2581022,1.0522693,1.840917,0.3120691,-0.024826333,0.39492756,0.82415164,0.6103203,-0.21471849,1.3006128,0.25514302,0.6625214,0.29720834,1.3805084,0.76077676,1.1136978,1.207452,0.39996964,1.0143375,0.812451,1.4195298,1.3140768,1.1428673,0.8577994,1.9511205,0.42180908,1.3706657,0.9384751,1.7288214,0.27881786,0.99848217,0.6336312,0.94003725,1.7982136,1.7517217,0.8379493,0.85380167,0.9422447,1.8461097,0.24233328,0.55239975,1.806517,0.73690474,1.2213182,0.20998234,1.4453522,0.30400524,0.9717322,-0.19179733,0.3158815,0.971833,1.8017483,0.3891175,0.4434104,0.2722147,1.0648077,1.7972276,1.0325472,0.8241795,1.5541079,1.161748,0.63922006,0.029024791,0.5218842,0.6025641,0.7003845,1.0085185,0.84662646,0.6654146,0.69887954,0.39488342,1.3598012,1.636957,0.16980037,0.73578864,1.3819395,1.2581472,0.20195977,0.804637,0.71366215,1.3019392,1.294019,0.8118988,1.2305056,0.5593478,1.400552,0.65889996,0.9003474,1.5118018,0.5633174,1.6120652,0.69377315,0.93176675,0.6242907,1.0907896,1.3422688,0.91447693,1.4855207,0.6135621,1.577165,0.7788231,1.1787528,0.10643824,1.24667,0.72383326,0.78508455,1.2877699,1.1693804,0.91030747,1.6923975,0.7100358,1.3616797,1.5824671,0.84119195,0.9617765,0.5798268,0.8839437,1.3666755,1.544996,0.39526004,0.29475635,0.75459886,0.20706181,1.0929122,0.88857406,0.7140083,1.013197,1.3149134,0.50166905,1.7603209,0.6301703,1.442455,1.179391,0.09867729,0.24488771,0.6108932,1.1646425,0.69495994,0.84767884,0.6129108,1.6955061,1.1377257,0.25862566,1.4407259,0.7491322,0.77537215,0.75496405,1.0493691,0.7029288,1.1402506,1.3852117,1.21083,1.2554073,1.2297258,0.033842616,0.7771356,0.9460458,0.37762034,0.9195854,1.1059409,-0.045977682,1.1351566,1.4643518,1.7820263,1.4065193,1.1012559,0.49883217,1.1507472,0.5117838,0.87246627,0.40358528,1.2266881,1.4296528,0.6136958,0.7229256,1.0047755,0.13060012,-0.018989958,0.52701366,1.301724,1.4174101,-0.060502708,1.0866538,0.7863586,1.0034688,0.7404738,0.8758183,0.7295463,0.23704936,1.2942477,1.2229482,0.46628135,1.0007997,0.620683,0.041464813,0.608827,0.3780598,0.54528487,0.9108757,1.6210687,0.9431736,1.3338875,1.0315303,1.4482535,0.39041886,1.758654,-0.07503649,0.9080848,0.94730693,1.5533592,1.3259529,0.2269814,1.3979644,1.2124115,0.37530097,1.1508365,1.4398209,-0.004709654,1.3385199,1.389508,0.64852434,0.624613,1.8401752,1.3875272,1.1034693,1.4507304,0.56071234,1.8319602,0.4092797,1.6560279,1.5746804,0.13977495,1.1012868,0.22564389,0.34224615,1.4681048,0.6179595,0.89516264,1.0578535,1.1777608,1.221251,1.3023599,0.7440389,1.0373768,0.9493549,1.412569,0.91301763,0.67184377,1.3285476,0.74320865,0.6334281,0.24771564,0.93412465,0.51766956,0.48014745,1.0755159,1.6936512,0.682085,0.18287456,0.16706263,0.70354956,1.0049081,0.8716525,1.2557818,1.1116109,1.3020667,1.2571087,1.2474436,0.8260929,1.8350672,1.06881,0.8575409,0.2580271,1.2333698,1.031131,0.93951595,1.2042824,0.94121206,0.16501379,1.0537783,1.349873,0.5966019,0.12139243,1.2614133,1.1528239,0.22499318,1.2332326,0.37488517,0.5857121,0.6362261,0.1750329,0.8297081,-0.04784744,0.38058287,0.6399136,0.9278589,1.2480462,1.2549429,0.75955,1.4999617,1.510535,0.34152222,0.51469815,0.015764585,0.039687876,1.8026428,0.10765757,0.8165298,1.0094692,1.4631724,1.200723,0.85612464,1.5730542,1.0743988,0.48963475,-0.1609986,0.8387907,0.58736116,1.1877542,1.6179907,0.6669585,0.7037248,1.6250768,0.26267657,0.9697463,0.6904108,0.9323951
0.791079,0.65350235,0.9836664,1.1410098,0.83543026,1.3035958,0.32598266,0.14021863,-0.6561839,0.07478282,0.3429874,0.3816444,0.84015036,0.5627844,0.67597353,1.074567,0.20800923,0.09352716,-0.11469766,0.022352858,0.33388528,0.08790962,0.45270613,0.23458356,0.6207825,0.98112756,0.4930387,0.8109359,0.08342821,0.255662,0.65571827,-0.23086204,-0.14180738,-0.13963349,0.53281385,0.52936333,0.06891058,1.1055481,0.7930098,0.2798569,0.16210075,0.17436783,0.71060014,0.6867804,0.31206232,0.96074384,-0.30727497,1.0901028,0.7793376,-0.09371015,0.33610576,0.54594445,-0.04070559,0.69853544,0.32903516,1.1165103,-0.4774852,0.4251201,0.006057567,0.62995905,-0.17161737,0.7166851,0.4526406,0.65417033,1.0704206,0.17887306,0.81812817,-0.16602299,0.36943826,0.71726894,0.32388163,0.7198445,-0.20554473,0.4696109,0.5811286,0.54433674,0.5552891,-0.15197738,0.32282525,0.4882164,-0.172469,0.66356766,0.9373783,0.030370545,-0.08036677,1.0483236,0.35855207,0.45224032,1.0528196,0.034976546,-0.1912681,1.0353369,0.82990664,0.6337282,-0.13221489,0.62099093,0.18637832,1.0276208,1.2206357,0.5464219,0.17215219,1.0181434,0.4154033,0.26695743,0.67806554,-0.3028094,1.1044437,-0.6704188,0.43292797,0.06004746,-0.2575128,-0.15660961,0.035307232,0.10381146,1.022408,0.69088465,0.5769265,-0.008944689,0.5127749,-0.4130364,1.2493333,-0.15830743,0.4896153,0.08380403,0.06690655,1.1888596,-0.07437479,0.012189458,1.1169213,1.0045567,0.5282639,0.7485267,-0.1086962,0.20985313,0.94452965,-0.1694084,1.1022563,0.043752756,1.3869658,0.47652632,0.17357899,0.3338938,-0.24827206,0.6630825,0.40651757,-0.3495278,0.3921194,-0.15865521,-0.23894498,-0.39965954,0.18149379,0.9148865,1.1651627,1.0121132,0.7509422,-0.5774797,0.006039771,0.33533913,-0.2023632,0.23287472,0.3283779,0.12944148,0.97648185,0.88576156,0.24532673,-0.052862503,0.2589904,-0.025346136,-0.095202535,0.50296336,-0.5955148,0.8420693,0.6076546,-0.46057975,1.0874649,0.6592323,0.43926424,0.967675,-0.15964626,0.71404195,0.14096984,0.2572387,-0.22105496,1.1459372,-0.23512702,0.9601861,0.5956228,-0.26697898,0.008145218,0.7452067,1.3111007,0.38629717,0.006933289,0.31515962,0.6308007,1.1504619,0.38056123,0.8852891,0.8683928,0.75522286,-0.09661509,0.45616406,0.3036053,0.23622857,0.90342283,0.16904335,0.4999493,0.34882084,0.58811885,-0.36276114,0.28194922,0.7118961,0.90694207,-0.08258898,1.2993377,0.60693234,0.9913619,0.86226964,0.33536035,0.42552647,-0.08167688,-0.3798561,0.67378914,0.06590758,-0.094150886,0.5225484,0.051262826,0.70188314,0.77924955,1.1266552,0.94278556,-0.32039455,0.3089447,0.07817131,0.68496317,-0.014575511,0.42460877,-0.29184908,-0.1280172,-0.03457456,0.8672366,1.1064079,0.20631039,-0.005453123,0.84587044,-0.45527303,0.41430786,0.57197535,0.8963426,0.4589132,0.45102778,0.039883163,0.2577679,0.8696388,-0.29300818,0.25556245,0.99311346,-0.40880647,-0.14710219,-0.29294613,-0.2147342,1.1598074,0.26913238,0.03135521,0.5000691,1.2890625,0.08770032,1.3727754,0.5370962,1.3593127,0.22511645,0.8659784,0.31206754,-0.23098253,-0.22826135,0.91241574,0.09830175,-0.37211138,0.11782959,0.6361123,0.70615834,-0.5730646,0.75184065,0.5494123,-0.35541883,0.81830966,0.5698552,0.52596945,0.30913997,-0.18404959,0.82262063,0.26743996,-0.19566952,-0.36890453,0.62290466,0.9682147,0.71322584,-0.21506625,0.70951325,0.3437483,0.4830391,0.52435327,1.53513,1.1564523,0.7558375,-0.4643608,0.21402046,0.31695637,0.97567856,0.1067092,-0.047348157,0.44792166,0.90410507,-0.0657145,0.05967595,-0.23518589,1.1033729,-0.022460856,0.12609136,-0.2643223,-0.12440286,0.69317126,0.56244284,0.5185334,0.76427096,-0.30778617,0.88043106,0.4178405,0.6030588,0.12232829,0.1303714,0.24196412,0.96098936,0.13805115,0.7688367,0.5319883,0.71587634,0.21930702,0.10028109,0.11618297,0.22501336,0.48657322,0.5445664,0.9734424,1.243638,0.5951858,0.3190719,0.7740868,1.0128729,0.8315708,-0.035932306,-0.15069601,0.6152607,1.1064888,-0.3567421,-0.09455233,0.062120013,0.13793787,0.06397187,0.62983423,-0.07253213,-0.05068177,0.80380535,0.2210451,0.7131535,1.1121204,0.8971148,0.42070472,1.2096087,0.51200485,-0.18023011,0.5419697,0.1626327,1.0865797,0.9091289,0.08798477,0.64851135,0.48033655,-0.55018705,1.0269649,0.25090966,1.0002166,0.22789466,1.2655687,1.0767403,0.5291091,0.20510502,0.33763093,0.4995389,0.7617693,-0.37724686,0.013001327,-0.3534599,1.3291283,-0.35959265,0.13182561,0.6215642,0.48531428,0.9746064,1.0425676,-0.19700126,0.25836113,1.1954238,0.81125736,0.044579998,0.1712833,-0.31172657,0.5183138,0.80194426,0.8348714,0.9567935,0.6171231,0.33801013,1.0121742,0.19760849,0.5715313,-0.06402765,0.041521676,-0.16530725,0.25227672,0.44762456,1.0017859,0.22360927,-0.10678656,0.56940013,0.9474786,0.29582852,0.42978045,0.6892632,-0.20930023,0.551581,-0.38474178,0.37677094,0.4781656,-0.023667471,0.15613995,-0.12606132,0.8347433,-0.4140617,0.5688762,0.43414307,1.1510011,1.1539445,0.36180967,0.4218251,0.38357738,0.7326565,0.91157943,0.30226856,0.18565378,0.8849751,0.023367368,0.5585269,-0.5952383,0.1852389,1.2060215,1.0181755,0.54122204,0.48145854,0.7778476,0.012350929,0.27706295,0.17893068,0.8619679,0.15870236,0.19662146,0.036115725,0.25289536,0.52146095,0.537101,0.45950708,0.49088803,0.3280422,0.6188399,0.9134501,0.5458251,0.80385363,0.17046471,0.10238508,0.12366368,0.7871809,1.2506039,-0.16352098,1.2578561,0.3134697,0.15646596,1.0805525,0.21238974,1.0952307,0.52915186,0.46487904,1.2773571,1.2984284,0.08338475,0.49209157,0.21038286,0.22119254,0.49841407,1.1053063,0.8542432
-0.10668901,0.8761149,1.5242802,1.867947,0.53098285,1.3393041,0.8877178,1.4638046,0.9867227,0.711392,0.40834403,0.732992,1.3987399,1.5306153,0.65614,0.23215823,1.4562279,1.1069235,0.9874883,1.6730098,0.46064937,0.86403614,1.0531615,1.8492085,1.2300775,0.7801104,1.6681608,1.3941015,1.0163764,1.1196076,1.3944266,1.0815252,0.8537404,1.175705,1.5260978,1.8693523,0.8671062,0.87583065,0.366634,1.115014,1.0214957,0.8429769,0.7756514,0.1870644,1.6291268,0.85865337,1.8802799,0.74826735,1.3505704,1.3808733,0.33882773,0.8369255,0.40567523,2.1352785,1.5065485,0.5904857,0.69313455,0.86665213,0.8106071,0.43512908,0.39728397,0.19235398,-0.020150186,1.5662321,1.0482666,0.53136456,0.54015505,1.160968,0.4290064,0.8897191,1.2528828,0.1163568,0.6147739,1.0172869,1.0461973,1.3973161,1.7045454,1.1278079,0.27790272,0.9555847,0.45284015,1.363374,1.5606236,0.46572834,0.14711745,0.58312696,2.0006256,1.0891207,1.7473792,0.92478997,0.9067234,1.0089563,1.5210298,1.3909835,1.4594445,0.8626721,0.17688619,1.752696,1.3683058,1.2794135,0.43663117,0.3949386,1.5193055,0.69522095,1.0807693,0.81169903,1.5399029,0.70513225,1.3433834,1.7840253,0.7347435,0.97579753,0.4456994,1.1731657,0.9450134,2.0017316,0.51424515,0.21513784,0.6453715,0.89766234,0.6296721,0.45291117,1.1887012,1.1694913,1.1628878,1.1620953,0.83735895,1.0828136,0.050036237,0.90476406,0.96439976,0.10095477,1.0402067,0.30950126,0.49436185,0.9623795,1.1936347,1.7459714,1.0537549,1.5085377,1.8852377,0.5434215,2.1317878,1.3514789,0.28308418,0.6854193,0.053015232,0.7439775,1.2754062,-0.21365748,0.7285987,1.2111818,0.5586604,1.5555505,0.50770634,0.5532223,0.5342758,1.1543406,0.7039182,-0.095386125,2.118691,0.5650899,-0.060003676,0.45640096,0.68692523,1.1664675,0.90156883,0.84664524,0.50810945,1.645773,1.1848774,0.39989403,0.8306366,0.533367,0.18891865,1.3908626,1.7512562,0.70187205,0.6019044,1.1243995,1.1655177,0.0467409,2.0346193,1.0839926,0.9432433,2.0055768,1.126822,0.060955774,0.68446946,1.1231575,-0.15809695,0.72150385,0.7448085,0.46547505,1.2914168,1.2051003,1.0363852,1.554605,1.2273544,0.3916262,1.1952001,-0.06672574,0.4291303,0.5602212,0.96032774,0.37976775,1.0717746,1.2205594,0.88382316,1.3547193,0.370607,0.6341621,1.7165931,0.8873381,1.3469583,0.69950455,-0.051243927,0.9718261,0.53748244,1.6079195,1.8231701,1.0459756,0.7331015,0.16695681,1.7053134,0.66975355,1.8410711,0.51638836,1.3006365,1.9309481,0.9856111,1.7913486,0.7451097,1.0371513,1.9071709,0.78583586,1.3431157,1.4164124,0.39465037,1.1829494,1.747116,0.44509667,0.83127576,1.378596,0.8959225,0.31639495,1.3756466,0.78043926,0.8840343,1.8580846,-0.040094975,0.5704223,1.1657304,1.6203634,1.0811744,1.8459771,0.88701844,0.8902891,0.28145373,0.9803555,0.6216847,1.7024385,1.4201475,1.2866223,0.8809275,1.4056123,1.4247715,1.2143865,0.79445523,1.4706893,0.8389109,0.39518014,0.98424983,1.0470352,0.3842112,1.1096604,0.8265333,0.33267805,0.26896974,1.9479918,1.0765512,1.0568461,0.6424145,1.4847533,0.9770398,1.0273055,0.91870594,0.9702493,0.9685259,1.179292,2.0342543,1.6475235,0.89364135,0.62455994,1.3767736,0.027240336,0.7144404,0.63535506,0.77986246,0.6078464,0.9550431,0.88684195,1.9523696,1.224764,0.80635655,0.6160726,1.3610089,1.0036205,0.89421254,1.4128991,1.0020763,1.5716243,0.76558983,1.2118677,1.0707023,0.48824358,1.3692272,1.2451221,1.6522559,1.5573856,1.634462,1.6378279,0.42736635,0.7024784,0.8415299,0.1464728,1.6845917,0.59693,1.6461446,-0.015734257,1.9196981,0.6675021,1.510693,-0.022797637,0.9371178,1.0674783,1.6195855,0.014338704,0.9892831,1.0615121,2.0214617,1.3889756,1.6365426,1.2038227,1.4507518,1.6008588,0.27647686,1.2178069,1.7796261,1.5845054,1.3680577,1.3222278,0.6379358,0.5654044,1.5184436,0.2631296,1.1391046,1.2907237,1.3901509,0.41894278,0.48870856,1.0320499,1.4970199,0.6037424,1.1197171,1.15768,1.8447781,0.4941717,1.4232463,1.0610967,0.40593442,1.5400076,1.5449088,1.9443429,0.8359083,0.45865992,1.3128953,0.787758,1.8162657,1.5212957,1.1166111,0.49460527,0.69490016,0.43117383,1.4710348,1.18192,1.2580315,0.44330776,0.6730346,0.4221601,1.3931375,1.8119563,1.848997,0.43384317,1.4336152,0.42572626,1.4253614,0.31738818,0.52404314,1.2868402,1.0161602,1.6079943,1.7904128,1.239966,0.8255291,1.541815,0.5531615,0.37515727,0.49462113,0.85680145,0.41661945,0.8317491,0.78300273,0.38125786,1.2732501,1.848235,0.7668396,-0.13072917,1.2930588,1.1369314,-0.047879595,1.5905044,0.77814066,0.52354467,1.162395,1.3377017,1.1816419,2.0024967,0.11298061,1.8207929,0.49400872,1.4953,0.65582186,1.0484997,1.3282659,0.80753034,0.44563335,0.43772337,1.3641821,1.3227646,-0.093847975,0.6217034,0.4562483,0.6809076,1.3360584,0.657654,0.4457257,0.90570915,0.66617066,1.1598703,1.2199787,0.26871586,1.286377,0.81471616,0.30786926,0.6074065,1.212049,1.4550526,0.8122083,1.4696298,0.5098902,1.0836953,0.7358463,1.3439512,0.19877337,0.34586543,1.0161574,0.7724691,0.99275976,1.2777054,0.4635075,1.0913483,1.7520345,1.0120418,0.9573314,0.7498057,0.24630427,0.69998646,1.4820406,1.0723218,0.0822231,1.3959836,0.37305614,0.87517405,0.7428957,1.116603,1.7523937,0.6902365,0.7385551,1.238609,0.6966144,0.58734787,0.30177775,0.23669328,1.1936253,0.27408165,0.6079505,0.29024613,0.5102355,1.1331943
1.099523,1.1142384,0.93479484,1.678056,1.7894293,0.5251342,1.2080916,1.2462617,0.07609592,1.7211506,0.68189543,0.758727,1.6968993,0.8481537,1.4426025,1.127262,1.6458709,1.4220436,1.6413584,0.3830376,0.4580123,0.4305989,1.5660115,1.3787805,1.1371343,0.54255426,0.8172278,0.6067166,0.6711377,0.9781377,1.0612694,1.6996994,1.2910229,0.5379722,1.3700111,1.0317329,0.64783996,0.91477716,1.9305354,1.4565477,0.3133071,0.4061702,1.9730376,0.7734687,0.7949665,0.15676616,1.9641834,1.0311055,1.4740841,0.77723324,1.9020369,1.0976883,0.7583727,1.3863227,1.2253127,1.4793793,1.232772,1.3562659,1.4457867,1.857959,1.0571952,1.0184566,0.20293497,1.6522759,1.9402617,0.66033065,0.88949686,0.6980746,1.3202581,1.8581568,1.5171992,1.6739918,1.0906878,0.1499557,1.8215343,1.2129532,1.4413348,1.0601364,1.1344242,1.3883497,0.9828363,1.7020205,1.1825687,1.0850705,0.26238817,1.0739477,1.3228208,1.0055021,1.2871836,1.7830778,1.1055665,0.88503355,2.1292477,1.81954,1.5050159,1.0331568,1.1159837,1.3435118,1.0558634,0.5001577,1.230458,1.2420318,0.7178388,1.7830136,0.8204397,0.63235646,1.072558,1.6430933,1.2387784,1.2377782,0.43429646,1.1440027,0.8701433,1.6288068,2.1322916,1.465709,1.8083942,1.7320454,0.8952751,1.6761236,0.44919664,0.7605201,1.5425849,0.42650416,1.444732,1.0471882,1.6970297,0.545998,1.5706924,0.55249876,0.723965,1.5362003,1.8527851,0.8147921,0.25685745,-0.015097734,1.6039461,0.7731101,0.9895861,1.575164,1.6466584,0.7307994,1.2850457,1.5265174,1.4817622,1.9158872,0.47929865,1.032139,0.7299924,0.44718987,1.6106293,1.2302036,0.74435574,0.99373305,0.009776646,0.8581742,0.6803585,0.6238901,1.746299,1.6772076,0.98587394,1.5632313,0.9721843,1.0010818,1.1509005,0.9941193,1.3040447,0.812556,0.9928669,0.66881746,1.2637559,1.6116428,1.67899,1.1772287,1.3815824,1.8050497,1.3498378,1.6239239,1.5847526,1.3653316,0.9098432,1.3146297,0.5598608,0.55650246,0.8889644,1.6458837,1.0148569,0.76942015,0.61819595,1.3636084,0.92630535,0.7607808,1.2985157,0.6787249,0.30888712,0.91926754,1.391681,1.0260714,1.4138677,1.9257717,1.5806482,0.5941775,0.040114895,0.47644445,1.3898649,1.4015108,0.12423106,1.5473914,0.050431583,1.1996834,1.5244141,0.3369668,0.9945936,0.10427137,2.001365,1.239547,1.8423693,0.5068601,1.2940147,0.8577999,0.6714402,0.89905244,1.3938333,1.3552626,1.8063036,2.036516,1.3536923,1.0827949,0.70469916,1.5284785,1.6816369,0.13234213,0.31598774,1.4500093,2.0863104,0.9221545,1.5121187,1.6600927,1.313584,0.6792,0.862462,1.8092955,0.23036222,1.2096957,0.40103143,0.86931974,0.7128334,1.8453729,2.0743926,1.0441393,1.5690968,1.362583,0.89901924,1.6467338,0.73476124,1.5658698,1.2817303,1.6297967,0.9338626,0.8293528,0.6486943,1.5174618,1.0701045,1.6189135,0.17699048,0.044102166,1.1587679,1.0502291,0.3198523,1.1064488,0.2850747,1.5302007,1.0255264,0.07711565,0.9291899,1.267325,1.875429,0.5257888,0.78831935,0.7236736,1.5032338,0.8846626,0.5152309,1.5929025,1.5311146,1.3302184,1.5396687,1.6698291,-0.008346616,1.4412826,1.0558711,1.0998816,1.014759,0.09895026,0.8916218,0.4788944,1.100998,1.3593816,1.2791313,0.68892276,-0.11402156,1.400088,1.685485,1.0159367,0.5884793,1.0928226,0.93476313,0.89049673,1.3642793,1.1275305,1.9704716,0.99924874,0.7354153,2.155476,1.2936987,2.0485077,0.7744302,0.8672618,1.0027077,0.9926632,1.1561517,0.84948176,1.2342674,1.7341769,0.95232147,0.7656287,1.8753555,0.96938807,1.8278011,0.32999012,1.0970714,0.94774246,1.3220247,0.7689734,0.6428071,0.8327199,1.0534045,1.2703934,0.99610704,1.2655425,0.35588887,0.43933076,1.0871958,0.5756379,1.7147143,0.8959513,0.9468974,1.7535962,0.5651974,0.837678,1.2127774,1.0524161,1.1168498,1.8868774,0.8873387,0.70782477,1.3716204,0.2194662,1.9510771,0.94087774,1.4863108,0.5785819,0.990057,1.2380484,1.0275351,0.3113675,1.1600658,1.239719,1.0229818,1.4062446,1.0528593,0.48601404,1.4790604,2.0841582,1.1056937,0.8516442,0.8930815,1.6935868,1.7031444,0.27639169,1.0669438,0.65287584,1.3803558,0.37301883,0.9454966,1.6816719,0.31888777,1.1953682,0.41647807,1.5875527,0.75288266,0.5840503,1.3077145,2.0533469,1.6890297,0.69753397,1.8173832,1.2389529,0.9559371,1.042221,0.57191634,0.4729217,1.2255224,0.8688805,1.4859396,0.2746832,1.8831553,0.9149056,0.6749118,2.1278465,0.91361815,0.8715881,1.0732965,1.3305751,1.3984547,1.7824557,1.0742173,1.6148933,1.2343354,-0.08958776,1.2226793,1.3274353,1.1456386,0.76146895,0.2465246,1.7822816,0.9342032,1.3820815,1.544556,1.4749874,0.87924814,1.506317,0.6126607,0.727003,1.3754215,0.28096718,1.0335,0.74628633,1.5293746,0.78019977,0.7642197,1.7257566,1.4374292,1.6106162,1.0699319,1.3209207,1.7847912,1.017882,0.7067838,1.0054271,1.0442368,1.1276802,0.3706197,0.47162485,0.9401386,1.6137632,0.51344323,1.2501197,0.6181253,1.7597724,0.5990948,1.0694529,0.58521736,0.15696318,1.6112005,0.6510442,0.7619783,-0.15845744,1.3816969,1.2196739,2.0182045,1.6073843,0.7216727,0.685202,0.7050216,1.9892136,1.9602474,0.35833433,1.670552,1.4114519,1.369614,2.2131925,0.30341256,1.5115304,0.6859715,1.3019764,0.7480885,0.17799549,1.234062,0.8817427,1.6506447,1.5046812,0.84252006,-0.012913005,0.114183925,0.96390104,0.44156352,1.2853823,1.8221148,2.022635
0,0,0,0,0,0,0,0,0,0,0,0,0,0,0,0,0,0,0,0,0,0,0,0,0,0,0,0,0,0,0,0,0,0,0,0,0,0,0,0,0,0,0,0,0,0,0,0,0,0,0,0,0,0,0,0,0,0,0,0,0,0,0,0,0,0,0,0,0,0,0,0,0,0,0,0,0,0,0,0,0,0,0,0,0,0,0,0,0,0,0,0,0,0,0,0,0,0,0,0,0,0,0,0,0,0,0,0,0,0,0,0,0,0,0,0,0,0,0,0,0,0,0,0,0,0,0,0,0,0,0,0,0,0,0,0,0,0,0,0,0,0,0,0,0,0,0,0,0,0,0,0,0,0,0,0,0,0,0,0,0,0,0,0,0,0,0,0,0,0,0,0,0,0,0,0,0,0,0,0,0,0,0,0,0,0,0,0,0,0,0,0,0,0,0,0,0,0,0,0,0,0,0,0,0,0,0,0,0,0,0,0,0,0,0,0,0,0,0,0,0,0,0,0,0,0,0,0,0,0,0,0,0,0,0,0,0,0,0,0,0,0,0,0,0,0,0,0,0,0,0,0,0,0,0,0,0,0,0,0,0,0,0,0,0,0,0,0,0,0,0,0,0,0,0,0,0,0,0,0,0,0,0,0,0,0,0,0,0,0,0,0,0,0,0,0,0,0,0,0,0,0,0,0,0,0,0,0,0,0,0,0,0,0,0,0,0,0,0,0,0,0,0,0,0,0,0,0,0,0,0,0,0,0,0,0,0,0,0,0,0,0,0,0,0,0,0,0,0,0,0,0,0,0,0,0,0,0,0,0,0,0,0,0,0,0,0,0,0,0,0,0,0,0,0,0,0,0,0,0,0,0,0,0,0,0,0,0,0,0,0,0,0,0,0,0,0,0,0,0,0,0,0,0,0,0,0,0,0,0,0,0,0,0,0,0,0,0,0,0,0,0,0,0,0,0,0,0,0,0,0,0,0,0,0,0,0,0,0,0,0,0,0,0,0,0,0,0,0,0,0,0,0,0,0,0,0,0,0,0,0,0,0,0,0,0,0,0,0,0,0,0,0,0,0,0,0,0,0,0,0,0,0,0,0,0,0,0,0,0,0,0,0,0,0,0,0,0,0,0
0,0,0,0,0,0,0,0,0,0,0,0,0,0,0,0,0,0,0,0,0,0,0,0,0,0,0,0,0,0,0,0,0,0,0,0,0,0,0,0,0,0,0,0,0,0,0,0,0,0,0,0,0,0,0,0,0,0,0,0,0,0,0,0,0,0,0,0,0,0,0,0,0,0,0,0,0,0,0,0,0,0,0,0,0,0,0,0,0,0,0,0,0,0,0,0,0,0,0,0,0,0,0,0,0,0,0,0,0,0,0,0,0,0,0,0,0,0,0,0,0,0,0,0,0,0,0,0,0,0,0,0,0,0,0,0,0,0,0,0,0,0,0,0,0,0,0,0,0,0,0,0,0,0,0,0,0,0,0,0,0,0,0,0,0,0,0,0,0,0,0,0,0,0,0,0,0,0,0,0,0,0,0,0,0,0,0,0,0,0,0,0,0,0,0,0,0,0,0,0,0,0,0,0,0,0,0,0,0,0,0,0,0,0,0,0,0,0,0,0,0,0,0,0,0,0,0,0,0,0,0,0,0,0,0,0,0,0,0,0,0,0,0,0,0,0,0,0,0,0,0,0,0,0,0,0,0,0,0,0,0,0,0,0,0,0,0,0,0,0,0,0,0,0,0,0,0,0,0,0,0,0,0,0,0,0,0,0,0,0,0,0,0,0,0,0,0,0,0,0,0,0,0,0,0,0,0,0,0,0,0,0,0,0,0,0,0,0,0,0,0,0,0,0,0,0,0,0,0,0,0,0,0,0,0,0,0,0,0,0,0,0,0,0,0,0,0,0,0,0,0,0,0,0,0,0,0,0,0,0,0,0,0,0,0,0,0,0,0,0,0,0,0,0,0,0,0,0,0,0,0,0,0,0,0,0,0,0,0,0,0,0,0,0,0,0,0,0,0,0,0,0,0,0,0,0,0,0,0,0,0,0,0,0,0,0,0,0,0,0,0,0,0,0,0,0,0,0,0,0,0,0,0,0,0,0,0,0,0,0,0,0,0,0,0,0,0,0,0,0,0,0,0,0,0,0,0,0,0,0,0,0,0,0,0,0,0,0,0,0,0,0,0,0,0,0,0,0,0,0,0,0,0,0,0,0,0,0,0,0,0,0,0,0,0,0,0,0,0,0
0,0,0,0,0,0,0,0,0,0,0,0,0,0,0,0,0,0,0,0,0,0,0,0,0,0,0,0,0,0,0,0,0,0,0,0,0,0,0,0,0,0,0,0,0,0,0,0,0,0,0,0,0,0,0,0,0,0,0,0,0,0,0,0,0,0,0,0,0,0,0,0,0,0,0,0,0,0,0,0,0,0,0,0,0,0,0,0,0,0,0,0,0,0,0,0,0,0,0,0,0,0,0,0,0,0,0,0,0,0,0,0,0,0,0,0,0,0,0,0,0,0,0,0,0,0,0,0,0,0,0,0,0,0,0,0,0,0,0,0,0,0,0,0,0,0,0,0,0,0,0,0,0,0,0,0,0,0,0,0,0,0,0,0,0,0,0,0,0,0,0,0,0,0,0,0,0,0,0,0,0,0,0,0,0,0,0,0,0,0,0,0,0,0,0,0,0,0,0,0,0,0,0,0,0,0,0,0,0,0,0,0,0,0,0,0,0,0,0,0,0,0,0,0,0,0,0,0,0,0,0,0,0,0,0,0,0,0,0,0,0,0,0,0,0,0,0,0,0,0,0,0,0,0,0,0,0,0,0,0,0,0,0,0,0,0,0,0,0,0,0,0,0,0,0,0,0,0,0,0,0,0,0,0,0,0,0,0,0,0,0,0,0,0,0,0,0,0,0,0,0,0,0,0,0,0,0,0,0,0,0,0,0,0,0,0,0,0,0,0,0,0,0,0,0,0,0,0,0,0,0,0,0,0,0,0,0,0,0,0,0,0,0,0,0,0,0,0,0,0,0,0,0,0,0,0,0,0,0,0,0,0,0,0,0,0,0,0,0,0,0,0,0,0,0,0,0,0,0,0,0,0,0,0,0,0,0,0,0,0,0,0,0,0,0,0,0,0,0,0,0,0,0,0,0,0,0,0,0,0,0,0,0,0,0,0,0,0,0,0,0,0,0,0,0,0,0,0,0,0,0,0,0,0,0,0,0,0,0,0,0,0,0,0,0,0,0,0,0,0,0,0,0,0,0,0,0,0,0,0,0,0,0,0,0,0,0,0,0,0,0,0,0,0,0,0,0,0,0,0,0,0,0,0,0,0,0,0,0,0,0,0,0,0,0,0,0,0,0,0
0,0,0,0,0,0,0,0,0,0,0,0,0,0,0,0,0,0,0,0,0,0,0,0,0,0,0,0,0,0,0,0,0,0,0,0,0,0,0,0,0,0,0,0,0,0,0,0,0,0,0,0,0,0,0,0,0,0,0,0,0,0,0,0,0,0,0,0,0,0,0,0,0,0,0,0,0,0,0,0,0,0,0,0,0,0,0,0,0,0,0,0,0,0,0,0,0,0,0,0,0,0,0,0,0,0,0,0,0,0,0,0,0,0,0,0,0,0,0,0,0,0,0,0,0,0,0,0,0,0,0,0,0,0,0,0,0,0,0,0,0,0,0,0,0,0,0,0,0,0,0,0,0,0,0,0,0,0,0,0,0,0,0,0,0,0,0,0,0,0,0,0,0,0,0,0,0,0,0,0,0,0,0,0,0,0,0,0,0,0,0,0,0,0,0,0,0,0,0,0,0,0,0,0,0,0,0,0,0,0,0,0,0,0,0,0,0,0,0,0,0,0,0,0,0,0,0,0,0,0,0,0,0,0,0,0,0,0,0,0,0,0,0,0,0,0,0,0,0,0,0,0,0,0,0,0,0,0,0,0,0,0,0,0,0,0,0,0,0,0,0,0,0,0,0,0,0,0,0,0,0,0,0,0,0,0,0,0,0,0,0,0,0,0,0,0,0,0,0,0,0,0,0,0,0,0,0,0,0,0,0,0,0,0,0,0,0,0,0,0,0,0,0,0,0,0,0,0,0,0,0,0,0,0,0,0,0,0,0,0,0,0,0,0,0,0,0,0,0,0,0,0,0,0,0,0,0,0,0,0,0,0,0,0,0,0,0,0,0,0,0,0,0,0,0,0,0,0,0,0,0,0,0,0,0,0,0,0,0,0,0,0,0,0,0,0,0,0,0,0,0,0,0,0,0,0,0,0,0,0,0,0,0,0,0,0,0,0,0,0,0,0,0,0,0,0,0,0,0,0,0,0,0,0,0,0,0,0,0,0,0,0,0,0,0,0,0,0,0,0,0,0,0,0,0,0,0,0,0,0,0,0,0,0,0,0,0,0,0,0,0,0,0,0,0,0,0,0,0,0,0,0,0,0,0,0,0,0,0,0,0,0,0,0,0,0,0,0,0,0
0.37083325,0.48984498,0.5744699,0.40966716,0.8873233,0.4994541,0.4962009,0.49645868,0.29481643,0.41753757,0.4916355,0.5575379,0.64895225,0.5888898,0.39576843,0.268065,0.4830993,0.5287237,0.61686295,0.43293682,0.7077159,0.46986112,0.5173976,0.6335942,0.7015393,0.6312978,0.5466441,0.90116215,0.6849369,0.57657903,0.33141062,0.2798872,0.40308437,0.56725633,0.774881,0.4214247,0.47406334,0.6521363,0.5657869,0.31701887,0.23101763,0.7722912,0.52457356,0.90048105,0.71272874,0.5741902,0.67528635,0.5221585,0.48828155,0.63354564,0.30231062,0.2711597,0.5172546,0.78202814,0.68431073,0.79805195,0.38332355,0.41732717,0.8427784,0.8758099,0.7254437,0.3117696,0.6106032,0.32999825,0.24132115,0.7223087,0.84433985,0.3556873,0.31491512,0.6804629,0.23509578,0.8965992,0.35610846,0.68899345,0.76326907,0.34797817,0.35796654,0.88666433,0.6300586,0.5748993,0.74175024,0.44177046,0.69321257,0.6732313,0.7544765,0.5431379,0.41678005,0.75535977,0.6236911,0.5143213,0.5404986,0.585127,0.7008457,0.5152199,0.6521924,0.4521047,1.1135936,0.32038656,0.6210604,0.40199056,0.3127637,0.587055,0.29161412,0.48486745,0.84660184,0.52133054,0.3218712,0.37696812,0.5392705,0.23312311,0.61094236,0.60326046,0.68027055,0.61794084,0.81631744,0.591311,0.49744955,0.8635906,0.5484253,0.7169684,0.6237691,0.83133113,0.34148455,0.52017367,0.22435884,0.63363236,0.7416026,0.47165236,0.62306756,0.45509785,0.8609712,0.512393,0.8164899,0.79150236,0.82783306,0.9784616,0.5487056,0.11827925,0.31583172,0.63236606,0.46590823,0.69462883,0.6149573,0.6182705,0.26198348,0.67776716,0.8770594,0.332813,0.59832937,0.5535619,0.3090137,0.33525693,0.27045304,0.48514217,0.54468465,0.66387516,0.13820328,0.5474039,0.8585617,0.51926506,0.6722206,0.4979511,0.10820976,0.47221726,0.46911758,0.34859923,0.3187032,0.838676,0.45853487,0.6395659,0.29971024,0.38622615,0.7175924,0.5136008,0.5524031,0.89865106,0.39480245,0.2832487,0.3910017,0.4228323,0.52124494,0.7743237,0.56632704,0.66509515,0.87349737,0.49225727,0.6668705,0.5537177,0.39269644,0.3190173,0.43387783,0.23133095,0.827597,0.7459137,0.43408337,0.9066138,0.5987337,0.37959656,0.6838883,0.6210282,0.58794326,0.6366427,0.95525306,0.6970336,0.5778843,0.27305382,0.24703011,0.6356634,0.8964742,0.33344504,0.63575923,0.4932374,0.6277236,0.36301452,0.51055807,0.62479985,0.47426,0.4846848,0.43874338,0.9718371,0.7127541,0.42959294,0.3978488,0.7024707,0.5874826,0.83281386,0.655805,0.6547969,0.45981488,0.45063066,0.32535306,0.5420058,0.3580123,0.92135847,0.23798591,0.44608706,0.81077164,0.7816645,0.31904966,0.63611484,0.26520652,0.6659811,0.62743473,0.4583444,0.70186025,0.44969127,0.6631842,0.47254947,0.90869236,0.6323345,0.88126415,0.635154,0.35004312,0.47768685,0.55674046,0.34605685,0.4314313,0.4129729,0.73068684,0.7776122,0.44518772,0.703101,0.6723163,0.53771704,0.718639,0.7050261,0.77611953,0.7731717,0.49345928,0.73449606,0.16074945,0.39294854,0.33943272,0.6217895,0.6173962,0.7595305,0.62282676,0.46160504,0.85865957,0.296387,0.6908611,0.6882695,0.78984684,0.3754811,0.6601065,0.7106001,0.31908962,0.49146786,0.55062073,0.3935524,0.9044618,0.31133553,0.4830943,0.6464979,0.26964402,0.24683496,0.6121841,0.37361225,0.44814178,0.5477154,0.27838975,0.73015827,0.5969326,0.38236865,0.83021903,0.6970849,0.39763728,0.53339034,0.44888803,0.86661077,0.33439964,0.94005126,0.9292185,0.5367735,0.67646456,0.4908263,0.35711995,0.7483155,0.6756423,0.28939512,0.42887998,0.47708425,0.67110384,0.69748956,0.61929506,0.61775905,0.699836,0.50479233,0.7654408,0.51030505,0.48775056,0.7113505,0.19879012,0.89731884,0.1996767,0.76990765,0.23101737,0.8355104,0.1717417,0.53877664,0.39261004,0.80632013,0.33176878,0.59999883,0.34563094,0.39584374,0.78300107,0.3594242,0.5224625,0.8629242,0.6437449,0.21574198,0.8057501,0.4661647,0.59344816,0.49265066,0.50665736,0.43547446,0.5357385,0.74204636,0.65182805,0.20096453,0.6495654,0.71931046,0.5202007,0.77701586,0.43318197,0.5654897,0.8153844,0.6551404,0.42068002,0.38131472,0.63699573,0.28653032,0.46393064,0.22494155,0.8096903,0.4871513,0.7277471,0.69100964,0.36762324,0.30376333,0.59380007,0.43294075,0.41213435,0.37025258,0.5029198,0.40724966,0.387351,0.40645996,0.34956914,0.5886742,0.575233,0.8614886,0.23070113,0.72769666,0.79248697,0.61581594,0.46827173,0.5254919,0.7101597,0.64946026,0.1833133,0.79183716,0.77924603,0.19879265,0.631245,0.4667545,0.7127389,0.5666287,0.57893175,0.7596171,0.54411316,0.5639487,0.50826246,0.61871773,0.6434398,0.68857044,0.14600924,0.60607797,0.5288233,0.7391885,0.27037963,0.5235661,0.34401318,0.40367162,0.57961375,0.4185021,0.7695718,0.5053842,0.59128374,0.32401413,0.6038329,0.73624724,0.5513553,0.6231306,0.46180007,0.78718156,0.77963394,0.9184003,0.41984645,0.3483427,0.4039671,0.43614352,0.25977594,0.72257626,0.77869093,0.60666186,0.6107795,0.4104409,0.34113508,0.3079733,0.31827137,0.7848222,0.68553776,0.31645468,0.6032796,0.70835525,0.5955914,0.5193466,1.0513171,0.6182045,0.91998273,0.32988426,0.5670637,0.8510204,0.66281945,0.6077988,0.60163516,0.2869014,0.5517977,0.5798496,0.28009713,0.32406044,0.42708662,0.86097074,0.6613342,0.42601457,0.6194555,0.44521257,0.19390258,0.8364382,0.49895963,0.5083156,0.55709285,0.62645787,0.4788843,0.3203237,0.73723036,0.6777327,0.2586055,0.22859977,0.45634165,0.36607215,0.88854045,0.36158094,0.3690268,0.7797495,0.4584588,0.62650186
-0.14465111,0.029877055,0.4427602,0.010925387,0.33742055,-0.006276151,0.04234829,0.13838984,0.055603586,0.07608651,0.22074762,0.31839842,0.39122778,0.104701184,-0.095690556,0.36102897,0.24327576,0.07627037,0.31213155,0.15998678,0.044468325,0.19234884,-0.09975663,0.28837675,-0.26607132,0.37758586,-0.03744938,0.022869904,0.3656556,0.000394781,-0.007657958,0.41537803,0.018709661,0.092629164,0.14463264,0.3515591,0.24568799,-0.02633811,0.2766621,0.13405266,0.23242378,0.18855931,0.19344209,0.100492254,-0.011994435,-0.04697155,0.23633459,0.05113025,0.05910911,-0.059762392,-0.07683544,-0.02068826,-0.1456891,0.24103326,0.054233167,-0.10341194,0.017750543,-0.12000904,0.23157936,-0.053175703,0.15570705,0.33930072,0.14999045,0.03737653,0.32236952,0.3004476,-0.04082944,0.41969806,-0.18354449,-0.043399334,-0.09464119,0.2247171,0.21610792,-0.122776486,-0.112738356,0.35006195,0.1335022,0.20848869,0.043568596,0.43123403,0.6518745,0.08151058,-0.08289963,0.010572378,-0.004539443,0.15879104,0.2505211,0.12479157,0.21355423,0.3637043,0.37226203,0.13704196,0.2841068,0.056999408,0.22326796,-0.012684366,0.14020272,0.19369687,-0.060087826,0.5404323,0.4706243,0.407955,-0.10974053,0.11400334,0.10043664,-0.11811497,0.21419276,0.33314732,0.307064,0.36518037,0.589935,0.019054161,0.6336556,0.09343476,0.07847033,0.29502118,-0.05818457,0.32245564,0.21167104,0.23662278,0.088826664,0.2802458,0.12556851,0.003457624,0.37237477,0.14080146,0.26978475,0.314328,0.43201092,0.048041444,0.3503716,0.20921943,-0.05991469,0.36377576,-0.020745339,-0.114785835,0.00997456,-0.034377728,-0.021698656,0.123186044,0.15947667,0.14642386,0.20531254,0.031985763,0.04536989,0.42308822,0.20608518,-0.003017955,0.19687212,0.18822946,0.22020398,0.20621513,-0.006778712,0.37075752,0.36118695,0.43365902,0.036241356,0.09332909,0.24572453,0.033452153,0.05210527,-0.07189842,0.49598786,0.011800677,0.2012166,0.29030728,-0.14809632,0.3729678,-0.067067534,0.107687496,0.22673303,0.13530998,0.08628265,0.29109877,-0.025461094,0.14655466,0.21584444,0.092741,0.43388885,-0.11253236,0.06966011,0.33698222,0.2434458,0.1270659,0.38429287,0.05767027,-0.061370164,0.25762263,-0.000990292,0.05798705,0.15405461,0.46339592,0.19169845,0.003526004,0.34399354,0.15513824,-0.12999034,0.10934832,-0.11617476,0.11934418,0.44498053,0.28992227,0.43740377,-0.30067345,0.16180831,0.001409966,0.07948112,0.115988396,0.20998688,0.4301724,0.13451438,0.23478708,0.02569437,0.35696828,0.45214498,-0.10911559,0.07773431,0.13889068,0.08184156,0.08289431,0.42325315,0.06334377,-0.026569707,-0.09360689,-0.25921327,0.003361143,-0.07872795,0.25743932,0.12129947,-0.1539142,-0.018046446,0.25116375,0.3362836,0.3376309,0.37425086,0.24523546,0.28638908,-0.033330325,0.11151087,0.15425278,0.24128293,-0.06837707,-0.055793364,0.3114906,-0.08070218,0.548822,0.070782304,0.19302773,-0.013063346,0.17387757,-0.11068193,0.21489634,0.23971683,0.001643952,-0.030625299,0.46490538,-0.022437587,-0.06678525,0.17495851,0.26601094,0.18904424,-0.10906551,0.16086732,-0.053218946,0.2961099,0.061746936,-0.1211489,-0.07139813,-0.039691545,0.26812154,0.26491687,-0.056702234,0.061463077,-0.027170863,0.1715629,0.012489424,0.0641755,0.046500135,0.12282797,-0.007913636,0.29963595,0.15031509,0.021484587,-0.025720775,-0.024507973,0.33970848,0.19148386,0.0921953,0.14421865,-0.045084395,0.2457391,-0.050214346,0.090558015,0.2939392,0.14388256,0.16085908,0.21972318,0.19184548,0.047949716,0.33220115,0.30580685,0.31240535,0.06274348,0.32451388,0.07567615,0.15836757,0.3215878,0.30840376,0.053098433,0.055433393,-0.10174815,0.13858944,0.34745094,0.16537265,0.02495724,0.29644054,0.31544074,0.027294831,0.26971397,0.09775763,0.5066797,0.059115965,-0.02162574,0.48510057,0.20841607,0.2695046,0.07529264,0.002372735,0.08005252,0.12876722,0.09217706,-0.025913903,-0.13401933,0.04249135,-0.09290277,0.06077676,0.003991897,0.3277581,0.34787315,0.39047775,0.121164,-0.06775503,-0.030867439,0.40984792,0.40043402,0.31442904,0.16624288,0.20002118,0.21566421,0.38280576,0.2096431,0.13291304,-0.09671253,0.07721211,0.06441236,0.29158083,0.34509385,-0.09747027,0.3890648,0.24844664,0.17414546,-0.16110858,0.13500169,0.26345474,0.031729188,0.2585476,-0.108151406,0.37292722,0.13857886,-0.006798383,0.083732955,0.3067177,-0.100482166,-0.10516451,0.008124904,0.06438151,0.10942259,0.020532232,0.39634395,0.071288355,0.41489166,0.32388765,0.2369988,0.43623376,-0.07150999,0.3023075,0.24634615,-0.035697404,0.1562194,0.1928931,-0.034356467,-0.034769934,-0.006073141,0.38383782,0.2115712,-0.06492597,-0.032450963,0.29761627,-0.13235904,0.25266013,0.1935861,0.39163324,0.002354391,0.20300737,-0.057720993,0.504424,0.38360453,0.23672,0.25741947,0.09138819,0.18522039,0.04269064,0.3223348,0.2082898,0.30989867,-0.0585653,0.33214736,-0.13806438,0.09266053,0.1514846,0.6014869,-0.033804845,-0.021728385,0.2864088,0.276849,0.000588347,0.23916154,0.032726977,0.09852391,0.15413475,0.28020948,0.42422482,0.0321941,-0.007353543,0.21065591,0.09490312,0.42498127,0.25172263,0.2964674,0.10371304,0.22413075,0.1911088,0.3221919,0.16457471,0.25155205,-0.06277289,0.37796652,-0.035753015,-0.029202526,0.34982663,0.040276285,0.041697003,-0.043590806,0.33529884,0.40387148,0.33954668,-0.18478745,0.070204884,0.40565705,0.2528641,0.58167326,0.40417108,0.18160284,0.003866342,0.48552728,0.30056548,0.1527763,0.23881467,0.28549004,0.30661908,0.32205337,0.06376873,0.12227339,0.056972496,-0.032284945,-0.17829156,0.3273841,0.37198138,-0.021363456,0.043476846,-0.00134734,0.0817528,0.3161934,0.14373837,0.19389823,0.3745072,0.1208617,-0.08237178,0.20869088,0.10611922,-0.17776719,-0.029005362,0.4143204,0.41997027,0.2268023,0.3117108,0.7516459,0.22237103,0.2712185,-0.06658315
0.29112428,0.053368475,-0.029283667,0.03150098,-0.07127091,0.42625,-0.061464902,0.35841572,0.07509963,0.19314042,0.27556852,0.056836337,0.17355746,-0.09772789,-0.051387105,-0.048914354,-0.09009981,0.07033206,0.26405308,-0.080953956,-0.005965688,0.21690431,-0.014101101,0.26336128,0.2944543,-0.19987272,0.1491355,0.26190346,0.17907286,-0.056242406,0.27985045,-0.014172506,0.18664744,0.14317758,0.07277055,0.048781376,0.31038964,0.037785154,0.18843305,0.20712025,0.22864822,0.040577117,0.33080143,-0.038261913,0.04969018,0.081605226,-0.16852032,0.21744262,0.043123126,-0.19211169,-0.1902105,0.2572216,0.45306563,-0.008485516,0.11312788,0.41162977,0.24831702,0.111008234,0.3968778,0.25631633,0.20262598,0.2586039,-0.23628023,-0.038343456,-0.13913944,0.39854568,0.052667398,-0.13392067,-0.02821474,0.24672091,0.36049637,0.32745472,0.14979583,0.40762386,0.27512214,0.34484363,0.27472308,0.14488752,-0.2146108,0.04566962,0.36430636,-0.17687201,0.23660669,0.43253586,-0.034502883,0.37209162,0.3243074,0.21347137,0.56354475,-0.097843,0.2914889,0.2102311,0.23727636,0.33454075,0.29386392,-0.18263568,0.043816302,-0.021498524,0.09887572,0.49142003,-0.008504908,-0.091862194,0.29723218,0.21049368,-0.20984462,0.19424494,-0.006355345,0.09937967,0.07985068,0.14061064,0.17420822,0.09446271,0.2783364,0.20790684,-0.13767348,0.13548625,-0.08410347,0.14370307,-0.26234066,-0.112443805,0.22516571,0.25280473,0.3530434,0.21606705,0.16953658,0.30203113,-0.034125075,0.12347413,0.014439992,0.15510087,-0.17582704,-0.14857805,-0.14664751,0.5564827,0.03385613,-0.011409696,0.23207793,0.2945599,0.070045486,0.36065313,0.20557806,0.21220016,0.3866062,-0.15036006,0.0717373,-0.07836329,0.08635796,0.17541173,0.1910265,-0.029246304,0.053362735,0.07192147,0.3039845,-0.13151495,-0.017767185,0.19020419,0.18935099,0.16603285,0.05757613,0.16591388,0.1283665,-0.16847019,0.06566105,0.22950864,-0.23547472,-0.13077585,-0.14056632,0.58070344,0.2535947,0.26641518,-0.016499318,0.000428068,-0.20609877,-0.010829897,0.30860817,0.016326789,0.13219027,-0.03320813,0.06636385,0.12908159,0.2210222,0.14997455,0.09634669,0.3058498,0.20032883,0.08016253,0.108105056,-0.1554973,0.30420431,0.072385155,0.12673083,0.26241103,-0.011576246,0.01577607,-0.015073654,0.033805683,0.022271946,-0.071735375,0.06430989,0.17604466,0.5012795,0.30433977,-0.041799963,0.16510075,-0.14826983,0.26304895,-0.13191748,0.03031013,0.15384196,0.30472428,0.18751934,0.2830881,0.36181715,-0.025296597,0.12727675,-0.031187573,0.097050466,0.21627684,0.53606933,0.2098393,0.061068553,0.063763864,0.35356557,0.026086899,0.16152975,0.2882773,0.1790813,0.22912896,0.029132435,0.12440684,0.18688472,0.22874095,0.1129689,-0.011995317,0.19004914,0.3831884,0.4844011,0.2501808,-0.20848338,0.2616861,-0.0586792,0.2749832,-0.04703304,0.31358522,0.18080167,0.35981733,0.36604792,0.29973984,-0.14633645,0.086944,0.1720851,0.30919072,-0.01582139,0.12466564,0.16622566,0.103073254,0.13419527,-0.17640664,0.20434327,0.16044042,0.2109003,0.010379463,-0.15320723,-0.016001798,0.22164513,0.30065432,0.042404495,0.40205827,-0.16988118,-0.19399129,0.14279933,0.22467546,0.15001813,0.20198719,-0.23302568,0.029428087,0.30070958,-0.18693934,-0.033719245,-0.08433925,-0.04420258,0.092829086,0.49823567,-0.05359663,0.011433337,0.03671627,0.35413545,-0.24718079,0.02963656,-0.058542065,0.38099727,0.43032828,0.29612127,0.24569707,-0.094025865,0.033589736,0.27395377,0.1444457,0.05333466,0.075884655,-0.14384551,0.28261554,-0.16084038,-0.105142914,0.3840827,-0.076819226,0.18510528,0.53065175,0.28261918,-0.22840367,-0.08492888,0.011810112,0.13325904,0.1711963,-0.081267804,0.21189643,0.10220351,-0.04996349,0.16656315,0.057318673,0.12742962,0.05465172,0.037199546,0.31209016,0.22487237,0.33103234,-0.040970083,0.123396404,0.1495257,0.30677545,0.004612426,0.02217434,-0.047333557,-0.02055246,0.11685214,-0.06470245,-0.09614003,0.34047258,0.45040116,0.45534706,0.18426651,0.11825194,-0.05576304,0.08245321,0.059863307,-0.030058878,-0.020925812,-0.1922274,-0.17021087,0.2886501,0.19540717,0.04954034,0.17687152,-0.045073777,-0.099997245,-0.014718106,0.009766563,0.096197166,0.044741143,0.14619997,0.25913483,0.029419119,-0.033030465,0.17516409,-0.025879566,-0.11205551,-0.04780448,0.12467546,0.45038065,0.003648148,0.3234251,0.47594184,0.1567877,0.0386329,-0.16103712,0.25415125,0.10055677,0.048747733,0.40201178,0.008180174,0.24090047,0.2730173,0.11776838,0.050360136,0.3317715,0.090047136,-0.011763474,0.04191094,0.08746018,0.14417385,0.07874078,0.17229263,0.23392402,-0.05335083,0.10343545,0.008024296,0.24830702,0.25802663,0.01132034,-0.16755116,0.050580528,-0.123842455,-0.03607451,0.07373245,-0.16779183,0.40521994,-0.08964016,0.057652943,-0.13931148,0.3194056,0.18298744,0.060993932,0.2560908,-0.21039587,-0.22717834,-0.11834454,0.4813328,0.10508536,0.2053983,-0.005960632,0.16744281,0.314942,0.058451008,0.032092724,0.09477586,0.13538969,0.5733163,0.020314014,-0.069465585,-0.044671744,0.40408596,0.32847312,0.059511345,0.33736187,0.18500243,-0.014179512,0.12060468,-0.000844928,-0.079602495,0.0903953,-0.010262807,-0.20392224,-0.1560964,0.29530847,0.44790596,-0.10296788,0.2074159,0.05359773,0.13220824,0.21764944,0.17926033,0.047393672,0.19904114,0.31033844,0.1841316,0.040718205,0.4046793,-0.0188258,0.07884695,0.20762807,0.44611865,0.02570604,-0.17216223,0.26020634,0.10581554,0.22795543,-0.049262375,0.13162366,0.25224486,0.16463587,0.53836197,0.2134388,-0.16151759,-0.30820006,0.17085196,-0.12388501,-0.049306255,0.12446587,0.16371556,-0.15493894,-0.07533006,0.16089845,0.15771185,0.000751153,-0.06638903,0.040516514,0.3813345,0.0931901,-0.047433548,0.08125391,0.005968014,-0.23961218,0.18903461,-0.044053588,0.35183266,-0.009457372,0.7154196,-0.08629569,-0.0459889,-0.23335657
0,0,0,0,0,0,0,0,0,0,0,0,0,0,0,0,0,0,0,0,0,0,0,0,0,0,0,0,0,0,0,0,0,0,0,0,0,0,0,0,0,0,0,0,0,0,0,0,0,0,0,0,0,0,0,0,0,0,0,0,0,0,0,0,0,0,0,0,0,0,0,0,0,0,0,0,0,0,0,0,0,0,0,0,0,0,0,0,0,0,0,0,0,0,0,0,0,0,0,0,0,0,0,0,0,0,0,0,0,0,0,0,0,0,0,0,0,0,0,0,0,0,0,0,0,0,0,0,0,0,0,0,0,0,0,0,0,0,0,0,0,0,0,0,0,0,0,0,0,0,0,0,0,0,0,0,0,0,0,0,0,0,0,0,0,0,0,0,0,0,0,0,0,0,0,0,0,0,0,0,0,0,0,0,0,0,0,0,0,0,0,0,0,0,0,0,0,0,0,0,0,0,0,0,0,0,0,0,0,0,0,0,0,0,0,0,0,0,0,0,0,0,0,0,0,0,0,0,0,0,0,0,0,0,0,0,0,0,0,0,0,0,0,0,0,0,0,0,0,0,0,0,0,0,0,0,0,0,0,0,0,0,0,0,0,0,0,0,0,0,0,0,0,0,0,0,0,0,0,0,0,0,0,0,0,0,0,0,0,0,0,0,0,0,0,0,0,0,0,0,0,0,0,0,0,0,0,0,0,0,0,0,0,0,0,0,0,0,0,0,0,0,0,0,0,0,0,0,0,0,0,0,0,0,0,0,0,0,0,0,0,0,0,0,0,0,0,0,0,0,0,0,0,0,0,0,0,0,0,0,0,0,0,0,0,0,0,0,0,0,0,0,0,0,0,0,0,0,0,0,0,0,0,0,0,0,0,0,0,0,0,0,0,0,0,0,0,0,0,0,0,0,0,0,0,0,0,0,0,0,0,0,0,0,0,0,0,0,0,0,0,0,0,0,0,0,0,0,0,0,0,0,0,0,0,0,0,0,0,0,0,0,0,0,0,0,0,0,0,0,0,0,0,0,0,0,0,0,0,0,0,0,0,0,0,0,0,0,0,0,0,0,0,0,0,0,0,0,0,0,0,0,0,0,0,0,0,0,0,0,0,0,0,0,0,0,0,0,0,0
0,0,0,0,0,0,0,0,0,0,0,0,0,0,0,0,0,0,0,0,0,0,0,0,0,0,0,0,0,0,0,0,0,0,0,0,0,0,0,0,0,0,0,0,0,0,0,0,0,0,0,0,0,0,0,0,0,0,0,0,0,0,0,0,0,0,0,0,0,0,0,0,0,0,0,0,0,0,0,0,0,0,0,0,0,0,0,0,0,0,0,0,0,0,0,0,0,0,0,0,0,0,0,0,0,0,0,0,0,0,0,0,0,0,0,0,0,0,0,0,0,0,0,0,0,0,0,0,0,0,0,0,0,0,0,0,0,0,0,0,0,0,0,0,0,0,0,0,0,0,0,0,0,0,0,0,0,0,0,0,0,0,0,0,0,0,0,0,0,0,0,0,0,0,0,0,0,0,0,0,0,0,0,0,0,0,0,0,0,0,0,0,0,0,0,0,0,0,0,0,0,0,0,0,0,0,0,0,0,0,0,0,0,0,0,0,0,0,0,0,0,0,0,0,0,0,0,0,0,0,0,0,0,0,0,0,0,0,0,0,0,0,0,0,0,0,0,0,0,0,0,0,0,0,0,0,0,0,0,0,0,0,0,0,0,0,0,0,0,0,0,0,0,0,0,0,0,0,0,0,0,0,0,0,0,0,0,0,0,0,0,0,0,0,0,0,0,0,0,0,0,0,0,0,0,0,0,0,0,0,0,0,0,0,0,0,0,0,0,0,0,0,0,0,0,0,0,0,0,0,0,0,0,0,0,0,0,0,0,0,0,0,0,0,0,0,0,0,0,0,0,0,0,0,0,0,0,0,0,0,0,0,0,0,0,0,0,0,0,0,0,0,0,0,0,0,0,0,0,0,0,0,0,0,0,0,0,0,0,0,0,0,0,0,0,0,0,0,0,0,0,0,0,0,0,0,0,0,0,0,0,0,0,0,0,0,0,0,0,0,0,0,0,0,0,0,0,0,0,0,0,0,0,0,0,0,0,0,0,0,0,0,0,0,0,0,0,0,0,0,0,0,0,0,0,0,0,0,0,0,0,0,0,0,0,0,0,0,0,0,0,0,0,0,0,0,0,0,0,0,0,0,0,0,0,0,0,0,0,0,0,0,0,0,0,0,0,0,0,0
0,0,0,0,0,0,0,0,0,0,0,0,0,0,0,0,0,0,0,0,0,0,0,0,0,0,0,0,0,0,0,0,0,0,0,0,0,0,0,0,0,0,0,0,0,0,0,0,0,0,0,0,0,0,0,0,0,0,0,0,0,0,0,0,0,0,0,0,0,0,0,0,0,0,0,0,0,0,0,0,0,0,0,0,0,0,0,0,0,0,0,0,0,0,0,0,0,0,0,0,0,0,0,0,0,0,0,0,0,0,0,0,0,0,0,0,0,0,0,0,0,0,0,0,0,0,0,0,0,0,0,0,0,0,0,0,0,0,0,0,0,0,0,0,0,0,0,0,0,0,0,0,0,0,0,0,0,0,0,0,0,0,0,0,0,0,0,0,0,0,0,0,0,0,0,0,0,0,0,0,0,0,0,0,0,0,0,0,0,0,0,0,0,0,0,0,0,0,0,0,0,0,0,0,0,0,0,0,0,0,0,0,0,0,0,0,0,0,0,0,0,0,0,0,0,0,0,0,0,0,0,0,0,0,0,0,0,0,0,0,0,0,0,0,0,0,0,0,0,0,0,0,0,0,0,0,0,0,0,0,0,0,0,0,0,0,0,0,0,0,0,0,0,0,0,0,0,0,0,0,0,0,0,0,0,0,0,0,0,0,0,0,0,0,0,0,0,0,0,0,0,0,0,0,0,0,0,0,0,0,0,0,0,0,0,0,0,0,0,0,0,0,0,0,0,0,0,0,0,0,0,0,0,0,0,0,0,0,0,0,0,0,0,0,0,0,0,0,0,0,0,0,0,0,0,0,0,0,0,0,0,0,0,0,0,0,0,0,0,0,0,0,0,0,0,0,0,0,0,0,0,0,0,0,0,0,0,0,0,0,0,0,0,0,0,0,0,0,0,0,0,0,0,0,0,0,0,0,0,0,0,0,0,0,0,0,0,0,0,0,0,0,0,0,0,0,0,0,0,0,0,0,0,0,0,0,0,0,0,0,0,0,0,0,0,0,0,0,0,0,0,0,0,0,0,0,0,0,0,0,0,0,0,0,0,0,0,0,0,0,0,0,0,0,0,0,0,0,0,0,0,0,0,0,0,0,0,0,0,0,0,0,0,0,0,0,0,0,0,0
0,0,0,0,0,0,0,0,0,0,0,0,0,0,0,0,0,0,0,0,0,0,0,0,0,0,0,0,0,0,0,0,0,0,0,0,0,0,0,0,0,0,0,0,0,0,0,0,0,0,0,0,0,0,0,0,0,0,0,0,0,0,0,0,0,0,0,0,0,0,0,0,0,0,0,0,0,0,0,0,0,0,0,0,0,0,0,0,0,0,0,0,0,0,0,0,0,0,0,0,0,0,0,0,0,0,0,0,0,0,0,0,0,0,0,0,0,0,0,0,0,0,0,0,0,0,0,0,0,0,0,0,0,0,0,0,0,0,0,0,0,0,0,0,0,0,0,0,0,0,0,0,0,0,0,0,0,0,0,0,0,0,0,0,0,0,0,0,0,0,0,0,0,0,0,0,0,0,0,0,0,0,0,0,0,0,0,0,0,0,0,0,0,0,0,0,0,0,0,0,0,0,0,0,0,0,0,0,0,0,0,0,0,0,0,0,0,0,0,0,0,0,0,0,0,0,0,0,0,0,0,0,0,0,0,0,0,0,0,0,0,0,0,0,0,0,0,0,0,0,0,0,0,0,0,0,0,0,0,0,0,0,0,0,0,0,0,0,0,0,0,0,0,0,0,0,0,0,0,0,0,0,0,0,0,0,0,0,0,0,0,0,0,0,0,0,0,0,0,0,0,0,0,0,0,0,0,0,0,0,0,0,0,0,0,0,0,0,0,0,0,0,0,0,0,0,0,0,0,0,0,0,0,0,0,0,0,0,0,0,0,0,0,0,0,0,0,0,0,0,0,0,0,0,0,0,0,0,0,0,0,0,0,0,0,0,0,0,0,0,0,0,0,0,0,0,0,0,0,0,0,0,0,0,0,0,0,0,0,0,0,0,0,0,0,0,0,0,0,0,0,0,0,0,0,0,0,0,0,0,0,0,0,0,0,0,0,0,0,0,0,0,0,0,0,0,0,0,0,0,0,0,0,0,0,0,0,0,0,0,0,0,0,0,0,0,0,0,0,0,0,0,0,0,0,0,0,0,0,0,0,0,0,0,0,0,0,0,0,0,0,0,0,0,0,0,0,0,0,0,0,0,0,0,0,0,0,0,0,0,0,0,0,0,0,0,0,0,0,0
0,0,0,0,0,0,0,0,0,0,0,0,0,0,0,0,0,0,0,0,0,0,0,0,0,0,0,0,0,0,0,0,0,0,0,0,0,0,0,0,0,0,0,0,0,0,0,0,0,0,0,0,0,0,0,0,0,0,0,0,0,0,0,0,0,0,0,0,0,0,0,0,0,0,0,0,0,0,0,0,0,0,0,0,0,0,0,0,0,0,0,0,0,0,0,0,0,0,0,0,0,0,0,0,0,0,0,0,0,0,0,0,0,0,0,0,0,0,0,0,0,0,0,0,0,0,0,0,0,0,0,0,0,0,0,0,0,0,0,0,0,0,0,0,0,0,0,0,0,0,0,0,0,0,0,0,0,0,0,0,0,0,0,0,0,0,0,0,0,0,0,0,0,0,0,0,0,0,0,0,0,0,0,0,0,0,0,0,0,0,0,0,0,0,0,0,0,0,0,0,0,0,0,0,0,0,0,0,0,0,0,0,0,0,0,0,0,0,0,0,0,0,0,0,0,0,0,0,0,0,0,0,0,0,0,0,0,0,0,0,0,0,0,0,0,0,0,0,0,0,0,0,0,0,0,0,0,0,0,0,0,0,0,0,0,0,0,0,0,0,0,0,0,0,0,0,0,0,0,0,0,0,0,0,0,0,0,0,0,0,0,0,0,0,0,0,0,0,0,0,0,0,0,0,0,0,0,0,0,0,0,0,0,0,0,0,0,0,0,0,0,0,0,0,0,0,0,0,0,0,0,0,0,0,0,0,0,0,0,0,0,0,0,0,0,0,0,0,0,0,0,0,0,0,0,0,0,0,0,0,0,0,0,0,0,0,0,0,0,0,0,0,0,0,0,0,0,0,0,0,0,0,0,0,0,0,0,0,0,0,0,0,0,0,0,0,0,0,0,0,0,0,0,0,0,0,0,0,0,0,0,0,0,0,0,0,0,0,0,0,0,0,0,0,0,0,0,0,0,0,0,0,0,0,0,0,0,0,0,0,0,0,0,0,0,0,0,0,0,0,0,0,0,0,0,0,0,0,0,0,0,0,0,0,0,0,0,0,0,0,0,0,0,0,0,0,0,0,0,0,0,0,0,0,0,0,0,0,0,0,0,0,0,0,0,0,0,0,0,0
0.63243943,0.3848452,0.5374289,0.5862069,0.84143597,0.70110935,0.8553483,0.31475568,0.8247977,0.5534463,0.35782933,0.7511485,0.8480638,0.8959089,0.79445106,0.35030216,0.95701504,0.87430423,0.7039512,0.6207925,0.62105805,0.8333391,0.63687307,1.2101189,0.59157,0.6089937,0.886375,0.76495844,0.7884885,0.5936375,0.48802757,0.81834006,0.6211129,0.38702586,0.7413827,0.67504406,1.0198002,0.420386,0.5755827,0.9079865,0.5150346,0.5184477,0.24729855,0.7575696,0.39116007,1.118136,0.6486874,0.60105586,0.26997983,0.6205158,0.8873637,0.9201773,0.46732667,0.8058626,0.5732162,0.5301153,0.8715926,0.5258073,0.5778915,0.55745476,1.0013381,0.6936111,0.74334276,0.66229165,0.80658007,0.74642247,0.7414536,0.5311628,0.68910635,0.93373686,0.641229,0.49730927,0.8093271,0.76349753,0.41274685,0.6939316,0.7092393,0.8796925,0.37000644,0.6138488,0.79598147,0.5235919,0.41305998,0.89378303,0.4991179,0.54231346,0.83418745,0.49110612,0.5527446,0.4882814,0.45999637,0.35798308,0.43397066,0.5198275,0.84320635,0.74882954,0.7758954,0.7568779,0.88788337,0.613412,0.38649523,0.65445477,0.54695535,0.7994367,0.77082336,0.63896793,0.7221234,0.6238813,0.8084385,0.7951891,0.65677136,0.88556826,0.51325315,0.71660215,0.85860807,0.38091728,0.7903202,0.48177487,0.8574255,0.47316656,0.4785864,0.9083551,0.9074242,0.37242335,0.4673955,0.7374453,0.73034847,0.86021096,0.6491053,0.7405588,0.58375967,0.5348819,0.5479994,0.7310567,0.5751748,0.89540225,0.34267917,0.5535467,0.34095728,0.776729,0.40653077,0.6225624,0.34586838,0.3321815,0.64792544,0.78505754,0.7985865,0.5628211,0.4170546,0.53991723,0.7770932,0.38525963,0.7579118,0.3333608,0.534923,0.58680296,0.610771,0.7618402,0.52143997,0.83455384,0.8615119,0.62215793,0.4928873,0.4434654,0.5424903,0.9728607,0.75517595,0.36239526,0.41980848,0.44933608,0.56103307,0.9471689,0.45986584,0.6744492,0.9362894,0.4770097,0.40117365,0.5353314,0.6477623,0.35051662,0.54675543,0.3943356,0.5893966,0.33852845,0.875098,0.8038451,0.63856554,0.6055952,0.39233378,0.52096605,0.5441653,0.53464097,0.9600195,0.8323597,0.50893795,0.4685489,0.8608093,0.6127637,0.7258523,0.77114725,1.0144373,0.19236824,0.5137272,0.43420443,0.6467355,0.80389,0.8556704,0.34591052,0.48231736,0.45818943,0.71858644,0.49229494,0.73357743,0.46035954,0.50840014,0.8733516,0.7629937,0.583116,0.5241649,0.75073975,0.4735471,0.63821673,0.77333885,0.73588526,0.779317,0.60832655,0.34578463,0.59641594,0.6516795,0.36410806,0.50998354,0.56215,0.90481627,0.92012984,0.580609,0.45273063,0.6253842,0.6858339,0.5695066,0.5572529,0.65214425,0.75110126,0.7121235,0.8411146,0.2978647,0.8441304,0.88850504,0.55315566,0.41961637,0.59086305,0.6540076,0.34127071,0.8278937,0.69301605,0.8683101,0.7695531,0.9445764,0.76886016,0.48846027,0.4884507,0.3936936,0.69012046,0.6120214,0.70242864,0.32740754,0.5980514,0.7020665,0.5560177,0.28343838,0.32608137,0.41349712,0.86066526,0.57422507,0.44210473,0.7755643,0.41729572,0.5296614,0.44919807,0.7211777,0.95586044,0.8256226,0.47200388,0.43047884,0.8211643,0.76749986,0.7065914,0.6683078,0.49183387,0.43835062,0.74396837,0.7540253,0.63514453,0.8070824,0.7376885,0.8725704,0.3988401,0.9302107,0.5993671,0.5240768,0.4466469,0.39557698,0.39334175,0.58632565,0.5442374,0.6311482,0.5262068,0.5371295,0.4913706,0.98533845,0.52600664,0.46096703,0.5212551,0.23322938,0.6776545,0.64324206,0.26854604,0.6393019,0.8812256,0.3311094,0.663678,0.719815,0.5064338,0.6140766,0.835512,0.85428435,0.57885545,0.29671866,0.35669917,0.5222875,0.62419033,0.40746835,0.7877038,0.88234776,0.7706189,0.3553092,0.4822523,0.67954546,0.7134126,0.7651106,0.37755254,0.47068602,0.4438113,0.9093543,0.31647846,0.75678414,0.8181608,0.43974736,0.5094032,0.8712335,0.7896354,0.39609492,0.3871383,0.66386616,0.6250884,0.6792575,0.5998143,0.5220484,0.5922401,0.34996033,0.7249735,0.34862575,0.69769603,0.7101191,0.79532665,0.70963806,0.6107687,0.7904174,0.52327245,0.44007245,0.4907633,0.5299344,0.9612361,0.7049816,0.49796495,0.68097395,0.63419604,0.4516244,0.70429415,0.85272825,0.87561244,0.46979275,0.8820719,0.93339,0.49015704,0.61741954,0.71245265,0.660213,0.5154331,0.81784636,0.7979763,0.6103808,0.5707349,0.6730008,0.44090512,0.7627694,0.8202685,0.6917245,0.5163768,0.717013,0.88819367,0.5702376,0.7755904,0.6390913,0.6437738,0.5052895,0.3948833,0.55264306,0.3461543,0.7337609,0.84567064,0.57960385,0.5628404,0.4943425,0.9280674,0.72583824,0.3878614,0.73049706,0.6776783,0.9370612,0.584215,0.89714813,0.34195182,0.6420564,0.8590384,0.6357213,0.40368834,0.27893102,0.9244491,0.5541514,0.468871,0.7573074,0.40763006,0.31344947,0.756916,0.602345,0.55458903,0.5460144,0.7105133,0.5920171,0.47641495,0.5796035,0.835556,0.4640871,0.42751214,0.5810713,0.42812943,0.4623264,0.51874316,1.0163343,0.57686764,0.4273209,0.43858474,0.49015847,0.6319245,0.71163076,0.6683045,0.802198,0.57885814,0.5425411,0.36490926,0.84452015,0.5359578,0.51584566,0.49813357,0.5559,0.36211616,0.48952377,0.45590296,0.4295859,0.32326818,0.55913967,0.2567945,0.769487,0.49306425,0.7615381,0.44567063,0.6256538,0.7077019,0.61546594,0.43234456,0.391849,0.39106077,0.7860251,0.35445398,0.49963364,0.6201063,0.8771374,0.56332326,0.44711137,0.45315668,0.65682083,0.7401529,0.5698669,0.8238026,0.859223,0.6495113,0.98865426,0.7977576,0.81450164,0.49832904
0,0,0,0,0,0,0,0,0,0,0,0,0,0,0,0,0,0,0,0,0,0,0,0,0,0,0,0,0,0,0,0,0,0,0,0,0,0,0,0,0,0,0,0,0,0,0,0,0,0,0,0,0,0,0,0,0,0,0,0,0,0,0,0,0,0,0,0,0,0,0,0,0,0,0,0,0,0,0,0,0,0,0,0,0,0,0,0,0,0,0,0,0,0,0,0,0,0,0,0,0,0,0,0,0,0,0,0,0,0,0,0,0,0,0,0,0,0,0,0,0,0,0,0,0,0,0,0,0,0,0,0,0,0,0,0,0,0,0,0,0,0,0,0,0,0,0,0,0,0,0,0,0,0,0,0,0,0,0,0,0,0,0,0,0,0,0,0,0,0,0,0,0,0,0,0,0,0,0,0,0,0,0,0,0,0,0,0,0,0,0,0,0,0,0,0,0,0,0,0,0,0,0,0,0,0,0,0,0,0,0,0,0,0,0,0,0,0,0,0,0,0,0,0,0,0,0,0,0,0,0,0,0,0,0,0,0,0,0,0,0,0,0,0,0,0,0,0,0,0,0,0,0,0,0,0,0,0,0,0,0,0,0,0,0,0,0,0,0,0,0,0,0,0,0,0,0,0,0,0,0,0,0,0,0,0,0,0,0,0,0,0,0,0,0,0,0,0,0,0,0,0,0,0,0,0,0,0,0,0,0,0,0,0,0,0,0,0,0,0,0,0,0,0,0,0,0,0,0,0,0,0,0,0,0,0,0,0,0,0,0,0,0,0,0,0,0,0,0,0,0,0,0,0,0,0,0,0,0,0,0,0,0,0,0,0,0,0,0,0,0,0,0,0,0,0,0,0,0,0,0,0,0,0,0,0,0,0,0,0,0,0,0,0,0,0,0,0,0,0,0,0,0,0,0,0,0,0,0,0,0,0,0,0,0,0,0,0,0,0,0,0,0,0,0,0,0,0,0,0,0,0,0,0,0,0,0,0,0,0,0,0,0,0,0,0,0,0,0,0,0,0,0,0,0,0,0,0,0,0,0,0,0,0,0,0,0,0,0,0,0,0,0,0,0,0,0,0,0,0,0,0,0,0,0,0,0,0,0,0,0,0,0,0,0,0,0,0,0,0
0.39540547,0.48376632,0.31276196,0.39572603,0.32158726,0.1919222,0.35939533,0.35521764,0.48708776,0.29911533,0.23734213,0.21067184,0.42292324,0.18460417,0.22384529,0.23788494,0.46549132,1.0923731,0.3797276,0.3113098,0.5058786,0.22131419,0.45733175,0.47823286,0.47662994,0.42653805,0.26563656,0.35767916,0.52372795,0.48089096,0.29870415,0.38688296,0.29453132,0.5396089,0.28833124,0.33601692,0.40278023,0.43153182,0.24212115,0.2821114,0.41983536,0.5278547,0.49388567,0.31548688,0.29445708,0.31176823,0.33841187,0.23910692,0.44495016,0.45587456,0.25400624,0.26977527,0.6029952,0.34450987,0.4580937,0.4986535,0.36709017,0.5621157,0.39720502,0.4113497,0.3711199,0.28113785,0.29209757,0.25426146,0.28317958,0.21394427,0.4962368,0.5820482,0.36193824,0.38852143,0.35140932,0.5181532,0.30357164,0.37941852,0.36916757,0.31964698,0.37255767,0.38137594,0.30260518,0.4347822,0.29095498,0.5365372,0.2724639,0.3532187,0.43312323,0.15563363,0.39993936,0.29868114,0.26873213,0.521863,0.1786243,0.47986132,0.4065324,0.42961496,0.53910184,0.47490385,0.7169749,0.3824572,0.5208155,0.6250415,0.16922715,0.5869317,0.27286646,0.3054872,0.48236918,0.45186344,0.43878615,0.2226969,0.54392415,0.23610744,0.7872885,0.43862757,0.5692767,0.33329558,0.5351111,0.4452936,0.53882635,0.5384558,0.24553183,0.33003825,0.2526922,0.47308567,0.33133408,0.190557,0.3628793,0.34693173,0.36100426,0.4198278,0.33035484,0.30489558,0.22220139,0.43450138,0.39440367,0.62478423,0.112149246,0.3474688,0.36473656,0.4314483,0.18861677,0.3557594,0.35380092,0.48001754,0.3196,0.23335919,0.32529163,0.41664103,0.33904645,0.31977928,0.28215927,0.40587625,0.3780851,0.26756546,0.33854765,0.3870878,0.25017107,0.3898463,0.48823527,0.19459403,0.28729904,0.36985284,0.3049974,0.49662337,0.37513173,0.33191502,0.37090346,0.37838557,0.47554672,0.19735777,0.31916156,0.3954528,0.362882,0.57359356,0.33634531,0.5432544,0.4214767,0.26103398,0.369405,0.40991238,0.5039724,0.20527951,0.39554152,0.4896715,0.5359146,0.41804013,0.45491934,0.49185327,0.39750248,0.26311442,0.38515285,0.56891996,0.20466444,0.3350118,0.32921505,0.25924164,0.37488824,0.4766421,0.26919422,0.41755372,0.49564907,0.4063286,0.48506087,0.24347146,0.4586973,0.33393437,0.3272951,0.3623954,0.19459137,0.3903142,0.524744,0.36136076,0.47265056,0.4580776,0.3209587,0.4033667,0.32455087,0.17164494,0.4933629,0.37177265,0.33368328,0.43254685,0.4526945,0.39284572,0.36978802,0.6106557,0.39582592,0.57309484,0.23382014,0.41170016,0.6373106,0.4783721,0.32264102,0.4865202,0.5321898,0.21954031,0.32533845,0.1216048,0.4412277,0.24753182,0.5885517,0.35737684,0.3228933,0.2827029,0.4097219,0.52115583,0.20526269,0.39069486,0.4476659,0.31641504,0.5334814,0.32756832,0.4956993,0.4388252,0.42178512,0.14398003,0.45044655,0.34753263,0.27850014,0.21542475,0.40657696,0.35214445,0.29836002,0.4266947,0.46106744,0.31710666,0.36234656,0.2944576,0.47004008,0.18548122,0.72662336,0.1736562,0.45302054,0.3746805,0.6843754,0.29009715,0.31883422,0.2821872,0.32660282,0.3894735,0.36313117,0.5245364,0.55730456,0.38649312,0.44318187,0.6693094,0.4124626,0.4936788,0.51731026,0.4889895,0.42229703,0.45743996,0.47752762,0.5534626,0.345144,0.1588652,0.64326197,0.38194543,0.3332159,0.33474097,0.36886913,0.48554948,0.51692814,0.32182324,0.24747925,0.5228959,0.51236105,0.72474325,0.3822852,0.44442996,0.42102233,0.48696527,0.3922391,0.31686842,0.27454558,0.16313373,0.53572625,0.41712338,0.25312364,0.4299753,0.49116236,0.5611723,0.37738284,0.36332574,0.30564255,0.3722362,0.37098315,0.54079133,0.3651473,0.44855088,0.18289064,0.41388386,0.14981388,0.46753007,0.3480177,0.19984873,0.4273583,0.47819296,0.34238163,0.45707533,0.38933954,0.31599253,0.33998448,0.2720286,0.26174682,0.5866297,0.25802132,0.5001503,0.447672,0.3937823,0.31895754,0.45054242,0.122895196,0.3613103,0.46289518,0.5169823,0.21349697,0.2994967,0.5989574,0.22139983,0.29732394,0.2771915,0.4390759,0.4065391,0.41049454,0.5552393,0.5324544,0.35757542,0.38806266,0.4206478,0.4360148,0.37781283,0.17254525,0.5220117,0.28928772,0.36478335,0.41775858,0.2020555,0.27442032,0.5582344,0.5350834,0.19632263,0.32009184,0.45595276,0.30655515,0.2614622,0.49189612,0.6483214,0.32647026,0.2870847,0.62295306,0.2828667,0.38902387,0.27842548,0.5595354,0.31408614,0.42610234,0.6489653,0.2971648,0.37442315,0.395478,0.23963429,0.4587509,0.2773694,0.29145253,0.48252,0.54786354,0.39233986,0.30753234,0.49150345,0.3544661,0.3904212,0.46763653,0.33617508,0.51863116,0.285065,0.29490975,0.43598875,0.21996179,0.26243713,0.34535998,0.32480016,0.2862107,0.60413444,0.4575035,0.5253947,0.1593138,0.21402535,0.55041254,0.12856697,0.2139178,0.3396364,0.21149443,0.496099,0.5318955,0.35317972,0.30238983,0.23657396,0.46744725,0.22107902,0.43163458,0.32408062,0.38170126,0.20261338,0.373366,0.26045036,0.28723845,0.21694458,0.32531822,0.418675,0.27012217,0.18196762,0.14745304,0.43510547,0.6052247,0.33416298,0.4278062,0.5824101,0.42824215,0.41086406,0.34373686,0.36952978,0.40682644,0.4324651,0.23624472,0.5830405,0.29889542,0.38120088,0.47867197,0.2755742,0.3946654,0.25049677,0.4066501,0.54244035,0.19671959,0.35004032,0.15822944,0.30742922,0.42189524,0.5265018,0.41927812,0.3797255,0.28554764,0.28512698,0.66048765,0.39719707,0.38728186,0.41547492,0.24095021,0.31277758,0.6148097,0.52473783,0.34060007,0.2841771,0.51812816,0.84728056,0.5882106,0.39492005,0.48206994,0.59854186,0.2239111,0.40433997
0.100363,0.17809121,0.039826937,-0.11612951,-0.16304708,0.3494952,-0.23870799,0.11508726,0.005072235,0.45499185,-0.2160725,-0.05034407,0.3788533,0.17534955,0.35087442,0.2696468,0.49248073,0.49674782,0.14743583,0.1003908,-0.33051363,0.1539041,0.21851145,0.41707048,-0.19272773,0.45692077,0.24808921,0.06961296,0.16738245,0.10890668,0.007248561,0.12638207,0.46453503,-0.18425752,-0.117016055,0.030227069,0.44574085,-0.25138015,-0.07613754,0.20277497,0.08073656,0.33467418,-0.173578,0.1284197,0.051390078,0.4367675,0.22920953,0.26488754,0.16159356,0.010859469,0.13464667,0.027636688,0.09005836,0.20735873,0.26814434,-0.26447353,0.053565647,0.28059867,0.12169425,0.28623322,-0.02522489,0.17006946,0.20229642,0.34222144,0.2625059,-0.24494334,0.3888053,0.38350442,0.1451821,0.046780907,0.2062551,-0.23511365,-0.00247398,0.022681316,-0.039688867,0.036751814,-0.25118,0.25649196,-0.13202386,0.3495509,0.15680347,0.1002695,0.3752472,-0.10381706,0.14790118,-0.054557204,0.4275757,0.4357789,-0.06511438,0.31831533,0.22038247,-0.16884889,0.42763627,0.32463777,0.4386545,0.056056704,0.32941946,-0.088925734,-0.1429889,0.2596816,0.48222595,0.34421483,-0.024323944,0.38499263,-0.02530097,0.18653291,-0.15491632,0.28231817,-0.07529329,-0.08565568,0.03289518,-0.018485961,-0.13374461,0.12350847,0.3084707,0.016847814,0.089941256,0.39719358,0.09501584,-0.030020675,-0.027543293,0.7465708,-0.19104369,-0.13280804,-0.0924396,0.120928034,0.39275807,0.33797196,0.3390386,0.04023893,0.3655149,0.06833406,0.18577848,-0.019092532,0.2506148,0.24816366,0.19001988,0.26869255,0.15342486,0.045337975,-0.018376462,0.14900595,0.47620854,0.2544214,-0.11685434,-0.18853094,0.30058572,-0.097047985,0.16667221,0.4657973,-0.009662973,-0.2077704,-0.19289833,-0.000554504,-0.056863148,0.03391923,0.42342138,0.11775511,0.14666687,0.3434045,-0.15129197,-0.07565275,0.15665512,0.052619603,0.23135655,0.13774098,0.14164604,-0.07276332,0.23498552,0.29984626,-0.016724963,0.06915506,0.024843961,0.2017255,0.12694614,0.35749218,0.1117982,0.15755227,0.19247931,0.5317082,0.2197558,-0.32655367,0.3528713,0.05496266,0.051552963,0.010064746,0.20369242,0.38155225,0.16175789,0.30201158,-0.24957754,0.022561647,0.1721343,-0.11203699,0.3859905,0.39192146,0.27906471,-0.054323222,0.25395903,0.058339726,0.0848207,-0.07824531,-0.070250586,-0.08842425,0.27903542,0.073981285,-0.1961618,0.3066871,0.027610982,0.24176557,0.2829408,0.29368064,-0.036306597,0.13724093,0.29388598,0.12038423,-0.051758494,0.4310826,0.47172058,0.27097964,-0.124306835,0.27138525,0.34850863,0.15048935,0.2636232,0.09245838,0.46451637,0.41655138,0.08066282,0.118442945,0.3331358,-0.2053291,0.207549,0.19201109,0.41292283,0.36494556,0.60497856,0.23440844,-0.018715441,-0.09380202,0.39709616,0.2731932,0.035967544,-0.27987087,0.37800473,0.45004174,0.36838505,-0.005399257,0.3476124,-0.14244866,0.32481712,0.10980975,-0.07541194,0.39755046,-0.13194914,0.21461356,0.33123922,-0.08575139,-0.105698004,-0.11837555,-0.25222996,0.23285185,0.014918962,0.010774208,0.05602465,0.30089006,0.4083782,0.3003065,0.10467466,-0.059910007,0.10540755,-0.1755322,0.27360272,0.019711712,0.3724889,-0.19092591,0.44950336,0.18017858,-0.11534594,0.38107485,-0.074566014,0.17331736,0.036246184,-0.09878075,0.37380615,-0.033859517,0.1842368,0.1775562,0.040895607,0.038150046,-0.14945717,0.12865753,0.37220848,0.5532468,-0.018012661,-0.046336573,0.044796653,0.064032,-0.056861136,0.23504893,0.18692714,0.10863797,0.091815054,0.20997633,0.16138369,0.11504927,0.10748269,-0.14197664,0.45957583,0.053975686,0.2527855,0.16216885,-0.05569584,0.099420734,0.07784448,0.36807284,-0.06871532,0.051321257,0.17175741,-0.24815483,0.28620175,0.20759566,0.044223405,0.09700399,-0.021968266,0.25352967,0.159312,0.05610471,-0.21458405,0.29590067,0.24190746,0.1861747,0.26540983,0.48799273,0.06588032,-0.077286765,-0.19675043,0.16461283,0.19560596,0.119115196,0.2721315,0.04262813,0.286328,0.1489386,0.3366912,0.26751912,-0.007177498,0.11456065,0.053608745,0.20188768,0.25648034,-0.25950578,-0.0810498,-0.05754558,0.015406125,-0.18573368,0.3531092,0.31503028,0.2076626,0.4943035,0.5220325,-0.15101457,0.37532917,-0.25556472,0.18130292,0.15005058,0.39294583,0.10528427,0.14112678,0.14866123,0.29465762,0.16163804,-0.1525199,0.48709327,0.46528104,-0.07730302,0.007810401,0.048775367,0.49624,0.19931738,0.28435853,0.28296593,-0.085499994,0.3601896,0.28343067,0.36783606,0.34585732,0.32563484,-0.083326295,0.13836958,0.08276374,-0.019870522,0.15106621,0.22122125,-0.1353671,-0.041263822,0.004788399,0.001976033,0.12303337,0.1477423,-0.13809067,-0.031856984,-0.17049989,0.4225175,0.6029357,0.05866771,-0.27490994,0.2533879,0.05891134,0.018807402,0.24942832,-0.040653806,-0.082297064,0.28556073,0.28576398,0.088810295,-0.19546245,0.12672427,-0.122879066,0.34163278,0.31639117,-0.001595187,0.27540773,0.08497072,0.08830334,0.10100244,0.41241,-0.001649117,0.30516052,-0.107166894,-0.04490775,0.16027719,0.18991,0.21865952,-0.14052035,-0.025779475,0.41184494,-0.119057134,-0.12738892,-0.048826795,0.02965034,0.42240843,-0.006122704,0.07215426,0.39690813,-0.0364282,0.06313509,-0.086022146,0.2520974,0.06725439,0.30755052,-0.1587983,0.061211806,0.008710371,0.38006544,0.15502226,-0.03481501,0.050501913,0.15210642,0.07655586,0.3371116,0.1600488,0.43750533,-0.08864725,-0.07862665,0.2643052,0.16952075,-0.09767135,-0.085883014,0.44629526,0.3651583,-0.0697949,0.4050182,-0.11105883,0.22935608,0.19866434,0.006736574,0.04313413,-0.06476272,0.46200842,0.031744022,0.003076771,0.27488267,0.21953,-0.027986705,0.037028257,-0.2697692,0.02927306,0.23432095,0.40792918,0.050223142,-0.0888445,0.24827313,-0.016776672,-0.30282363,-0.041318353,0.54498166,0.1808992,-0.118875444,0.47674212
0,0,0,0,0,0,0,0,0,0,0,0,0,0,0,0,0,0,0,0,0,0,0,0,0,0,0,0,0,0,0,0,0,0,0,0,0,0,0,0,0,0,0,0,0,0,0,0,0,0,0,0,0,0,0,0,0,0,0,0,0,0,0,0,0,0,0,0,0,0,0,0,0,0,0,0,0,0,0,0,0,0,0,0,0,0,0,0,0,0,0,0,0,0,0,0,0,0,0,0,0,0,0,0,0,0,0,0,0,0,0,0,0,0,0,0,0,0,0,0,0,0,0,0,0,0,0,0,0,0,0,0,0,0,0,0,0,0,0,0,0,0,0,0,0,0,0,0,0,0,0,0,0,0,0,0,0,0,0,0,0,0,0,0,0,0,0,0,0,0,0,0,0,0,0,0,0,0,0,0,0,0,0,0,0,0,0,0,0,0,0,0,0,0,0,0,0,0,0,0,0,0,0,0,0,0,0,0,0,0,0,0,0,0,0,0,0,0,0,0,0,0,0,0,0,0,0,0,0,0,0,0,0,0,0,0,0,0,0,0,0,0,0,0,0,0,0,0,0,0,0,0,0,0,0,0,0,0,0,0,0,0,0,0,0,0,0,0,0,0,0,0,0,0,0,0,0,0,0,0,0,0,0,0,0,0,0,0,0,0,0,0,0,0,0,0,0,0,0,0,0,0,0,0,0,0,0,0,0,0,0,0,0,0,0,0,0,0,0,0,0,0,0,0,0,0,0,0,0,0,0,0,0,0,0,0,0,0,0,0,0,0,0,0,0,0,0,0,0,0,0,0,0,0,0,0,0,0,0,0,0,0,0,0,0,0,0,0,0,0,0,0,0,0,0,0,0,0,0,0,0,0,0,0,0,0,0,0,0,0,0,0,0,0,0,0,0,0,0,0,0,0,0,0,0,0,0,0,0,0,0,0,0,0,0,0,0,0,0,0,0,0,0,0,0,0,0,0,0,0,0,0,0,0,0,0,0,0,0,0,0,0,0,0,0,0,0,0,0,0,0,0,0,0,0,0,0,0,0,0,0,0,0,0,0,0,0,0,0,0,0,0,0,0,0,0,0,0,0,0,0,0,0,0,0,0,0,0,0,0,0,0,0,0,0,0,0,0,0,0
0,0,0,0,0,0,0,0,0,0,0,0,0,0,0,0,0,0,0,0,0,0,0,0,0,0,0,0,0,0,0,0,0,0,0,0,0,0,0,0,0,0,0,0,0,0,0,0,0,0,0,0,0,0,0,0,0,0,0,0,0,0,0,0,0,0,0,0,0,0,0,0,0,0,0,0,0,0,0,0,0,0,0,0,0,0,0,0,0,0,0,0,0,0,0,0,0,0,0,0,0,0,0,0,0,0,0,0,0,0,0,0,0,0,0,0,0,0,0,0,0,0,0,0,0,0,0,0,0,0,0,0,0,0,0,0,0,0,0,0,0,0,0,0,0,0,0,0,0,0,0,0,0,0,0,0,0,0,0,0,0,0,0,0,0,0,0,0,0,0,0,0,0,0,0,0,0,0,0,0,0,0,0,0,0,0,0,0,0,0,0,0,0,0,0,0,0,0,0,0,0,0,0,0,0,0,0,0,0,0,0,0,0,0,0,0,0,0,0,0,0,0,0,0,0,0,0,0,0,0,0,0,0,0,0,0,0,0,0,0,0,0,0,0,0,0,0,0,0,0,0,0,0,0,0,0,0,0,0,0,0,0,0,0,0,0,0,0,0,0,0,0,0,0,0,0,0,0,0,0,0,0,0,0,0,0,0,0,0,0,0,0,0,0,0,0,0,0,0,0,0,0,0,0,0,0,0,0,0,0,0,0,0,0,0,0,0,0,0,0,0,0,0,0,0,0,0,0,0,0,0,0,0,0,0,0,0,0,0,0,0,0,0,0,0,0,0,0,0,0,0,0,0,0,0,0,0,0,0,0,0,0,0,0,0,0,0,0,0,0,0,0,0,0,0,0,0,0,0,0,0,0,0,0,0,0,0,0,0,0,0,0,0,0,0,0,0,0,0,0,0,0,0,0,0,0,0,0,0,0,0,0,0,0,0,0,0,0,0,0,0,0,0,0,0,0,0,0,0,0,0,0,0,0,0,0,0,0,0,0,0,0,0,0,0,0,0,0,0,0,0,0,0,0,0,0,0,0,0,0,0,0,0,0,0,0,0,0,0,0,0,0,0,0,0,0,0,0,0,0,0,0,0,0,0,0,0,0,0,0,0,0,0,0,0,0,0,0,0,0
0,0,0,0,0,0,0,0,0,0,0,0,0,0,0,0,0,0,0,0,0,0,0,0,0,0,0,0,0,0,0,0,0,0,0,0,0,0,0,0,0,0,0,0,0,0,0,0,0,0,0,0,0,0,0,0,0,0,0,0,0,0,0,0,0,0,0,0,0,0,0,0,0,0,0,0,0,0,0,0,0,0,0,0,0,0,0,0,0,0,0,0,0,0,0,0,0,0,0,0,0,0,0,0,0,0,0,0,0,0,0,0,0,0,0,0,0,0,0,0,0,0,0,0,0,0,0,0,0,0,0,0,0,0,0,0,0,0,0,0,0,0,0,0,0,0,0,0,0,0,0,0,0,0,0,0,0,0,0,0,0,0,0,0,0,0,0,0,0,0,0,0,0,0,0,0,0,0,0,0,0,0,0,0,0,0,0,0,0,0,0,0,0,0,0,0,0,0,0,0,0,0,0,0,0,0,0,0,0,0,0,0,0,0,0,0,0,0,0,0,0,0,0,0,0,0,0,0,0,0,0,0,0,0,0,0,0,0,0,0,0,0,0,0,0,0,0,0,0,0,0,0,0,0,0,0,0,0,0,0,0,0,0,0,0,0,0,0,0,0,0,0,0,0,0,0,0,0,0,0,0,0,0,0,0,0,0,0,0,0,0,0,0,0,0,0,0,0,0,0,0,0,0,0,0,0,0,0,0,0,0,0,0,0,0,0,0,0,0,0,0,0,0,0,0,0,0,0,0,0,0,0,0,0,0,0,0,0,0,0,0,0,0,0,0,0,0,0,0,0,0,0,0,0,0,0,0,0,0,0,0,0,0,0,0,0,0,0,0,0,0,0,0,0,0,0,0,0,0,0,0,0,0,0,0,0,0,0,0,0,0,0,0,0,0,0,0,0,0,0,0,0,0,0,0,0,0,0,0,0,0,0,0,0,0,0,0,0,0,0,0,0,0,0,0,0,0,0,0,0,0,0,0,0,0,0,0,0,0,0,0,0,0,0,0,0,0,0,0,0,0,0,0,0,0,0,0,0,0,0,0,0,0,0,0,0,0,0,0,0,0,0,0,0,0,0,0,0,0,0,0,0,0,0,0,0,0,0,0,0,0,0,0,0,0,0,0,0,0,0
0,0,0,0,0,0,0,0,0,0,0,0,0,0,0,0,0,0,0,0,0,0,0,0,0,0,0,0,0,0,0,0,0,0,0,0,0,0,0,0,0,0,0,0,0,0,0,0,0,0,0,0,0,0,0,0,0,0,0,0,0,0,0,0,0,0,0,0,0,0,0,0,0,0,0,0,0,0,0,0,0,0,0,0,0,0,0,0,0,0,0,0,0,0,0,0,0,0,0,0,0,0,0,0,0,0,0,0,0,0,0,0,0,0,0,0,0,0,0,0,0,0,0,0,0,0,0,0,0,0,0,0,0,0,0,0,0,0,0,0,0,0,0,0,0,0,0,0,0,0,0,0,0,0,0,0,0,0,0,0,0,0,0,0,0,0,0,0,0,0,0,0,0,0,0,0,0,0,0,0,0,0,0,0,0,0,0,0,0,0,0,0,0,0,0,0,0,0,0,0,0,0,0,0,0,0,0,0,0,0,0,0,0,0,0,0,0,0,0,0,0,0,0,0,0,0,0,0,0,0,0,0,0,0,0,0,0,0,0,0,0,0,0,0,0,0,0,0,0,0,0,0,0,0,0,0,0,0,0,0,0,0,0,0,0,0,0,0,0,0,0,0,0,0,0,0,0,0,0,0,0,0,0,0,0,0,0,0,0,0,0,0,0,0,0,0,0,0,0,0,0,0,0,0,0,0,0,0,0,0,0,0,0,0,0,0,0,0,0,0,0,0,0,0,0,0,0,0,0,0,0,0,0,0,0,0,0,0,0,0,0,0,0,0,0,0,0,0,0,0,0,0,0,0,0,0,0,0,0,0,0,0,0,0,0,0,0,0,0,0,0,0,0,0,0,0,0,0,0,0,0,0,0,0,0,0,0,0,0,0,0,0,0,0,0,0,0,0,0,0,0,0,0,0,0,0,0,0,0,0,0,0,0,0,0,0,0,0,0,0,0,0,0,0,0,0,0,0,0,0,0,0,0,0,0,0,0,0,0,0,0,0,0,0,0,0,0,0,0,0,0,0,0,0,0,0,0,0,0,0,0,0,0,0,0,0,0,0,0,0,0,0,0,0,0,0,0,0,0,0,0,0,0,0,0,0,0,0,0,0,0,0,0,0,0,0,0,0,0,0
