0,1,2,3,4,5,6,7,8,9,10,11,12,13,14,15,16,17,18,19,20,21,22,23,24,25,26,27,28,29,30,31,32,33,34,35,36,37,38,39,40,41,42,43,44,45,46,47,48,49,50,51,52,53,54,55,56,57,58,59,60,61,62,63,64,65,66,67,68,69,70,71,72,73,74,75,76,77,78,79,80,81,82,83,84,85,86,87,88,89,90,91,92,93,94,95,96,97,98,99,100,101,102,103,104,105,106,107,108,109,110,111,112,113,114,115,116,117,118,119,120,121,122,123,124,125,126,127,128,129,130,131,132,133,134,135,136,137,138,139,140,141,142,143,144,145,146,147,148,149,150,151,152,153,154,155,156,157,158,159,160,161,162,163,164,165,166,167,168,169,170,171,172,173,174,175,176,177,178,179,180,181,182,183,184,185,186,187,188,189,190,191,192,193,194,195,196,197,198,199,200,201,202,203,204,205,206,207,208,209,210,211,212,213,214,215,216,217,218,219,220,221,222,223,224,225,226,227,228,229,230,231,232,233,234,235,236,237,238,239,240,241,242,243,244,245,246,247,248,249,250,251,252,253,254,255,256,257,258,259,260,261,262,263,264,265,266,267,268,269,270,271,272,273,274,275,276,277,278,279,280,281,282,283,284,285,286,287,288,289,290,291,292,293,294,295,296,297,298,299,300,301,302,303,304,305,306,307,308,309,310,311,312,313,314,315,316,317,318,319,320,321,322,323,324,325,326,327,328,329,330,331,332,333,334,335,336,337,338,339,340,341,342,343,344,345,346,347,348,349,350,351,352,353,354,355,356,357,358,359,360,361,362,363,364,365,366,367,368,369,370,371,372,373,374,375,376,377,378,379,380,381,382,383,384,385,386,387,388,389,390,391,392,393,394,395,396,397,398,399,400,401,402,403,404,405,406,407,408,409,410,411,412,413,414,415,416,417,418,419,420,421,422,423,424,425,426,427,428,429,430,431,432,433,434,435,436,437,438,439,440,441,442,443,444,445,446,447,448,449,450,451,452,453,454,455,456,457,458,459,460,461,462,463,464,465,466,467,468,469,470,471,472,473,474,475,476,477,478,479,480,481,482,483,484,485,486,487,488,489,490,491,492,493,494,495,496,497,498,499
0.24921635,0.14553207,0.0638642,0.34025076,0.35971045,0.42831272,0.10796352,0.21366614,0.39219975,0.01604092,0.25787407,0.018311704,0.03136355,0.12038801,0.43254068,0.38993472,0.25346062,0.27052358,0.36178073,0.18401091,-0.003061203,0.30808735,0.58574915,0.25029773,0.26833576,0.3127041,0.15787587,0.30839232,0.023350496,0.5263048,0.23740809,0.45727205,0.18158711,0.1277532,0.2728936,0.28586414,0.06871492,0.31466815,0.29890862,0.083725184,0.4085144,0.13974537,0.396614,0.5462451,0.17588757,0.5126003,0.1389554,0.14003731,0.4623058,0.2458825,0.24806736,0.36444646,0.47086638,0.04680097,0.44781154,-0.003584216,0.035116035,0.09596044,0.32312799,0.22518995,0.23745784,0.27773926,0.094891034,0.14257157,0.14764807,0.44919834,0.44766954,0.4239572,0.19263414,0.38437596,0.5113433,0.17777513,0.16744329,-0.028809262,0.4490685,0.024446094,0.32875416,0.11856037,0.09780615,0.3044259,0.13576776,0.26909822,0.37245432,0.5402719,0.08089003,0.29247442,0.18622008,0.19334394,0.25845826,0.14633255,0.27749154,0.23321751,0.44641635,0.5036669,0.115300335,0.12690951,0.053903054,0.25484204,0.3428286,0.052583937,0.44052398,-0.005379717,0.4280121,0.16526753,0.5065524,0.3231908,0.094060294,0.2980667,0.33585054,0.10117414,0.31418338,0.069892846,0.35348347,0.13553947,0.24259053,0.5979594,0.1671861,0.063460514,0.43327704,0.17764823,0.12776102,0.25629923,0.41335174,0.5656696,0.34166425,0.26438448,0.38987473,0.05835425,0.016369957,0.50029534,0.22350958,0.30480847,0.14041412,0.14247264,0.14302328,0.5330636,0.42625916,0.30768347,0.1477463,0.3372863,0.5663824,0.17245486,0.15763591,0.037440255,0.13697152,0.023472548,0.50605536,0.4551274,0.5464097,0.5518057,0.51737005,0.32512042,0.48337412,0.524431,0.23104109,0.20667493,0.33298424,0.47788036,0.23576526,0.10082035,0.27977479,0.5101426,0.03022997,0.28299075,0.30943584,0.09229328,0.29001385,0.1837681,0.40701777,0.015083993,0.29246414,0.22941962,0.1990977,0.5179962,0.52735704,0.34882873,0.07866581,0.1703295,0.08187637,0.32859033,0.33206156,0.5029281,0.34217873,0.5377859,0.47738442,0.5493403,0.053416695,0.08984331,0.30102775,0.14705524,0.5866098,0.37721902,0.2255103,0.1591894,0.4571907,0.5554865,0.33200216,0.20896266,0.48194304,0.29336715,0.20652914,0.4104177,0.03467431,0.13254571,0.4269032,0.10671503,0.10878457,0.3205723,0.3571653,0.18214609,0.47651342,0.5039173,0.3802371,0.030051576,0.13181125,0.5231339,0.110166095,0.2323533,0.51375437,0.01767434,0.4743827,0.42581218,-0.018940378,0.35785708,0.06959618,0.065004535,0.37895977,0.36042356,0.26940447,0.3199242,0.40819108,0.42103434,0.16954221,0.50005704,0.536195,0.41893825,0.32303926,0.019563233,0.41531095,0.035394426,0.40596542,0.25613368,0.35129958,0.36613438,0.41638428,-0.011566409,0.012197287,0.2462143,0.04442209,0.4894824,0.25770494,0.13468857,0.28046072,0.2611989,0.17736456,0.26271588,0.46403822,0.54553956,0.47928858,-0.001654346,0.20732822,0.35520402,0.53967494,0.31673032,0.5324971,0.19999094,0.15036795,0.5427086,0.15528311,0.16589569,0.26362827,0.359813,0.50279456,0.48959756,-0.001128676,0.48492667,0.31919897,0.19865176,0.49129212,0.35822695,0.50989944,0.33518785,0.058256447,0.2407718,0.045504715,0.07685189,0.2961316,0.14499442,0.21372637,0.30955392,0.20518035,0.58390594,0.3521926,0.23582791,0.3669751,0.13618475,0.4822624,0.19419451,0.33163232,0.040789988,0.34551114,0.24208228,0.04592082,0.118365,0.015706401,0.1756588,0.5020549,0.48012674,0.079676405,0.25190687,0.45515075,0.041634757,0.122695826,0.19961424,0.18458283,0.19016246,0.25376242,0.30124888,0.3709546,0.010074412,0.48067924,0.233195,0.500175,0.0993708,0.2941118,0.37960795,0.47762823,0.56766313,0.54206276,0.3124209,0.32457405,0.24661998,0.31272313,0.40470573,0.08045699,0.19525869,0.02406963,0.39678714,0.4706609,0.12990615,0.09827033,0.20824656,0.514598,0.32337302,0.38314018,0.16857585,0.4928044,0.3494503,0.26413965,0.16293858,0.4518366,0.40680757,0.3473806,0.31010792,0.1982899,0.29448712,0.36721802,0.21885882,0.26654205,0.32935956,0.39114052,0.20058674,0.11985286,0.0974701,0.14786167,0.18091315,0.5111732,0.16088621,0.33447146,0.3767259,-0.016305145,0.14246796,0.09056326,0.2102003,0.35030946,0.1463775,0.4795049,0.059176672,0.38587645,0.46711206,0.32026926,0.04660403,0.23693188,0.22648221,0.0470374,0.19572608,0.09083906,0.28457862,0.22384435,0.45299754,0.009657703,0.4437895,0.56773275,0.075422004,0.21845035,0.46184638,0.086936794,0.13655098,0.436804,0.027265199,0.24115103,0.39584264,0.4881046,0.41843957,0.4713056,0.044370178,0.41822782,0.12683508,0.02595925,0.37411383,0.4114252,0.03834431,0.4641329,0.18264975,0.33898664,0.49586633,0.09248146,0.036083527,0.42033577,0.26624689,0.31246412,0.44205236,0.24617696,0.1560861,0.2836683,0.43311465,0.105562404,0.18493661,0.06990897,0.28439033,0.24702893,0.33761495,0.146396,0.29409236,0.5123714,0.4512238,0.45555592,-0.009443303,0.15249777,0.21128587,0.20581143,-0.00825185,0.34357768,0.46242672,0.27992514,0.12685911,0.019853821,0.3028345,0.5376642,0.27744374,0.284992,0.08688049,0.25092787,0.07584491,0.32819086,0.15488863,0.45294717,0.090333834,0.16094364,0.44685102,0.4633635,0.19300604,0.5938552,0.11709632,0.024706729,0.054665875,0.1446766,-0.010324273,0.31792822,0.020804068,0.50893223,0.22899011,0.13422847,0.41646713,0.3739828,0.18465176,0.25310507,0.36519757,0.05973643,0.3722305,0.3776707,0.38514122,0.16428517,0.3285122,0.11347304,0.062083226,-0.007902939,0.44163767,0.08622291,0.18145841,0.07389112,0.2829573,0.36611375,0.21044524,0.45067677,0.0551699,0.42118126,0.27322465,0.24444668,0.06828413
0.04976475,0.14527415,0.090326265,0.45672575,-0.06299905,0.15391192,-0.039400194,0.0184133,0.41959095,0.4726811,0.16065256,0.38493428,0.25744322,0.37710115,0.1739383,0.10533299,0.11662035,0.08525847,0.21019183,0.23684469,0.13722594,0.20518908,0.39735168,0.42769614,0.02567456,0.23629136,0.4381378,0.07715814,-0.088950835,0.27900377,0.024014488,0.17539662,-0.00016108,0.2933184,0.1446673,0.17001796,0.39079037,0.28259018,0.35683215,0.31820053,0.02084437,0.09573777,0.1713483,0.39148083,0.37103608,0.17015088,0.29698214,0.097571395,0.075291,0.33921883,0.2670898,0.10635542,-0.019862715,0.43016362,0.11850889,0.18625765,0.38284537,0.41682556,0.34623218,0.11128565,0.2690561,0.09031742,0.05884809,0.05530754,0.054068234,0.41230145,-0.037361197,0.082662165,0.39667496,0.1363226,0.123409696,0.22951849,0.34706613,0.13386282,0.34184107,0.4332206,0.17633568,-0.017900247,0.2442843,0.11970245,0.01810713,0.35132357,0.47030786,0.21871689,0.19631827,0.43881407,0.013265569,0.14149125,0.31397367,0.0487459,0.05061698,-0.02893592,0.36772195,0.38005048,0.053757872,0.17037833,0.42660666,0.27134687,0.5189523,0.1389052,0.4245451,0.28326973,-0.04991274,0.106862195,0.20341238,0.06439689,0.10538203,0.40001753,0.31820834,0.27688077,0.27649146,0.4079894,0.067451164,0.41524696,0.4733243,-0.026108257,0.053583093,0.055219073,0.39030734,0.025031107,0.03718417,0.3205328,0.25679117,-0.11319767,0.1279322,0.18872926,0.25496003,0.18358253,0.10017813,0.4536369,0.07773013,0.5068728,-0.008371268,0.13289435,0.46339098,0.26910886,-0.06349909,0.36887157,-0.02581486,0.34992304,0.15583093,0.29077765,0.32875788,0.015745075,0.101555504,0.28183964,0.3469596,0.34752744,-0.018427573,0.43285376,-0.07810716,0.42455813,0.30527878,0.24509962,0.2987002,0.03353531,0.3977391,0.25035337,0.27910414,0.4194856,0.18564866,0.3601325,0.18683976,-0.018077038,0.29686996,0.25725216,0.32708934,0.054929487,0.3531721,0.43509367,0.013044168,0.22782366,0.1268335,0.43534413,0.012984774,0.20957147,0.36254168,0.059037913,0.033804588,-0.09985462,0.2612011,0.060614545,-0.027991692,0.26114488,0.19331917,0.5028063,0.22632383,-0.019562509,0.51704186,0.13465323,-0.06483884,0.3532941,0.22872268,0.20049438,0.42805564,0.39259303,0.2657638,0.24096774,0.23157132,-0.020573335,0.4222324,0.344464,0.44695216,0.20012775,0.26278228,0.1797292,0.31142554,-0.002492003,0.36228862,0.40992144,0.0490675,0.41005892,0.2728539,0.42132926,0.1473536,0.1447596,0.37416422,0.48252013,0.110751346,-0.02268562,0.46653372,0.027699793,0.3124908,0.32833785,0.20776768,0.24644707,0.13150696,0.036602687,0.24257137,0.16793445,0.26693738,0.15384008,0.3683106,0.23911507,0.33499274,-0.010816399,0.15304595,0.09255791,0.31183717,-0.002827635,0.06925649,0.3504457,-0.015179708,0.09978514,0.43132055,0.005985414,-0.0313286,0.28447488,0.30309772,0.16593993,0.35892114,-0.10978615,0.03526997,0.058605697,-0.06372417,0.2514906,-0.002964217,0.16676043,0.055257127,0.14726193,0.05713355,-0.047829896,0.30397934,0.14786154,0.17594469,0.15021995,0.45610705,0.060371898,0.3521207,0.087260574,0.20183785,0.16803594,0.24348727,0.364959,0.295053,0.46236277,0.46117744,0.32955742,0.36717844,-0.022674423,0.42318645,0.0671079,0.10366538,0.12096119,0.39436677,0.07020054,-0.09474549,0.39053538,0.3573472,0.22021678,-0.008231485,0.32188195,0.32478476,0.17092612,0.11001166,0.3077814,0.2958364,0.37181786,0.43490663,-0.026799187,0.47419307,0.05204178,0.4914318,0.32112452,0.39919272,0.3804226,0.42367437,-0.06084339,0.15535587,0.1350417,0.11744534,0.006430098,0.08923786,0.43666384,0.5050685,0.06416499,0.32152867,0.07103695,0.055442285,0.37684575,0.20012976,-0.071865425,0.35206202,0.034849245,-0.09452277,-0.021039225,-0.10257388,-0.038545307,0.48272112,-0.006683656,0.06741722,0.32071263,0.12542991,-0.02736138,0.44528317,0.025466178,0.2881699,0.12350392,-0.08607726,0.10873131,0.3238591,-0.074505076,-0.028847577,0.09833642,0.26603746,-0.08612143,0.17285512,0.3977526,0.1285573,0.31940988,0.26285365,0.22116677,0.3112369,-0.058460623,0.015790984,-0.010616859,0.44329146,0.25031283,0.19698024,0.07762464,0.10704528,0.1978042,0.09931135,0.48561755,0.0715516,0.36099604,0.07994631,0.38509387,0.13026072,-0.020058984,0.52234024,0.05386599,0.19041756,0.28882447,0.04453312,0.3630512,-0.056563824,0.19904897,-0.0708188,0.46319127,0.45950982,0.23146516,-0.03158202,0.33431107,0.040434867,0.14632955,0.34803867,0.368747,0.063799225,0.3252768,0.00917657,0.277885,0.05935496,0.26850018,0.40280825,-0.018522669,0.14151524,0.37831935,-0.06313361,0.0941992,-0.05913953,0.14878269,0.31905743,0.12365079,0.41351035,0.08848934,0.011718373,-0.022428313,0.3562853,0.12129174,0.37079597,0.109509945,0.36805153,0.18512967,0.27653402,0.06418356,0.26717916,0.12870584,0.43647832,0.28509593,0.39741746,0.25210473,0.4287827,0.15081722,0.28855205,0.50172585,0.3580802,-0.066202216,0.36112812,0.369978,-0.05284194,0.08770655,0.05967613,0.12277614,0.17300321,0.30885285,0.39349976,0.23918976,0.07505242,-0.008949332,0.08140501,0.32114795,0.34148765,0.014266956,0.4516423,0.25258607,0.15716395,0.4095327,0.3563682,0.41712144,0.32501292,0.009216539,-0.01677276,0.18029979,0.058007527,0.45403782,0.4774464,0.08804186,0.29773593,0.25894174,0.42467877,0.3167257,0.19085723,0.06859573,0.2626914,0.5038153,0.29720896,0.5111869,0.053725507,0.5078211,-0.042008292,0.10337572,0.4513893,0.033291627,0.18592669,0.29077786,0.36421564,0.27407163,-0.038873304,0.40429342,0.34590885,0.10285384,0.07783049,0.16819501,0.10136286,0.10119584,0.1917904,0.24913564,0.24761112,0.3568182,0.34052452,-0.039501414,-0.04594353,0.3980985,0.369694,0.20849696,0.039777316,0.28042075,0.2277616,0.22023502
0.22131222,-0.03375953,0.20368816,0.24169976,0.28096804,0.36058587,0.26389372,0.33703414,0.39811602,0.32597965,0.23826212,-0.080998495,0.19248183,0.24375524,0.114119925,0.18584326,0.00887671,0.015631627,0.0270744,0.32921278,0.26816764,0.30165052,0.18816632,0.20252915,-0.020060232,0.078221634,0.41108567,0.04695792,0.09676249,0.23758253,-0.023017738,0.4110025,0.39609188,-0.07524407,0.21359363,-0.005169996,0.21440113,-0.14036295,0.25448185,0.16798587,0.101933286,0.1317579,-0.019654866,0.16258073,0.1564677,0.21744047,0.011937938,0.27968737,-0.001793559,0.09508071,0.34804228,0.09471843,0.101932205,0.1475084,0.0886168,0.047929738,0.44755274,0.13847582,0.46254644,0.09657037,0.2623665,-0.005875627,0.016303385,0.4166435,0.005002778,-0.03494189,0.03887322,0.37453896,0.42566788,0.41674098,0.07571721,0.24351948,0.53235686,0.07135549,-0.09627569,-0.052663285,0.29994315,0.1421797,0.3856987,-0.026855266,0.021997072,0.4201818,0.22954123,0.15200919,-0.13706015,0.42128983,0.15917353,-0.03312686,0.07567326,0.3918913,0.08761285,0.18339276,0.36209998,0.23854011,0.33084622,0.32925445,0.4183628,0.06329529,0.23438576,0.118428685,0.30417082,0.3796441,0.0914978,0.054082867,0.3997687,0.4063682,-0.01741498,-0.017554522,0.4474623,0.17835599,0.11807907,0.41271237,0.30193627,0.22395256,0.031519074,0.2719246,-0.15429604,0.08404574,0.16209327,0.21616799,0.12388808,0.15619212,0.48464802,0.04087556,0.2141002,0.022290008,0.35107303,0.049719438,0.4094501,0.22777085,0.25353286,0.47149745,-0.013398408,0.32866722,0.04984033,0.40862828,0.17710622,0.43012196,0.21584423,0.20000574,0.04993668,0.25198182,0.240803,0.3730329,0.18837485,0.003976595,0.3600674,0.366115,0.31637666,0.28675807,0.03484272,0.015518812,0.3919633,-0.053668123,0.23749572,-0.0198979,0.07444136,0.21271561,0.13808864,0.02082014,0.040013477,0.17293808,0.0828771,0.0950759,0.41570628,0.12435161,-0.089102305,0.33983418,0.033121902,0.32045648,0.034054175,-0.087691076,0.19301717,0.35749567,0.06510822,0.058375012,0.35968283,0.32447016,-0.028294004,0.29569763,0.06616971,0.3297297,0.08797142,-0.115735985,0.19960468,-0.011201676,0.3649383,-0.010034611,0.36905625,0.2627322,0.29191503,0.24337384,0.25047916,-0.04687694,0.15138909,0.06358349,0.21336564,0.36271906,0.32956767,0.2774164,-0.04884491,-0.055690482,0.06881082,0.28076798,0.060926225,0.14670229,-0.05072085,0.26659662,0.36228737,-0.023351632,0.17011271,0.38426203,0.37266868,-0.015395506,0.4232726,0.15274476,0.19043292,-0.010160495,0.13224274,0.33582193,0.0618693,-0.055955112,0.19369622,0.10743974,-0.067381635,0.3427957,0.12437775,-0.002371414,0.007365861,-0.04088447,0.065741576,0.03562626,0.08382319,0.43090034,0.04787359,-0.057607893,0.26482633,0.4007772,0.121453665,0.19978318,0.37520993,0.094200715,0.318583,0.28959426,0.27919462,0.39131853,0.1345968,0.09642979,0.24875572,0.2816006,0.06661695,0.25723666,0.15911993,0.29005966,-0.004657697,0.31975797,0.3224911,-0.07849719,0.16471355,-0.12938464,0.106890656,0.110528395,0.10418281,0.013597845,0.3375486,0.40959296,0.27132037,0.14343071,0.18931964,0.030522278,-0.058679216,0.33277196,0.20993951,-0.01315855,0.027931424,0.39115557,0.113973334,0.10144629,0.3576316,0.27235004,0.3976344,0.17713536,0.37795484,0.001379417,0.32621798,0.037757535,0.2760783,0.31945753,-0.016119646,0.26159072,0.2776504,0.3088508,0.081456184,-0.12761466,0.3407775,0.08725726,-0.12297791,0.005255401,0.17159773,-0.049814563,0.44376755,0.3999162,0.15882409,-0.023613937,0.003202891,0.02219936,0.15182129,0.05501999,0.41643283,0.05071787,-0.03619314,-0.037774026,0.2586066,-0.10572167,0.24641578,0.18438226,0.032014392,-0.12221575,0.13575687,-0.010798265,-0.048987243,0.36949164,0.19062573,0.35393262,0.2954247,-0.004085434,0.10287985,0.36812112,0.38068512,0.27121103,0.045043997,0.4266805,-0.06335153,0.22579311,0.17543927,0.05075378,0.36721933,0.37154934,-0.12242287,0.03630129,0.38822404,0.13947713,0.3171997,0.4006056,0.03134386,0.20685893,0.17113835,0.4165676,0.3888835,0.27429292,0.10700402,0.024252549,0.3198665,0.39334068,-0.08179761,0.2650515,0.41354895,0.42788056,-0.025032759,0.43281096,0.104785,0.116151035,0.123832464,0.34969616,0.2687599,0.09416718,0.1238473,0.16559392,0.28917977,0.20378366,0.030157804,0.3001133,0.24882878,0.4363522,-0.065916024,0.06450327,0.04353758,-0.06782975,0.07106332,0.3858658,0.27876672,0.37672386,0.41947612,0.3222919,0.26803833,0.4409075,-0.042158954,0.4109546,0.2336048,0.38623637,0.39456782,0.07723115,0.23427868,-0.06684056,-0.032864317,0.08493155,-0.07743223,0.17502668,0.3484682,-0.112512134,-0.019294618,0.4835955,0.18411855,0.043557324,0.14526314,0.2916504,0.19027877,0.023980286,-0.09547795,0.37224007,0.012491844,0.001580961,-0.006218604,0.29688114,0.25411183,0.31144443,0.38810188,-0.055537965,0.3748756,0.19145627,0.30791295,0.38173103,0.031957805,0.15415321,0.18293467,0.028400157,0.22993243,0.054091223,0.31092602,0.28806224,0.4115702,0.08290999,-0.016362302,-0.10598671,0.30646643,0.25427452,-0.058315646,0.11658007,0.01454404,0.27012935,0.036153004,0.0053136,0.31400028,-0.000262345,0.022330217,0.023348035,-0.09019895,0.28123945,-0.05145052,0.17902713,0.24077845,0.1597527,0.23489296,0.27276433,0.3481586,0.26543674,0.16953562,0.12754375,0.28118342,0.32329223,0.051582027,0.26829326,0.45775247,-0.11598513,0.04248198,0.02832091,0.09134088,0.07541498,-0.11442909,-0.058242537,0.36822325,-0.015312166,0.10491784,0.08868673,0.11730201,0.19532917,0.2589796,0.2693993,0.10479214,0.46842813,0.13700916,0.32248962,-0.0914831,0.29832882,0.0745382,-0.042794958,0.07171629,0.1733468,0.13315535,0.19146441,0.29503775,0.047052715,0.04138094,0.18310066,0.32869592,0.26399064,0.23785822,0.2108636,0.37043265,0.2741346
0.13784191,0.049773123,0.18043715,-0.047886655,-0.10373491,0.016005533,-0.006072917,0.18550056,0.10598064,0.13520667,-0.069972835,-0.20555592,-0.19657259,0.18027757,0.34172305,-0.14716871,-0.13848293,-0.09685393,-0.20694184,0.07745522,0.042004783,-0.19904847,0.0736525,0.2906595,-0.092656516,-0.15877068,0.15465096,-0.25581136,-0.21383183,0.21952696,0.110059656,0.23808277,-0.22458747,-0.26793146,-0.16839825,-0.007402163,0.21009076,0.10975447,0.1943369,0.043636665,0.21626955,0.14653365,-0.11749685,0.07076008,0.061080553,0.085674375,0.123754725,-0.08525964,-0.25800312,0.027570343,-0.08185773,0.014865417,0.22558787,-0.14455445,-0.22897065,-0.14093524,0.20155689,-0.049895383,0.026743418,0.006325808,-0.05348849,-0.038416438,0.001594237,0.31580678,-0.24546504,0.20568252,0.14153929,0.18313788,0.04646106,0.1461863,0.16231886,-0.13403642,0.03912027,-0.13066146,0.041188244,0.22802399,-0.069093116,0.11650609,-0.050351128,-0.20590542,-0.14021413,0.2167685,0.21850371,-0.10078863,0.23387691,-0.18841824,-0.106925555,0.08812079,0.15886411,0.040894385,0.1986651,-0.13172989,0.01704814,-0.052580386,0.033474684,-0.06140421,-0.24030146,-0.01920279,-0.14155154,0.16156352,0.0662694,-0.28175142,0.2356799,-0.18455413,0.030930884,0.19075207,-0.1405193,0.04814512,-0.23008324,-0.25614867,-0.17109282,0.15541491,0.18099463,0.29144588,-0.13830434,0.2911293,0.049091782,0.18479994,0.13963681,0.16830915,-0.20843259,-0.19014393,-0.10912701,0.27501068,0.07337011,-0.18409708,-0.160521,0.006873615,-0.19202837,-0.0446633,0.1629276,-0.042883284,-0.24318941,-0.11995885,0.13841507,-0.1704495,0.0737171,-0.08954206,0.25296494,0.23312677,0.10043347,0.12983456,-0.14400011,0.05611577,0.15541594,-0.2733382,-0.02371885,0.21670201,0.011019132,0.094761744,0.36036685,0.1567865,0.17494106,0.19472606,0.03800498,0.05337032,-0.083110966,-0.09197383,-0.16829537,0.21277513,0.17399465,-0.22543013,-0.19402003,0.06491501,0.2479506,0.026808158,-0.059725218,-0.1666064,-0.13801152,0.22830376,-0.23463677,-0.26017606,-0.04456884,-0.26099148,0.07609757,0.3099675,0.09255581,-0.2757211,0.2735129,0.061845805,-0.18309359,0.08906748,0.099184975,-0.11345135,-0.228861,0.15435281,-0.077852465,-0.031455424,0.10197214,-0.10976736,0.11155564,0.26685885,-0.27886194,0.105886824,0.029697798,-0.14832455,0.21967128,-0.23475495,-0.18762705,0.27896073,0.021057675,-0.104600735,0.03965806,0.086215936,-0.12267431,-0.076392934,0.05087344,-0.12802993,-0.047482163,0.34732074,0.19207762,-0.025080264,0.273085,0.18425284,-0.22178546,-0.117199585,0.2507746,0.22328284,0.07376773,-0.1247222,0.086483754,0.23875995,-0.07850057,-0.10232361,-0.20270951,0.31902626,-0.11713627,-0.21894759,0.11938996,0.18844174,0.11338945,-0.16300407,0.20844293,-0.083419286,0.13105395,-0.19852193,0.23155102,0.041846123,0.08123391,0.35991183,0.2619633,0.09038101,-0.06571048,0.15930246,-0.17654182,-0.11697255,-0.017375637,0.052488845,-0.08618237,0.18699355,-0.09818039,0.19814156,-0.116835885,0.004639556,-0.20346873,0.004171989,-0.06565061,0.049654163,0.03847996,-0.12775138,-0.015700545,-0.19651195,0.006477599,-0.15834703,0.25689733,-0.04326058,-0.21703114,-0.012952267,-0.039038245,0.10345082,0.18109792,0.009523073,-0.11867706,0.1382811,-0.17525318,-0.17571545,-0.060470253,0.09396598,0.28487006,0.07945742,-0.18483475,0.001841069,0.18697831,-0.20180804,0.13238144,0.023020932,-0.223219,-0.166203,0.24033193,-0.18386362,-0.15572445,0.15851808,0.2854794,-0.118968815,0.023996567,0.21644627,0.1786093,0.04692805,0.19853285,0.042449154,-0.2953874,0.17683016,0.07894701,0.22343214,0.16295134,-0.05100958,0.16667905,-0.06429656,0.31456503,0.28266388,-0.123402946,0.13926293,0.19393693,-0.017581781,0.2876373,0.23489605,-0.02671843,-0.14007236,-0.24116921,-0.12168843,0.09771977,-0.18630077,-0.23970082,0.11918387,-0.04917864,-0.08251106,-0.166191,-0.046178482,0.1456414,0.035787404,0.27894315,-0.01811094,0.1891135,0.123362355,-0.22778158,-0.04577809,-0.06394211,0.1702091,-0.07234382,0.21556039,0.11872641,0.19868793,-0.2544527,0.10900476,-0.17389414,-0.21733114,0.11665265,-0.1534054,0.32138172,0.106854305,0.2251959,-0.2284175,-0.08192537,-0.04093906,-0.060852244,-0.06533651,0.23087355,0.101979636,-0.12064823,-0.18082277,-0.07732954,0.044594217,0.24825564,0.24953772,-0.109613486,0.000751966,-0.021536462,-0.15739594,-0.13930392,0.18172409,0.13902164,-0.07452961,-0.1602496,-0.16935046,0.22858214,0.16277711,0.18523408,-0.15851535,-0.20153335,0.03503297,-0.06204789,0.030508704,0.065149926,0.12726615,0.012526154,-0.09956091,0.060257968,0.19111726,0.2765027,-0.18723813,0.026912,-0.12252659,0.32772717,0.05763775,-0.25596735,-0.15016551,0.16447099,0.17432167,0.04747251,0.05524673,0.085693136,0.026005989,0.26642013,0.001360405,-0.1877519,0.19579084,0.1906954,-0.29517922,-0.1328458,0.058194205,0.17781031,0.2089047,0.087705545,0.20653364,-0.24835594,-0.014719436,0.002760103,0.02667973,0.06845393,0.28388506,-0.07425826,-0.092450544,-0.041437287,-0.23254105,-0.049398996,-0.1479015,0.020184798,0.09715552,-0.07043726,-0.17998014,-0.15743244,0.07322357,0.026437959,0.053611062,0.26107886,-0.15572368,-0.12740192,-0.006654222,-0.18912108,-0.052855212,-0.16432841,-0.066101626,0.20531274,-0.13289864,0.304288,-0.18113628,0.1036076,0.27035835,-0.09057491,0.020071588,0.30016348,-0.05113353,-0.11050819,-0.03321851,0.18824713,0.18611038,-0.13156474,0.14912932,0.0837831,-0.047154013,0.011948915,0.1815371,0.10850475,0.22777118,0.059247687,-0.20945443,-0.27668804,0.064042024,-0.06880028,-0.01494559,-0.11665953,-0.11455187,0.14595343,-0.1704914,-0.083599254,-0.23020886,0.110752225,-0.102881186,-0.024500217,0.010037745,-0.17487669,0.2405967,0.17122942,0.19997531,0.25747496,-0.17886774,0.004465076,-0.082945,-0.1828818,-0.042551477,-0.018571576,0.23484936,-0.072179444,-0.16108938,-0.28264096,0.25165263,0.18407647,-0.22779615,-0.000204163,-0.11367907
2.5596106,2.3935866,2.4392781,2.6374032,2.4834318,2.4446616,2.6075003,2.4556496,2.6658175,2.2641811,2.642803,2.5439384,2.7113762,2.5014634,2.5126474,2.4152517,2.3537042,2.2553568,2.5291457,2.4947093,2.379778,2.49545,2.5988822,2.2945955,2.4466398,2.397652,2.587681,2.581164,2.4301972,2.2525556,2.5959966,2.6160522,2.4813087,2.3379552,2.4295025,2.4158857,2.4225054,2.451226,2.3020835,2.5567074,2.5654979,2.357706,2.5189855,2.3986251,2.5579462,2.497241,2.379926,2.3214242,2.2874103,2.6127937,2.5220475,2.4647748,2.4473314,2.5596483,2.622021,2.3978493,2.7192297,2.421412,2.3866978,2.529824,2.3039804,2.4243975,2.651609,2.455842,2.5761847,2.4137597,2.6468208,2.7152145,2.379805,2.4853694,2.568311,2.5262394,2.5312922,2.5911775,2.2787402,2.343632,2.6836293,2.3112302,2.504766,2.3650997,2.5148678,2.567239,2.4026756,2.3008406,2.347969,2.427263,2.6011128,2.4137428,2.359242,2.6061509,2.544419,2.6301126,2.4346845,2.6621106,2.6046681,2.309359,2.5728612,2.37443,2.401667,2.3942487,2.4133263,2.407718,2.616743,2.5961983,2.6631722,2.589907,2.2962577,2.5258281,2.5758963,2.610844,2.6466343,2.4850914,2.6572416,2.5331085,2.3550475,2.564313,2.5548427,2.578452,2.636427,2.3076172,2.3606572,2.4091744,2.6723778,2.670245,2.420232,2.4522042,2.473523,2.382675,2.2923355,2.2782252,2.6907053,2.2377126,2.4665356,2.4164388,2.41296,2.4977474,2.2715826,2.52695,2.3791945,2.421112,2.3238664,2.4398324,2.6341655,2.4466338,2.2522585,2.5333776,2.3950934,2.551226,2.3110683,2.2984195,2.525535,2.4031134,2.4879508,2.2891705,2.4048371,2.3971403,2.386341,2.502232,2.37202,2.2807555,2.4422746,2.400208,2.6765597,2.347486,2.3317397,2.2820723,2.5619295,2.4018638,2.5068488,2.6438017,2.7043834,2.4304929,2.532525,2.4808774,2.2831576,2.3621507,2.3860369,2.2270658,2.5973294,2.2483761,2.375129,2.7110138,2.71321,2.3916516,2.5801578,2.5869257,2.4229019,2.4985762,2.3455112,2.4281542,2.566751,2.3410916,2.566154,2.275256,2.4229877,2.4934797,2.6263611,2.5839725,2.3196814,2.4791908,2.4596567,2.6355994,2.6772497,2.3519216,2.4197803,2.6594703,2.5075717,2.6207695,2.5230372,2.4101777,2.580187,2.5607975,2.4722583,2.6462622,2.4586108,2.295,2.3732455,2.394714,2.3081646,2.4969058,2.381149,2.5843217,2.5800183,2.4925342,2.3003614,2.5704093,2.5303502,2.5349529,2.4995835,2.4945774,2.4955878,2.3570762,2.459734,2.343379,2.3362727,2.7250865,2.646181,2.6217632,2.4685526,2.547649,2.4266284,2.6138606,2.5178425,2.458354,2.3660603,2.585182,2.563407,2.594734,2.34589,2.5044096,2.4127853,2.5042944,2.5876577,2.5104759,2.4250991,2.2266276,2.4003606,2.698883,2.436956,2.3256505,2.5355022,2.6005993,2.5489058,2.4215002,2.3937187,2.603388,2.6151247,2.5978723,2.4061415,2.5608206,2.3862312,2.6503098,2.6641076,2.3327944,2.4761672,2.4025567,2.4711363,2.4760702,2.3544354,2.6058662,2.2615361,2.6126473,2.445109,2.2408245,2.6004965,2.4939284,2.3348944,2.3419776,2.5974188,2.524429,2.634927,2.4914234,2.617687,2.5178227,2.4775496,2.5242276,2.605383,2.4097152,2.5801523,2.2578366,2.3641996,2.6478708,2.5220764,2.6905766,2.5495255,2.280195,2.50301,2.6015363,2.4581733,2.5327559,2.3257656,2.6593878,2.4380615,2.5300412,2.3474712,2.4585469,2.394579,2.4761434,2.5307539,2.4946353,2.5930016,2.4167213,2.3443656,2.6972282,2.3625507,2.5957344,2.3581457,2.3396518,2.4089534,2.376146,2.3362987,2.7105632,2.565502,2.3311932,2.4163125,2.5479555,2.580079,2.305888,2.464027,2.4598796,2.5010362,2.355666,2.5048943,2.46109,2.255376,2.3116543,2.3450558,2.4951055,2.3971794,2.4973452,2.415185,2.275496,2.3296566,2.5966856,2.4669592,2.5685475,2.6172454,2.451752,2.6017222,2.3599432,2.3952582,2.6402285,2.609035,2.4132943,2.577386,2.448799,2.570987,2.6719754,2.4868155,2.4485824,2.44952,2.3538456,2.485664,2.5587971,2.2654693,2.3817675,2.311132,2.5374727,2.4884489,2.472844,2.5348039,2.3877583,2.4172115,2.4817889,2.551075,2.2783542,2.2235463,2.2818365,2.7159605,2.6177824,2.5402436,2.5396569,2.335464,2.6079972,2.4642622,2.3786852,2.3807857,2.4188206,2.614193,2.4521425,2.6025503,2.6478808,2.5411582,2.4051144,2.5077362,2.3559556,2.3294363,2.3178859,2.416407,2.268461,2.4975233,2.5064445,2.5526564,2.3808217,2.3368645,2.4375644,2.2570322,2.4778607,2.408212,2.5024352,2.3585775,2.599817,2.607487,2.5364754,2.554493,2.5562847,2.5626264,2.5121074,2.4132802,2.6471946,2.6001396,2.4108403,2.470672,2.417319,2.3701456,2.2312381,2.5344949,2.3245418,2.5011735,2.4478226,2.5154996,2.702941,2.6032038,2.6542666,2.298756,2.2840128,2.5091553,2.520817,2.459607,2.6744642,2.397294,2.4612868,2.6560583,2.7029378,2.3145292,2.6238961,2.330682,2.383203,2.2830572,2.5165362,2.7144477,2.3688328,2.538005,2.5129771,2.64775,2.6573386,2.463609,2.653466,2.4282732,2.5379355,2.3551397,2.3339274,2.5066776,2.610613,2.5512948,2.5063484,2.5890346,2.4356892,2.4630628,2.3152702,2.6386778,2.4761868,2.498795,2.4955413,2.5078883,2.695359,2.610198,2.4482439,2.4860117,2.5780852,2.4779363,2.4021158,2.5517995,2.4508905,2.329771,2.6209402,2.4032602,2.4785917,2.5955756,2.4940624
0,0,0,0,0,0,0,0,0,0,0,0,0,0,0,0,0,0,0,0,0,0,0,0,0,0,0,0,0,0,0,0,0,0,0,0,0,0,0,0,0,0,0,0,0,0,0,0,0,0,0,0,0,0,0,0,0,0,0,0,0,0,0,0,0,0,0,0,0,0,0,0,0,0,0,0,0,0,0,0,0,0,0,0,0,0,0,0,0,0,0,0,0,0,0,0,0,0,0,0,0,0,0,0,0,0,0,0,0,0,0,0,0,0,0,0,0,0,0,0,0,0,0,0,0,0,0,0,0,0,0,0,0,0,0,0,0,0,0,0,0,0,0,0,0,0,0,0,0,0,0,0,0,0,0,0,0,0,0,0,0,0,0,0,0,0,0,0,0,0,0,0,0,0,0,0,0,0,0,0,0,0,0,0,0,0,0,0,0,0,0,0,0,0,0,0,0,0,0,0,0,0,0,0,0,0,0,0,0,0,0,0,0,0,0,0,0,0,0,0,0,0,0,0,0,0,0,0,0,0,0,0,0,0,0,0,0,0,0,0,0,0,0,0,0,0,0,0,0,0,0,0,0,0,0,0,0,0,0,0,0,0,0,0,0,0,0,0,0,0,0,0,0,0,0,0,0,0,0,0,0,0,0,0,0,0,0,0,0,0,0,0,0,0,0,0,0,0,0,0,0,0,0,0,0,0,0,0,0,0,0,0,0,0,0,0,0,0,0,0,0,0,0,0,0,0,0,0,0,0,0,0,0,0,0,0,0,0,0,0,0,0,0,0,0,0,0,0,0,0,0,0,0,0,0,0,0,0,0,0,0,0,0,0,0,0,0,0,0,0,0,0,0,0,0,0,0,0,0,0,0,0,0,0,0,0,0,0,0,0,0,0,0,0,0,0,0,0,0,0,0,0,0,0,0,0,0,0,0,0,0,0,0,0,0,0,0,0,0,0,0,0,0,0,0,0,0,0,0,0,0,0,0,0,0,0,0,0,0,0,0,0,0,0,0,0,0,0,0,0,0,0,0,0,0,0,0,0,0,0,0,0,0,0,0,0,0,0,0,0,0,0,0,0,0,0,0,0,0,0,0,0,0,0,0,0,0,0,0,0,0,0,0,0,0,0,0,0,0,0
0.49924755,0.72031975,0.6580859,0.53499955,0.397859,0.49994767,0.5692122,0.30800307,0.25632128,0.5165505,0.3808795,0.3022752,0.3160094,0.7374305,0.65535486,0.66149163,0.4018781,0.2658472,0.71085536,0.6835717,0.5421206,0.7824275,0.4661739,0.427005,0.44188377,0.64633703,0.41251114,0.4651317,0.3024792,0.44533184,0.69518185,0.59854156,0.7731948,0.5247275,0.59929866,0.64232755,0.6047172,0.50031865,0.3263516,0.2983905,0.6969968,0.6298106,0.657862,0.5091123,0.30782124,0.1735893,0.5015542,0.7562074,0.66012996,0.32270205,0.68855226,0.69160503,0.4851621,0.7518806,0.67708254,0.2893703,0.34345537,0.4949651,0.427408,0.72765946,0.46818647,0.6803282,0.4867307,0.5995484,0.399499,0.55343,0.5755048,0.29355726,0.6379385,0.31130457,0.45934176,0.76214355,0.27696073,0.45407835,0.50079495,0.49614578,0.27197874,0.31250095,0.3365703,0.48660842,0.47609812,0.805601,0.43043554,0.4427564,0.57997304,0.43212184,0.40188783,0.6125885,0.48367998,0.6428295,0.34920093,0.45587584,0.61045134,0.5710113,0.47762448,0.19488403,0.43300056,0.38613874,0.7176137,0.64460385,0.19645646,0.3790883,0.6554253,0.42417052,0.20077318,0.5061896,0.6661968,0.5484371,0.620138,0.4964804,0.3308316,0.49401844,0.5435621,0.34965447,0.35223418,0.4074185,0.5826431,0.66199094,0.66493684,0.40814525,0.2325131,0.5272466,0.19618618,0.41805696,0.6041264,0.37781954,0.6242922,0.51312184,0.3048399,0.75387895,0.4751252,0.7090886,0.3742001,0.5741787,0.29335588,0.29772422,0.28058845,0.5511848,0.44484958,0.65273386,0.696486,0.26811168,0.40890247,0.43525025,0.48126417,0.43412378,0.6710651,0.65421623,0.45944843,0.6702136,0.7714272,0.34896412,0.7501286,0.5552066,0.3492593,0.5842747,0.5059949,0.40344462,0.21367918,0.5926078,0.38997906,0.5651116,0.3437925,0.51029503,0.34325787,0.42369276,0.7136948,0.40128416,0.5355336,0.42564914,0.37121773,0.5878316,0.53264666,0.34553567,0.74306303,0.33946535,0.35415083,0.6874743,0.29400593,0.6031482,0.35852176,0.47086105,0.5651671,0.73627526,0.24444461,0.4482504,0.61872476,0.7511026,0.43359476,0.28994924,0.6013239,0.49519938,0.4004967,0.74862736,0.5677025,0.6992581,0.56342745,0.49250013,0.7163785,0.21904309,0.6687725,0.58215344,0.4568264,0.5077859,0.5836304,0.6737415,0.35229477,0.4357614,0.22818188,0.46803972,0.23673941,0.5292177,0.72933084,0.25317606,0.6337609,0.7620728,0.29491317,0.78375185,0.36155632,0.6118812,0.44941735,0.45247155,0.42289218,0.3522354,0.65409434,0.29701477,0.48712465,0.70569277,0.54779416,0.27416182,0.63672704,0.33270916,0.6626781,0.30052435,0.5874104,0.48800832,0.37859812,0.45316622,0.3799019,0.7736057,0.7400224,0.536094,0.26454568,0.7396762,0.28353405,0.6518878,0.16474214,0.2703976,0.34563377,0.42098144,0.41591573,0.8182842,0.5224001,0.77131605,0.46074662,0.4093893,0.4184978,0.6364206,0.5657674,0.29485804,0.5223648,0.510328,0.39768678,0.23904794,0.6996678,0.3888991,0.4648496,0.66055936,0.68953323,0.40060973,0.3442435,0.76655054,0.6994109,0.6506053,0.53486997,0.6294348,0.4196844,0.30369875,0.44943944,0.6374259,0.38073418,0.7369031,0.2694493,0.5987286,0.71433455,0.7752595,0.61703545,0.6280554,0.32666028,0.31608477,0.40441206,0.6594315,0.38754913,0.6141196,0.5817764,0.79370236,0.27607816,0.38029125,0.71722,0.44376037,0.26059106,0.37152657,0.3202547,0.60596347,0.49591494,0.3092545,0.6565161,0.53331274,0.720752,0.35310155,0.7280708,0.5440103,0.37062684,0.3241591,0.6022835,0.43821532,0.17666775,0.48987538,0.29233605,0.43192002,0.52082497,0.33943954,0.4130642,0.3808811,0.40783453,0.6524169,0.63870907,0.22906962,0.4797,0.5351622,0.3129788,0.6584697,0.4924461,0.29602653,0.2933615,0.38443235,0.36157078,0.720535,0.6110201,0.66551965,0.36567464,0.63780504,0.54503393,0.5953873,0.50988495,0.73423934,0.41006938,0.53830355,0.5247662,0.3495621,0.28840822,0.71850693,0.42897218,0.39783275,0.50317615,0.47444117,0.7039377,0.7715162,0.39271864,0.36128858,0.46613646,0.6290789,0.22424516,0.59726614,0.68841773,0.24849829,0.34060496,0.5839059,0.44244704,0.6724017,0.6708966,0.32502332,0.41004992,0.46152392,0.3634036,0.67214316,0.6133022,0.17661305,0.3209287,0.4888121,0.6721676,0.15604353,0.5095662,0.30825585,0.36494258,0.3824325,0.48829743,0.53655887,0.6461473,0.66901326,0.3753285,0.44780618,0.5337702,0.456968,0.4994195,0.5141533,0.39566436,0.45121047,0.67573977,0.30775976,0.29753008,0.4345584,0.7228495,0.54907215,0.79869723,0.26146442,0.5691673,0.7262055,0.4302673,0.5180211,0.62705654,0.76283306,0.4971768,0.21029851,0.3143106,0.3776128,0.63979125,0.55003816,0.29360253,0.2511721,0.62482655,0.5430317,0.35499787,0.4978802,0.28507695,0.77234787,0.48819602,0.60438925,0.7914945,0.5642074,0.66438204,0.78646964,0.3569319,0.527305,0.4746139,0.76887727,0.48913518,0.6341828,0.71890914,0.7296856,0.4709274,0.5627108,0.41262504,0.4966758,0.5648523,0.33060104,0.2985842,0.5695147,0.31117216,0.39095154,0.39506453,0.5107576,0.77221084,0.32706022,0.36431354,0.6925868,0.36272103,0.52932894,0.6425572,0.6845399,0.7518373,0.6695859,0.56264246,0.6759448,0.58429915,0.36218914,0.54035974,0.7754119,0.21971399,0.79651505,0.8143393,0.3614932,0.4565655,0.6437623,0.2832205,0.41849896,0.4940616,0.49383512,0.21240805,0.6533236,0.57444996,0.3957197,0.38644475,0.5660184,0.46666038,0.5936961,0.3468285,0.3673805,0.4359646,0.2562154,0.2620623,0.5497854,0.3629496,0.6067845,0.47625175,0.44962275,0.6782275,0.3480555,0.5257978,0.5424796
0,0,0,0,0,0,0,0,0,0,0,0,0,0,0,0,0,0,0,0,0,0,0,0,0,0,0,0,0,0,0,0,0,0,0,0,0,0,0,0,0,0,0,0,0,0,0,0,0,0,0,0,0,0,0,0,0,0,0,0,0,0,0,0,0,0,0,0,0,0,0,0,0,0,0,0,0,0,0,0,0,0,0,0,0,0,0,0,0,0,0,0,0,0,0,0,0,0,0,0,0,0,0,0,0,0,0,0,0,0,0,0,0,0,0,0,0,0,0,0,0,0,0,0,0,0,0,0,0,0,0,0,0,0,0,0,0,0,0,0,0,0,0,0,0,0,0,0,0,0,0,0,0,0,0,0,0,0,0,0,0,0,0,0,0,0,0,0,0,0,0,0,0,0,0,0,0,0,0,0,0,0,0,0,0,0,0,0,0,0,0,0,0,0,0,0,0,0,0,0,0,0,0,0,0,0,0,0,0,0,0,0,0,0,0,0,0,0,0,0,0,0,0,0,0,0,0,0,0,0,0,0,0,0,0,0,0,0,0,0,0,0,0,0,0,0,0,0,0,0,0,0,0,0,0,0,0,0,0,0,0,0,0,0,0,0,0,0,0,0,0,0,0,0,0,0,0,0,0,0,0,0,0,0,0,0,0,0,0,0,0,0,0,0,0,0,0,0,0,0,0,0,0,0,0,0,0,0,0,0,0,0,0,0,0,0,0,0,0,0,0,0,0,0,0,0,0,0,0,0,0,0,0,0,0,0,0,0,0,0,0,0,0,0,0,0,0,0,0,0,0,0,0,0,0,0,0,0,0,0,0,0,0,0,0,0,0,0,0,0,0,0,0,0,0,0,0,0,0,0,0,0,0,0,0,0,0,0,0,0,0,0,0,0,0,0,0,0,0,0,0,0,0,0,0,0,0,0,0,0,0,0,0,0,0,0,0,0,0,0,0,0,0,0,0,0,0,0,0,0,0,0,0,0,0,0,0,0,0,0,0,0,0,0,0,0,0,0,0,0,0,0,0,0,0,0,0,0,0,0,0,0,0,0,0,0,0,0,0,0,0,0,0,0,0,0,0,0,0,0,0,0,0,0,0,0,0,0,0,0,0,0,0,0,0,0,0,0,0,0
0.8330005,0.8251782,0.65850556,0.9025747,0.7270675,0.5231822,0.53812087,0.44059512,0.7585656,0.7046214,0.6893212,0.8982847,0.9165824,0.97527224,0.6567438,0.7878643,0.6184516,0.93582934,0.8444811,0.6397875,0.69532967,0.46234843,0.4864907,0.7526682,0.69490993,0.7591066,0.7589499,0.6758376,0.83900946,0.64116436,0.8022497,0.51817423,0.7267193,0.9038399,0.52892333,0.8846732,0.93923086,0.92595315,0.51809543,0.7575432,0.9379492,0.5320536,0.8300281,0.78382576,0.8474571,0.75299174,0.56073064,0.6134256,0.4743817,0.747392,0.6118632,0.49664962,0.47595856,0.5349108,0.477352,0.6636698,0.51234484,0.7675569,0.6613993,0.44313815,0.45740917,0.37227336,0.7127775,0.5621082,0.62100357,0.79876155,0.82401353,0.59185016,0.83393645,0.8181808,0.8886148,0.6215197,0.41233325,0.45341498,0.5457218,0.6774381,0.78492403,0.4171625,0.8334093,0.51028246,0.5860684,0.40163738,0.42858648,0.58376485,0.67462665,0.52891,0.5620503,0.5895011,0.9821754,0.5011381,0.7480525,0.7992932,0.53247124,0.7779878,0.60182387,0.5983554,0.5262413,0.71125907,0.78007597,0.57373244,0.71362245,0.6499412,0.5167143,0.6070607,0.7835757,0.44592288,0.4234834,0.76353204,0.6451363,0.5397761,0.6696812,0.5884783,0.66028774,0.8438453,0.39849564,0.45321348,0.6768855,0.7089302,0.60340506,0.40166885,0.58222723,0.46302244,0.80892766,0.4964229,0.39210755,0.58412206,0.41413718,0.45144168,0.8655566,0.5507221,0.5537125,0.721773,0.934866,0.5967465,0.56183815,0.6702903,0.6785609,0.8301847,0.904053,0.74506634,0.8488543,0.7470081,0.7920358,0.537945,0.7813145,0.6041104,0.6195012,0.6381548,0.5425742,0.41209656,0.45108557,0.8781124,0.7548567,0.78937346,0.6079576,0.57610726,0.5902003,0.5286985,0.73329616,0.8423257,0.62186795,0.6661597,0.5543225,0.66203344,0.9100003,0.56510097,0.6278453,0.744623,0.5583308,0.39365062,0.61608046,0.7564898,0.5997654,0.60800344,0.8627204,0.82106715,0.4645757,0.96614987,0.5876569,0.59457546,0.97091925,0.70542264,0.42795733,0.93939334,0.52611554,0.5324492,0.94727546,0.44857737,0.7693764,0.47157615,0.47387856,0.4457372,0.7002455,0.67934954,0.8920219,0.8954669,0.41129684,0.9188509,0.9179376,0.38419858,0.7515267,0.6339113,0.49701926,0.6976804,0.8472982,0.8364896,0.60875183,0.6719168,0.6802071,0.6498036,0.82163996,0.71330595,0.6265463,0.8188092,0.90436536,0.4768254,0.59519327,0.662161,0.63968843,0.52584004,0.73189783,0.7831071,0.6864966,0.6944966,0.57413965,0.59427834,0.8184398,0.60874915,0.5883172,0.5780624,0.8060767,0.66266197,0.41245377,0.7305332,0.51599145,0.58008033,0.6691282,0.67221045,0.81902665,0.7136735,0.5076017,0.8363755,0.8430571,0.61136585,0.6619259,0.7578763,0.65734524,0.4509262,0.7317286,0.49625918,0.79617625,0.5468394,0.80564654,0.46924216,0.4685519,0.8881583,0.9231017,0.77431726,0.7318844,0.65345055,0.62403166,0.81761014,0.71954113,0.51430243,0.8574375,0.7736696,0.60225683,0.66731054,0.97014534,0.45819554,0.9472025,0.6635,0.49842098,0.90404725,0.6291246,0.39557642,0.7681232,0.9585762,0.85065025,0.8224079,0.4474749,0.58705664,0.73842525,0.3987561,0.78674483,0.79019487,0.72313,0.60079247,0.70728195,0.76607573,0.61179274,0.67536014,0.59900045,0.6215383,0.9157292,0.708898,0.73436564,0.56804556,0.72026217,0.48776004,0.4480695,0.80838877,0.7224493,0.6545711,0.43127817,0.54690355,0.73890114,0.5395863,0.61399984,0.6251468,0.7140924,0.8056341,0.5028781,0.58250606,0.6645428,0.64145076,0.69007844,0.6599594,0.6693648,0.5908286,0.95236623,0.7572066,0.8293035,0.4719597,0.7975714,0.9598885,0.88353604,0.5806113,0.6098542,0.79060125,0.40219274,0.84669524,0.83072615,0.49579334,0.89832586,0.7491042,0.60843694,0.8017632,0.82244116,0.37434325,0.77981997,0.79748595,0.7759213,0.71535987,0.88367975,0.47794533,0.7977186,0.637378,0.5040795,0.67012423,0.5671328,0.7788885,0.5428647,0.78190017,0.44195354,0.5836291,0.6687235,0.9113057,0.82670254,0.43990374,0.6535726,0.39166987,0.4302857,0.83584255,0.85454816,0.6732489,0.6053288,0.60978025,0.55865794,0.6815185,0.7009486,0.8387771,0.9292691,0.41364565,0.56213087,0.6626779,0.76560676,0.82303023,0.6589339,0.6395135,0.7059149,0.60606354,0.7329522,0.570314,0.97874963,0.6484729,0.57542187,0.8461783,0.8519874,0.3489234,0.40966222,0.8715309,0.6684136,0.44989738,0.5608089,0.8057037,0.6564137,0.9386061,0.86591417,0.79280883,0.72709525,0.90241855,0.52893,0.7202012,0.75453347,0.63708115,0.562045,0.73764133,0.44684187,0.7750536,0.7203871,0.91819113,0.69467175,0.4729627,0.9000683,0.9038056,0.7891334,0.7923271,0.91373795,0.49602947,0.7386446,0.5541821,0.7736106,0.63826233,0.81945145,0.5143474,0.5576964,0.76580197,0.4230271,0.8543446,0.76738185,0.8804373,0.69458425,0.47605982,0.60201246,0.90416145,0.7371712,0.6705711,0.9153206,0.520961,0.53186435,0.76186115,0.4496156,0.529201,0.7803684,0.46964815,0.68677056,0.6692744,0.70020264,0.7822749,0.95709103,0.6386658,0.69988096,0.38485122,0.8054263,0.7622125,0.46099034,0.45760635,0.94372827,0.6806936,0.67581385,0.9304188,0.850449,0.8355721,0.3908837,0.7036171,0.5281091,0.86754745,0.7572653,0.8264399,0.5881656,0.65905803,0.5526922,0.8717279,0.8267076,0.50688714,0.5618845,0.85328865,0.6108254,0.5088813,0.82777476,0.6962831,0.6479658,0.74213755,0.59175813,0.808852,0.81141007,0.74152744,0.81877536,0.6527492,0.6974308,0.7439756,0.79551476,0.875289,0.570618,0.652296,0.87547225,0.6066853,0.46255317,0.72774094
0,0,0,0,0,0,0,0,0,0,0,0,0,0,0,0,0,0,0,0,0,0,0,0,0,0,0,0,0,0,0,0,0,0,0,0,0,0,0,0,0,0,0,0,0,0,0,0,0,0,0,0,0,0,0,0,0,0,0,0,0,0,0,0,0,0,0,0,0,0,0,0,0,0,0,0,0,0,0,0,0,0,0,0,0,0,0,0,0,0,0,0,0,0,0,0,0,0,0,0,0,0,0,0,0,0,0,0,0,0,0,0,0,0,0,0,0,0,0,0,0,0,0,0,0,0,0,0,0,0,0,0,0,0,0,0,0,0,0,0,0,0,0,0,0,0,0,0,0,0,0,0,0,0,0,0,0,0,0,0,0,0,0,0,0,0,0,0,0,0,0,0,0,0,0,0,0,0,0,0,0,0,0,0,0,0,0,0,0,0,0,0,0,0,0,0,0,0,0,0,0,0,0,0,0,0,0,0,0,0,0,0,0,0,0,0,0,0,0,0,0,0,0,0,0,0,0,0,0,0,0,0,0,0,0,0,0,0,0,0,0,0,0,0,0,0,0,0,0,0,0,0,0,0,0,0,0,0,0,0,0,0,0,0,0,0,0,0,0,0,0,0,0,0,0,0,0,0,0,0,0,0,0,0,0,0,0,0,0,0,0,0,0,0,0,0,0,0,0,0,0,0,0,0,0,0,0,0,0,0,0,0,0,0,0,0,0,0,0,0,0,0,0,0,0,0,0,0,0,0,0,0,0,0,0,0,0,0,0,0,0,0,0,0,0,0,0,0,0,0,0,0,0,0,0,0,0,0,0,0,0,0,0,0,0,0,0,0,0,0,0,0,0,0,0,0,0,0,0,0,0,0,0,0,0,0,0,0,0,0,0,0,0,0,0,0,0,0,0,0,0,0,0,0,0,0,0,0,0,0,0,0,0,0,0,0,0,0,0,0,0,0,0,0,0,0,0,0,0,0,0,0,0,0,0,0,0,0,0,0,0,0,0,0,0,0,0,0,0,0,0,0,0,0,0,0,0,0,0,0,0,0,0,0,0,0,0,0,0,0,0,0,0,0,0,0,0,0,0,0,0,0,0,0,0,0,0,0,0,0,0,0,0,0,0,0,0,0,0,0
0,0,0,0,0,0,0,0,0,0,0,0,0,0,0,0,0,0,0,0,0,0,0,0,0,0,0,0,0,0,0,0,0,0,0,0,0,0,0,0,0,0,0,0,0,0,0,0,0,0,0,0,0,0,0,0,0,0,0,0,0,0,0,0,0,0,0,0,0,0,0,0,0,0,0,0,0,0,0,0,0,0,0,0,0,0,0,0,0,0,0,0,0,0,0,0,0,0,0,0,0,0,0,0,0,0,0,0,0,0,0,0,0,0,0,0,0,0,0,0,0,0,0,0,0,0,0,0,0,0,0,0,0,0,0,0,0,0,0,0,0,0,0,0,0,0,0,0,0,0,0,0,0,0,0,0,0,0,0,0,0,0,0,0,0,0,0,0,0,0,0,0,0,0,0,0,0,0,0,0,0,0,0,0,0,0,0,0,0,0,0,0,0,0,0,0,0,0,0,0,0,0,0,0,0,0,0,0,0,0,0,0,0,0,0,0,0,0,0,0,0,0,0,0,0,0,0,0,0,0,0,0,0,0,0,0,0,0,0,0,0,0,0,0,0,0,0,0,0,0,0,0,0,0,0,0,0,0,0,0,0,0,0,0,0,0,0,0,0,0,0,0,0,0,0,0,0,0,0,0,0,0,0,0,0,0,0,0,0,0,0,0,0,0,0,0,0,0,0,0,0,0,0,0,0,0,0,0,0,0,0,0,0,0,0,0,0,0,0,0,0,0,0,0,0,0,0,0,0,0,0,0,0,0,0,0,0,0,0,0,0,0,0,0,0,0,0,0,0,0,0,0,0,0,0,0,0,0,0,0,0,0,0,0,0,0,0,0,0,0,0,0,0,0,0,0,0,0,0,0,0,0,0,0,0,0,0,0,0,0,0,0,0,0,0,0,0,0,0,0,0,0,0,0,0,0,0,0,0,0,0,0,0,0,0,0,0,0,0,0,0,0,0,0,0,0,0,0,0,0,0,0,0,0,0,0,0,0,0,0,0,0,0,0,0,0,0,0,0,0,0,0,0,0,0,0,0,0,0,0,0,0,0,0,0,0,0,0,0,0,0,0,0,0,0,0,0,0,0,0,0,0,0,0,0,0,0,0,0,0,0,0,0,0,0,0,0,0,0,0
0.5239478,0.60847974,0.36213154,0.5343306,0.5863514,0.48445973,0.5502407,0.574151,0.68659985,0.49825957,0.62656903,0.46627116,0.73568475,0.39640868,0.85637426,0.3480166,0.82547325,0.77279025,0.6708626,0.6057589,0.59232503,0.6287229,0.35439295,0.5178334,0.33256412,0.40893906,0.6834056,0.70801204,0.6658626,0.74968415,0.64479005,0.8498486,0.47032905,0.7393017,0.5022832,0.40594384,0.42502153,0.48357373,0.5764729,0.36395907,0.30358794,0.6773305,0.5791774,0.5021847,0.40082985,0.7106224,0.44065624,0.6083768,0.57848287,0.3537688,0.43851966,0.5866489,0.52754647,0.3941535,0.35699797,0.57918423,0.39895564,0.4570072,0.8809132,0.7738446,0.5378509,0.53563225,0.51945764,0.34543657,0.35642675,0.33089393,0.6876399,0.5789358,0.65790445,0.5741077,0.70796204,0.62314415,0.66134816,0.5870666,0.53761214,0.6796335,0.5818763,0.5283283,0.52379,0.612435,0.3970497,0.8974599,0.37742412,0.578518,0.4408021,0.8960749,0.31572536,0.4216775,0.85417527,0.66170704,0.63195497,0.76889986,0.548398,0.79056877,0.63125813,0.48289183,0.8238596,0.4042255,0.52175313,0.41799584,0.5862299,0.39200863,0.31295416,0.33319575,0.47349396,0.43820316,0.7713216,0.4265318,0.44356683,0.29745486,0.6062332,0.27524507,0.37602478,0.4446775,0.6483884,0.86056584,0.6228993,0.5098124,0.8497629,0.55159,0.38299093,0.62831753,0.74367154,0.9086463,0.39641488,0.4788653,0.6087033,0.559151,0.6330451,0.7095645,0.4960593,0.30035666,0.68115765,0.8705238,0.41631344,0.66009724,0.35447168,0.5559324,0.55678296,0.3256281,0.45572156,0.3850795,0.5092642,0.47221836,0.612551,0.8094025,0.34269896,0.79518,0.542102,0.37270916,0.31178647,0.78005487,0.35633728,0.48336962,0.44860673,0.52301073,0.7923135,0.57953155,0.8696525,0.32592514,0.8385491,0.56204164,0.7552945,0.70142037,0.49752483,0.81801724,0.6498167,0.72402954,0.5475746,0.8276908,0.2619614,0.9286635,0.63684386,0.72285867,0.6942254,0.4292055,0.61768377,0.592889,0.34185472,0.72073483,0.66413844,0.43017933,0.65547866,0.59121066,0.8138739,0.68392885,0.7708235,0.4523884,0.65118206,0.27417597,0.5032754,0.7893791,0.3675148,0.29731545,0.7893595,0.42019558,0.83705956,0.7171454,0.49947047,0.2725439,0.6533301,0.4816259,0.7949994,0.876429,0.48182935,0.29788968,0.6283808,0.74405766,0.22839703,0.5496623,0.6867587,0.83425266,0.42862433,0.48715702,0.41566262,0.71782005,0.9207174,0.64930534,0.487998,0.83508164,0.3682327,0.59725624,0.533833,0.48301205,0.5678966,0.38017213,0.6502094,0.64967895,0.5668053,0.8075951,0.7231201,0.3131533,0.8285126,0.54111266,0.58833444,0.28723365,0.7484561,0.5026988,0.6205892,0.70968115,0.53638244,0.74646276,0.6144794,0.73230356,0.43507838,0.7772272,0.6047445,0.7870126,0.47753704,0.6063395,0.7389521,0.29578087,0.48892483,0.38585117,0.5103745,0.45773098,0.63178045,0.31024337,0.82866335,0.42176342,0.46054158,0.49606913,0.7414519,0.6166714,0.47430167,0.37892962,0.70308715,0.9378019,0.3808405,0.6250649,0.7456174,0.49352422,0.81729025,0.6162759,0.8974746,0.72499835,0.7419792,0.60902184,0.32988027,0.61649543,0.86531395,0.5008345,0.84389585,0.71870154,0.58104277,0.52868605,0.4378238,0.56196314,0.41186866,0.33679262,0.6355182,0.62767375,0.53429985,0.61360544,0.37385142,0.61467856,0.3823776,0.3794881,0.8377503,0.64829856,0.7194214,0.38855723,0.5270026,0.4845856,0.763756,0.7066039,0.31844488,0.7028804,0.6517484,0.5911677,0.4406726,0.5190185,0.6442715,0.5686953,0.6587335,0.5933683,0.68207717,0.57228965,0.43779224,0.5191651,0.7175792,0.33501455,0.796054,0.45127293,0.665027,0.7130461,0.48051757,0.5736142,0.5891852,0.46365726,0.6560678,0.70938903,0.5994975,0.41303858,0.62057793,0.37139785,0.50375134,0.45141345,0.33576822,0.67805606,0.5687335,0.22613378,0.67754674,0.6096942,0.4745048,0.59823287,0.46488133,0.34389558,0.77907896,0.21454571,0.6690564,0.40984225,0.6746456,0.7310813,0.5553002,0.5076622,0.7376556,0.7086611,0.6361639,0.7655665,0.77387726,0.6653799,0.82898766,0.7214567,0.2938844,0.385472,0.5945533,0.59303075,0.57650644,0.30905133,0.72283626,0.37875295,0.65818137,0.68106306,0.5743963,0.7512403,0.37175035,0.72732455,0.5359703,0.5908117,0.55950385,0.44186598,0.48928183,0.7208176,0.5344988,0.33305,0.6432499,0.77565455,0.70000315,0.8242207,0.6352435,0.65712744,0.8450044,0.72767186,0.35623312,0.70159733,0.26669738,0.48236394,0.37955695,0.61649317,0.61113757,0.43894097,0.2178474,0.48317814,0.5425598,0.5068857,0.70050746,0.7126813,0.7483408,0.79313844,0.5968885,0.6380653,0.73676354,0.5255183,0.3303209,0.7703557,0.60740113,0.37950513,0.47381923,0.6347601,0.7105612,0.6564916,0.53681445,0.38306943,0.79502845,0.5384889,0.3424169,0.55417866,0.36213982,0.50558895,0.71148264,0.28627008,0.7866009,0.60575545,0.81108034,0.60888094,0.6530974,0.71714634,0.65584224,0.46943504,0.4405959,0.63222766,0.40264025,0.5260837,0.777929,0.5143625,0.67924833,0.7094797,0.7432887,0.2899574,0.3252359,0.52986586,0.4254553,0.5545146,0.88388276,0.6561883,0.54752904,0.39117968,0.4000425,0.41896647,0.71439016,0.6500733,0.5598552,0.25489837,0.74252456,0.6280217,0.88337815,0.3528169,0.76578313,0.610416,0.2621402,0.46951267,0.7396657,0.65714043,0.5963532,0.45258582,0.65226287,0.6570445,0.7396563,0.6703757,0.5061012,0.41068158,0.72710043,0.7559757,0.5085619,0.4218432,0.39384377,0.69004387,0.9068344,0.4178026,0.7800791,0.83952695,0.6219702,0.74979544,0.5234222,0.69854736,0.5164208,0.79347754,0.73756397,0.48091045
0,0,0,0,0,0,0,0,0,0,0,0,0,0,0,0,0,0,0,0,0,0,0,0,0,0,0,0,0,0,0,0,0,0,0,0,0,0,0,0,0,0,0,0,0,0,0,0,0,0,0,0,0,0,0,0,0,0,0,0,0,0,0,0,0,0,0,0,0,0,0,0,0,0,0,0,0,0,0,0,0,0,0,0,0,0,0,0,0,0,0,0,0,0,0,0,0,0,0,0,0,0,0,0,0,0,0,0,0,0,0,0,0,0,0,0,0,0,0,0,0,0,0,0,0,0,0,0,0,0,0,0,0,0,0,0,0,0,0,0,0,0,0,0,0,0,0,0,0,0,0,0,0,0,0,0,0,0,0,0,0,0,0,0,0,0,0,0,0,0,0,0,0,0,0,0,0,0,0,0,0,0,0,0,0,0,0,0,0,0,0,0,0,0,0,0,0,0,0,0,0,0,0,0,0,0,0,0,0,0,0,0,0,0,0,0,0,0,0,0,0,0,0,0,0,0,0,0,0,0,0,0,0,0,0,0,0,0,0,0,0,0,0,0,0,0,0,0,0,0,0,0,0,0,0,0,0,0,0,0,0,0,0,0,0,0,0,0,0,0,0,0,0,0,0,0,0,0,0,0,0,0,0,0,0,0,0,0,0,0,0,0,0,0,0,0,0,0,0,0,0,0,0,0,0,0,0,0,0,0,0,0,0,0,0,0,0,0,0,0,0,0,0,0,0,0,0,0,0,0,0,0,0,0,0,0,0,0,0,0,0,0,0,0,0,0,0,0,0,0,0,0,0,0,0,0,0,0,0,0,0,0,0,0,0,0,0,0,0,0,0,0,0,0,0,0,0,0,0,0,0,0,0,0,0,0,0,0,0,0,0,0,0,0,0,0,0,0,0,0,0,0,0,0,0,0,0,0,0,0,0,0,0,0,0,0,0,0,0,0,0,0,0,0,0,0,0,0,0,0,0,0,0,0,0,0,0,0,0,0,0,0,0,0,0,0,0,0,0,0,0,0,0,0,0,0,0,0,0,0,0,0,0,0,0,0,0,0,0,0,0,0,0,0,0,0,0,0,0,0,0,0,0,0,0,0,0,0,0,0,0,0,0,0,0,0,0,0,0,0
0,0,0,0,0,0,0,0,0,0,0,0,0,0,0,0,0,0,0,0,0,0,0,0,0,0,0,0,0,0,0,0,0,0,0,0,0,0,0,0,0,0,0,0,0,0,0,0,0,0,0,0,0,0,0,0,0,0,0,0,0,0,0,0,0,0,0,0,0,0,0,0,0,0,0,0,0,0,0,0,0,0,0,0,0,0,0,0,0,0,0,0,0,0,0,0,0,0,0,0,0,0,0,0,0,0,0,0,0,0,0,0,0,0,0,0,0,0,0,0,0,0,0,0,0,0,0,0,0,0,0,0,0,0,0,0,0,0,0,0,0,0,0,0,0,0,0,0,0,0,0,0,0,0,0,0,0,0,0,0,0,0,0,0,0,0,0,0,0,0,0,0,0,0,0,0,0,0,0,0,0,0,0,0,0,0,0,0,0,0,0,0,0,0,0,0,0,0,0,0,0,0,0,0,0,0,0,0,0,0,0,0,0,0,0,0,0,0,0,0,0,0,0,0,0,0,0,0,0,0,0,0,0,0,0,0,0,0,0,0,0,0,0,0,0,0,0,0,0,0,0,0,0,0,0,0,0,0,0,0,0,0,0,0,0,0,0,0,0,0,0,0,0,0,0,0,0,0,0,0,0,0,0,0,0,0,0,0,0,0,0,0,0,0,0,0,0,0,0,0,0,0,0,0,0,0,0,0,0,0,0,0,0,0,0,0,0,0,0,0,0,0,0,0,0,0,0,0,0,0,0,0,0,0,0,0,0,0,0,0,0,0,0,0,0,0,0,0,0,0,0,0,0,0,0,0,0,0,0,0,0,0,0,0,0,0,0,0,0,0,0,0,0,0,0,0,0,0,0,0,0,0,0,0,0,0,0,0,0,0,0,0,0,0,0,0,0,0,0,0,0,0,0,0,0,0,0,0,0,0,0,0,0,0,0,0,0,0,0,0,0,0,0,0,0,0,0,0,0,0,0,0,0,0,0,0,0,0,0,0,0,0,0,0,0,0,0,0,0,0,0,0,0,0,0,0,0,0,0,0,0,0,0,0,0,0,0,0,0,0,0,0,0,0,0,0,0,0,0,0,0,0,0,0,0,0,0,0,0,0,0,0,0,0,0,0,0,0,0,0
0,0,0,0,0,0,0,0,0,0,0,0,0,0,0,0,0,0,0,0,0,0,0,0,0,0,0,0,0,0,0,0,0,0,0,0,0,0,0,0,0,0,0,0,0,0,0,0,0,0,0,0,0,0,0,0,0,0,0,0,0,0,0,0,0,0,0,0,0,0,0,0,0,0,0,0,0,0,0,0,0,0,0,0,0,0,0,0,0,0,0,0,0,0,0,0,0,0,0,0,0,0,0,0,0,0,0,0,0,0,0,0,0,0,0,0,0,0,0,0,0,0,0,0,0,0,0,0,0,0,0,0,0,0,0,0,0,0,0,0,0,0,0,0,0,0,0,0,0,0,0,0,0,0,0,0,0,0,0,0,0,0,0,0,0,0,0,0,0,0,0,0,0,0,0,0,0,0,0,0,0,0,0,0,0,0,0,0,0,0,0,0,0,0,0,0,0,0,0,0,0,0,0,0,0,0,0,0,0,0,0,0,0,0,0,0,0,0,0,0,0,0,0,0,0,0,0,0,0,0,0,0,0,0,0,0,0,0,0,0,0,0,0,0,0,0,0,0,0,0,0,0,0,0,0,0,0,0,0,0,0,0,0,0,0,0,0,0,0,0,0,0,0,0,0,0,0,0,0,0,0,0,0,0,0,0,0,0,0,0,0,0,0,0,0,0,0,0,0,0,0,0,0,0,0,0,0,0,0,0,0,0,0,0,0,0,0,0,0,0,0,0,0,0,0,0,0,0,0,0,0,0,0,0,0,0,0,0,0,0,0,0,0,0,0,0,0,0,0,0,0,0,0,0,0,0,0,0,0,0,0,0,0,0,0,0,0,0,0,0,0,0,0,0,0,0,0,0,0,0,0,0,0,0,0,0,0,0,0,0,0,0,0,0,0,0,0,0,0,0,0,0,0,0,0,0,0,0,0,0,0,0,0,0,0,0,0,0,0,0,0,0,0,0,0,0,0,0,0,0,0,0,0,0,0,0,0,0,0,0,0,0,0,0,0,0,0,0,0,0,0,0,0,0,0,0,0,0,0,0,0,0,0,0,0,0,0,0,0,0,0,0,0,0,0,0,0,0,0,0,0,0,0,0,0,0,0,0,0,0,0,0,0,0,0,0,0,0,0,0
0.53219813,0.4332973,0.42738473,0.39745092,0.80078024,0.53161275,0.48809788,0.40432352,0.2731128,0.5520635,0.4299048,0.5006074,0.241159,0.77199835,0.23772229,0.78451174,0.44196567,0.6766815,0.7911812,0.47808227,0.47090003,0.5964354,0.22342418,0.618273,0.4148976,0.4155487,0.7170752,0.8256904,0.5348909,0.6243745,0.56458604,0.82308465,0.36052403,0.42607883,0.32232055,0.63463265,0.5486218,0.7263655,0.6761274,0.4596678,0.38829485,0.5380318,0.42583787,0.4294743,0.5000463,0.39150894,0.47440225,0.7867586,0.5182561,0.4091674,0.48410103,0.7834509,0.5439404,0.65033215,0.5387656,0.78632027,0.5111305,0.7977142,0.7437445,0.39557722,0.7736091,0.3424729,0.77467686,0.36941034,0.448564,0.4680525,0.5754998,0.6978409,0.8891201,0.4163673,0.81290936,0.7772262,0.4628051,0.55888504,0.76000464,0.32288262,0.47895584,0.42146152,0.6047225,0.6217646,0.3737103,0.2983025,0.59601766,0.47909218,0.6807558,0.77123445,0.39894244,0.826905,0.3844359,0.79061294,0.68430865,0.37949637,0.76100546,0.39960074,0.80454665,0.5139242,0.46160218,0.3450305,0.557472,0.45995703,0.7885256,0.44876948,0.28721625,0.4956118,0.5564567,0.74037355,0.4365377,0.4214634,0.45510793,0.37509686,0.7265451,0.29155535,0.62342954,0.45791343,0.4156852,0.5378187,0.7910753,0.46997315,0.21106641,0.43382612,0.47352874,0.47004133,0.78368855,0.53808236,0.4402697,0.65467685,0.61461854,0.7983677,0.4828654,0.7191394,0.3875956,0.84100527,0.4405959,0.70063585,0.41109306,0.60192525,0.7475763,0.33348694,0.7410204,0.75233513,0.48028237,0.6375032,0.43506166,0.7253898,0.7168017,0.46444094,0.9990255,0.7725041,0.70754147,0.7971846,0.66491663,0.7558336,0.80640477,0.7236917,0.6259765,0.52666074,0.7121004,0.3994663,0.82221067,0.38356856,0.424329,0.35809737,0.4340984,0.4554062,0.47629818,0.49585646,0.3477466,0.49172586,0.2561243,0.6179719,0.5932832,0.6854505,0.6526418,0.55447584,0.6907815,0.5321665,0.37429428,0.7657788,0.51238,0.5191248,0.4928592,0.5183451,0.37900308,0.48374164,0.82796794,0.7424953,0.6628186,0.51238304,0.48992378,0.6448249,0.3398702,0.7129462,0.8327104,0.5906334,0.42419276,0.5799405,0.5341356,0.5004757,0.36358517,0.82089657,0.48229367,0.49890703,0.692723,0.72606784,0.4530905,0.70572937,0.42114812,0.5392803,0.34042412,0.623614,0.36282566,0.52735466,0.553102,0.3597668,0.42872623,0.7141299,0.5500341,0.73914015,0.74200773,0.7648889,0.70393807,0.45164678,0.34605125,0.52978307,0.49489546,0.37909234,0.42170972,0.3782844,0.36749515,0.39039803,0.59194577,0.6905735,0.7079322,0.41953242,0.49071294,0.39807734,0.413319,0.80661875,0.4301092,0.7086511,0.47367164,0.44775218,0.6477103,0.54663306,0.3474343,0.67612505,0.34702513,0.565961,0.8196027,0.74178135,0.71405345,0.4402126,0.7022072,0.48510996,0.75449425,0.3668693,0.5157093,0.54592144,0.5912666,0.5789731,0.7162178,0.46488938,0.6963383,0.7493246,0.74745816,0.21685572,0.76752853,0.6733802,0.739038,0.23311943,0.66465884,0.25152904,0.66287065,0.56041265,0.40369132,0.6903726,0.62037534,0.64195937,0.5077769,0.5639,0.60277474,0.2946229,0.5101689,0.63734716,0.5090872,0.6803842,0.5803208,0.56137705,0.58011657,0.71734816,0.3405481,0.49252966,0.30269396,0.6953394,0.6424464,0.44320482,0.4852472,0.5441677,0.8334338,0.4523336,0.5743655,0.36703253,0.7687022,0.70695597,0.46808168,0.76915985,0.42845044,0.6454252,0.46437514,0.5572252,0.39974436,0.35320443,0.49900457,0.65423054,0.46076006,0.70724046,0.49375576,0.656015,0.75296146,0.33433756,0.39074218,0.7883802,0.76090896,0.7650927,0.58450836,0.44106102,0.66100717,0.70955426,0.7018114,0.4914474,0.35889423,0.38440734,0.48377076,0.5211473,0.55146223,0.37641907,0.35869986,0.28950673,0.49759346,0.6456513,0.712827,0.6239335,0.46870092,0.64154637,0.5859814,0.616062,0.5460895,0.4612846,0.97612494,0.44910237,0.61880225,0.32062867,0.73270243,0.4185628,0.42246312,0.31445858,0.70219207,0.61208516,0.58448815,0.6926258,0.71639407,0.37260264,0.5891318,0.87827265,0.63116604,0.80770373,0.262924,0.71645665,0.6577829,0.64421827,0.68293643,0.71975845,0.3340237,0.61493635,0.56212515,0.4303817,0.8031431,0.7489869,0.76762927,0.66693944,0.35294008,0.8279029,0.35125414,0.7273742,0.6186124,0.52991825,0.33602965,0.5677851,0.651264,0.3991087,0.38656324,0.6482381,0.39112705,0.76903266,0.5576787,0.37322143,0.3461577,0.4971609,0.4040367,0.640292,0.49111083,0.48283115,0.37218437,0.6988921,0.33701006,0.558528,0.51361537,0.55769986,0.8840784,0.4430179,0.5682921,0.7270772,0.36866915,0.40914926,0.63564456,0.6466528,0.4999692,0.6511992,0.40619564,0.7396031,0.5370934,0.643865,0.72012043,0.8419034,0.34993485,0.34426552,0.5370635,0.7320152,0.37849692,0.71946335,0.64404213,0.49026823,0.52545446,0.68920857,0.603845,0.59496605,0.5534184,0.55434924,0.75273114,0.67636806,0.59508085,0.72643054,0.6081885,0.70314085,0.6073062,0.64098644,0.34108135,0.5071345,0.41595313,0.26456085,0.44843352,0.47596052,0.2789408,0.38492838,0.40132034,0.6639348,0.5205823,0.45705947,0.619942,0.47121394,0.689189,0.52383035,0.82682794,0.81057215,0.559422,0.6942315,0.7458525,0.36519846,0.65846723,0.48681876,0.4048162,0.4115042,0.8438801,0.5035733,0.7196064,0.6153121,0.42772818,0.34315285,0.86341906,0.4525029,0.73736256,0.7592536,0.6196694,0.57735044,0.31928027,0.5354218,0.35314864,0.5997305,0.52656126,0.46734148,0.38687262,0.9920671,0.61410415,0.68713015,0.6457378,0.36137515,0.4993832,0.41554683,0.70680803,0.6187004
0.5921715,0.80194783,0.7585418,0.5645974,0.6298772,0.62414,0.62629366,0.8839586,0.7216936,0.88359773,0.84191173,0.8221182,0.89238286,0.8661954,0.8564478,0.5874669,0.6800238,0.7231711,0.9145566,0.8239427,0.6011757,0.86626995,0.668162,0.58675396,0.6203427,0.6130547,0.51355755,0.90994173,0.8175655,0.78608376,0.6043428,0.6153359,0.5815702,0.90850824,0.7866714,0.7973332,0.77248037,0.55797005,0.60599774,0.7634984,0.80323535,0.8110434,0.64720356,0.51040536,0.8367464,0.93013406,0.66003484,0.46683317,0.747057,0.5428476,0.64544874,0.7499105,0.63523597,0.90146554,0.43154725,0.86558443,0.9458452,0.49952522,0.9049503,0.66764134,0.9389866,0.59137046,0.5844195,0.67960525,0.80098313,0.6803131,0.7616519,0.8716742,0.5343728,0.587583,0.9597864,0.6206167,0.83252174,0.8072216,0.5421235,0.732723,0.67547846,0.48441702,0.4491348,0.4445785,0.65516907,0.64273524,0.5943918,0.5145209,0.79000616,0.77281624,0.5499309,0.9919519,0.5296312,0.63720846,0.8977926,0.86645555,0.9049753,0.7944328,0.5398117,0.7026962,0.90444356,0.70502967,0.51570886,0.8999476,0.552244,0.8603991,0.49194565,0.49974847,0.99789584,0.7597257,0.91671336,0.8653303,0.4829204,0.617657,0.6720247,0.74190474,0.90796316,0.5910481,0.8931321,0.57060206,0.8196771,0.8614648,0.4962262,0.952709,0.59012514,0.7026652,0.61414725,0.9308961,0.45627832,0.7034838,1.0106031,0.90030646,0.9160207,0.61702645,0.45313588,0.85516506,0.50339365,0.7780447,0.7289056,0.8488726,0.89384675,0.45424306,0.5517858,0.5794184,0.686729,0.8435886,0.72286236,0.6294839,0.9404461,0.8266885,0.85841924,0.5149897,0.69678324,0.7773934,0.53457516,0.52661604,0.66893023,0.65273565,0.80175626,0.7230599,0.75722677,0.97383994,0.8429472,0.96249616,1.0001734,0.906023,0.80414015,0.6674423,0.76342607,0.934252,0.8404318,0.9049662,0.9695334,0.7467086,0.97947574,0.62431383,0.6407532,0.6974615,0.9119429,0.5388983,0.67214435,0.87911284,0.8564752,0.5575996,0.5362221,0.8754179,0.94707346,0.6370318,0.6286593,0.7947339,0.954547,0.43142474,0.7913593,0.6904786,0.5778182,0.6188243,0.65668917,0.5277295,0.8515518,0.9133847,0.39222506,0.8091771,0.68546224,0.53642225,0.68968934,0.5858895,0.9135977,0.81238365,0.6795306,0.6835193,0.6063928,0.675462,0.7471379,0.4951143,0.55384356,0.5671005,0.60832065,0.62903905,0.84111625,0.8714155,0.87908167,0.60134816,0.5134741,0.7086136,0.55656534,0.8893056,0.45257297,1.0048794,0.72046167,0.72565776,0.8259103,0.62117076,0.5217241,0.8580068,0.9610411,0.9794696,0.77460843,0.48207948,0.661641,0.7951322,0.93702585,0.59593064,0.5674534,0.94249904,0.7154579,0.58823407,1.0871,0.6649206,0.70180744,0.75439954,0.57565266,0.5574523,0.7371746,0.87848556,0.9873922,0.7106,0.69898546,0.6715326,0.854527,0.57454824,0.46431646,0.4842148,0.7823675,0.89574736,0.62230194,0.5697309,0.8718564,0.62834007,0.95244426,0.86411697,0.6705822,0.6585143,0.7597468,0.9419321,0.82623297,0.8202663,0.93860954,1.0023842,0.5134641,0.4381193,0.68421954,0.73143834,0.59939325,0.83387965,0.99375695,0.67809457,0.7606783,0.50641555,0.69513625,0.6126785,0.5717025,0.67006963,0.7120665,0.60190535,0.80219585,0.6057676,0.72891057,0.9129352,0.6286494,0.89008707,0.5782101,0.8744958,0.93774843,0.40726954,0.8716618,0.9068187,0.792953,0.9485748,0.59733826,0.88394856,0.9654625,0.4595199,1.0016496,0.6289147,0.9252684,0.5761965,0.9639404,0.57039344,0.70531845,0.67114526,0.67171425,0.98419213,0.6836998,0.60093564,0.49776152,0.57609934,0.74523157,0.6381094,0.99521047,0.86195576,1.0026257,0.590219,0.7670059,0.78694063,0.85003436,0.63648915,0.849134,1.0209063,0.5692496,0.63925886,0.6976126,0.9245055,0.7614768,0.9039498,0.46893093,0.790348,0.5656756,0.77841467,0.8532119,0.5824302,0.575741,0.742448,0.7955011,0.8090188,0.7384056,0.7852122,0.71172905,0.7946372,0.7349311,0.6998444,0.7830205,0.6191646,0.78196806,0.93553895,0.9468464,0.7067189,0.5157651,0.6911063,0.7873731,0.6731366,0.5487448,0.5623493,0.93741053,0.77469647,0.6270839,0.90791196,0.6992423,0.68627995,0.54417294,0.79279107,0.8220993,0.7014105,0.65424,0.6598168,0.98434985,0.7352406,0.9677948,0.8023476,0.5777895,0.57045865,0.6628661,0.7046489,0.92257464,0.92716014,0.7475716,0.9643253,0.79167575,0.55758214,0.5608311,0.6933204,0.80261195,0.84829074,0.92451984,0.59187716,0.6574188,0.67118233,0.64026505,0.8574959,0.6853464,0.71802914,0.7288146,0.8001525,0.7182136,0.7996958,0.6012456,0.79344213,0.45206717,0.7525143,0.7364116,0.76047593,0.9444848,0.87314814,0.61299473,0.7981332,0.854525,0.40649664,0.8598695,0.9124756,0.55721694,0.5150327,0.8061594,0.5090345,0.81965595,0.607076,0.834067,0.44376928,0.90492773,0.7337597,0.87471503,0.74760646,0.77457106,0.72682196,0.5151293,0.55597836,0.5409176,0.96382856,0.6587847,0.83751315,0.7349836,0.703506,0.8540229,0.7783564,0.637197,0.5012359,1.0485786,1.0583136,0.49688864,0.8037503,0.6886976,0.39579254,0.69856006,0.97628057,0.63677764,0.8328245,0.72393125,0.65933734,0.58019733,0.68801785,0.6912044,0.85076135,0.4686364,0.529222,0.63557607,0.58378047,0.5355879,0.6524227,0.63036674,0.63751876,0.4881087,0.74694693,0.7792645,0.4612178,0.93609464,0.9312748,0.6671594,0.94439226,0.5908495,0.91121006,0.78779954,0.664295,0.5866072,0.5949311,0.7896531,0.52620506,0.63365215,0.6878844,0.9152391,0.70757526,0.7434536,1.0038345,0.60144633,0.5968708,0.88919127,0.58881754
0,0,0,0,0,0,0,0,0,0,0,0,0,0,0,0,0,0,0,0,0,0,0,0,0,0,0,0,0,0,0,0,0,0,0,0,0,0,0,0,0,0,0,0,0,0,0,0,0,0,0,0,0,0,0,0,0,0,0,0,0,0,0,0,0,0,0,0,0,0,0,0,0,0,0,0,0,0,0,0,0,0,0,0,0,0,0,0,0,0,0,0,0,0,0,0,0,0,0,0,0,0,0,0,0,0,0,0,0,0,0,0,0,0,0,0,0,0,0,0,0,0,0,0,0,0,0,0,0,0,0,0,0,0,0,0,0,0,0,0,0,0,0,0,0,0,0,0,0,0,0,0,0,0,0,0,0,0,0,0,0,0,0,0,0,0,0,0,0,0,0,0,0,0,0,0,0,0,0,0,0,0,0,0,0,0,0,0,0,0,0,0,0,0,0,0,0,0,0,0,0,0,0,0,0,0,0,0,0,0,0,0,0,0,0,0,0,0,0,0,0,0,0,0,0,0,0,0,0,0,0,0,0,0,0,0,0,0,0,0,0,0,0,0,0,0,0,0,0,0,0,0,0,0,0,0,0,0,0,0,0,0,0,0,0,0,0,0,0,0,0,0,0,0,0,0,0,0,0,0,0,0,0,0,0,0,0,0,0,0,0,0,0,0,0,0,0,0,0,0,0,0,0,0,0,0,0,0,0,0,0,0,0,0,0,0,0,0,0,0,0,0,0,0,0,0,0,0,0,0,0,0,0,0,0,0,0,0,0,0,0,0,0,0,0,0,0,0,0,0,0,0,0,0,0,0,0,0,0,0,0,0,0,0,0,0,0,0,0,0,0,0,0,0,0,0,0,0,0,0,0,0,0,0,0,0,0,0,0,0,0,0,0,0,0,0,0,0,0,0,0,0,0,0,0,0,0,0,0,0,0,0,0,0,0,0,0,0,0,0,0,0,0,0,0,0,0,0,0,0,0,0,0,0,0,0,0,0,0,0,0,0,0,0,0,0,0,0,0,0,0,0,0,0,0,0,0,0,0,0,0,0,0,0,0,0,0,0,0,0,0,0,0,0,0,0,0,0,0,0,0,0,0,0,0,0,0,0,0,0,0,0,0,0,0,0,0,0,0,0
0,0,0,0,0,0,0,0,0,0,0,0,0,0,0,0,0,0,0,0,0,0,0,0,0,0,0,0,0,0,0,0,0,0,0,0,0,0,0,0,0,0,0,0,0,0,0,0,0,0,0,0,0,0,0,0,0,0,0,0,0,0,0,0,0,0,0,0,0,0,0,0,0,0,0,0,0,0,0,0,0,0,0,0,0,0,0,0,0,0,0,0,0,0,0,0,0,0,0,0,0,0,0,0,0,0,0,0,0,0,0,0,0,0,0,0,0,0,0,0,0,0,0,0,0,0,0,0,0,0,0,0,0,0,0,0,0,0,0,0,0,0,0,0,0,0,0,0,0,0,0,0,0,0,0,0,0,0,0,0,0,0,0,0,0,0,0,0,0,0,0,0,0,0,0,0,0,0,0,0,0,0,0,0,0,0,0,0,0,0,0,0,0,0,0,0,0,0,0,0,0,0,0,0,0,0,0,0,0,0,0,0,0,0,0,0,0,0,0,0,0,0,0,0,0,0,0,0,0,0,0,0,0,0,0,0,0,0,0,0,0,0,0,0,0,0,0,0,0,0,0,0,0,0,0,0,0,0,0,0,0,0,0,0,0,0,0,0,0,0,0,0,0,0,0,0,0,0,0,0,0,0,0,0,0,0,0,0,0,0,0,0,0,0,0,0,0,0,0,0,0,0,0,0,0,0,0,0,0,0,0,0,0,0,0,0,0,0,0,0,0,0,0,0,0,0,0,0,0,0,0,0,0,0,0,0,0,0,0,0,0,0,0,0,0,0,0,0,0,0,0,0,0,0,0,0,0,0,0,0,0,0,0,0,0,0,0,0,0,0,0,0,0,0,0,0,0,0,0,0,0,0,0,0,0,0,0,0,0,0,0,0,0,0,0,0,0,0,0,0,0,0,0,0,0,0,0,0,0,0,0,0,0,0,0,0,0,0,0,0,0,0,0,0,0,0,0,0,0,0,0,0,0,0,0,0,0,0,0,0,0,0,0,0,0,0,0,0,0,0,0,0,0,0,0,0,0,0,0,0,0,0,0,0,0,0,0,0,0,0,0,0,0,0,0,0,0,0,0,0,0,0,0,0,0,0,0,0,0,0,0,0,0,0,0,0,0,0,0,0
0,0,0,0,0,0,0,0,0,0,0,0,0,0,0,0,0,0,0,0,0,0,0,0,0,0,0,0,0,0,0,0,0,0,0,0,0,0,0,0,0,0,0,0,0,0,0,0,0,0,0,0,0,0,0,0,0,0,0,0,0,0,0,0,0,0,0,0,0,0,0,0,0,0,0,0,0,0,0,0,0,0,0,0,0,0,0,0,0,0,0,0,0,0,0,0,0,0,0,0,0,0,0,0,0,0,0,0,0,0,0,0,0,0,0,0,0,0,0,0,0,0,0,0,0,0,0,0,0,0,0,0,0,0,0,0,0,0,0,0,0,0,0,0,0,0,0,0,0,0,0,0,0,0,0,0,0,0,0,0,0,0,0,0,0,0,0,0,0,0,0,0,0,0,0,0,0,0,0,0,0,0,0,0,0,0,0,0,0,0,0,0,0,0,0,0,0,0,0,0,0,0,0,0,0,0,0,0,0,0,0,0,0,0,0,0,0,0,0,0,0,0,0,0,0,0,0,0,0,0,0,0,0,0,0,0,0,0,0,0,0,0,0,0,0,0,0,0,0,0,0,0,0,0,0,0,0,0,0,0,0,0,0,0,0,0,0,0,0,0,0,0,0,0,0,0,0,0,0,0,0,0,0,0,0,0,0,0,0,0,0,0,0,0,0,0,0,0,0,0,0,0,0,0,0,0,0,0,0,0,0,0,0,0,0,0,0,0,0,0,0,0,0,0,0,0,0,0,0,0,0,0,0,0,0,0,0,0,0,0,0,0,0,0,0,0,0,0,0,0,0,0,0,0,0,0,0,0,0,0,0,0,0,0,0,0,0,0,0,0,0,0,0,0,0,0,0,0,0,0,0,0,0,0,0,0,0,0,0,0,0,0,0,0,0,0,0,0,0,0,0,0,0,0,0,0,0,0,0,0,0,0,0,0,0,0,0,0,0,0,0,0,0,0,0,0,0,0,0,0,0,0,0,0,0,0,0,0,0,0,0,0,0,0,0,0,0,0,0,0,0,0,0,0,0,0,0,0,0,0,0,0,0,0,0,0,0,0,0,0,0,0,0,0,0,0,0,0,0,0,0,0,0,0,0,0,0,0,0,0,0,0,0,0,0,0,0,0,0,0
0,0,0,0,0,0,0,0,0,0,0,0,0,0,0,0,0,0,0,0,0,0,0,0,0,0,0,0,0,0,0,0,0,0,0,0,0,0,0,0,0,0,0,0,0,0,0,0,0,0,0,0,0,0,0,0,0,0,0,0,0,0,0,0,0,0,0,0,0,0,0,0,0,0,0,0,0,0,0,0,0,0,0,0,0,0,0,0,0,0,0,0,0,0,0,0,0,0,0,0,0,0,0,0,0,0,0,0,0,0,0,0,0,0,0,0,0,0,0,0,0,0,0,0,0,0,0,0,0,0,0,0,0,0,0,0,0,0,0,0,0,0,0,0,0,0,0,0,0,0,0,0,0,0,0,0,0,0,0,0,0,0,0,0,0,0,0,0,0,0,0,0,0,0,0,0,0,0,0,0,0,0,0,0,0,0,0,0,0,0,0,0,0,0,0,0,0,0,0,0,0,0,0,0,0,0,0,0,0,0,0,0,0,0,0,0,0,0,0,0,0,0,0,0,0,0,0,0,0,0,0,0,0,0,0,0,0,0,0,0,0,0,0,0,0,0,0,0,0,0,0,0,0,0,0,0,0,0,0,0,0,0,0,0,0,0,0,0,0,0,0,0,0,0,0,0,0,0,0,0,0,0,0,0,0,0,0,0,0,0,0,0,0,0,0,0,0,0,0,0,0,0,0,0,0,0,0,0,0,0,0,0,0,0,0,0,0,0,0,0,0,0,0,0,0,0,0,0,0,0,0,0,0,0,0,0,0,0,0,0,0,0,0,0,0,0,0,0,0,0,0,0,0,0,0,0,0,0,0,0,0,0,0,0,0,0,0,0,0,0,0,0,0,0,0,0,0,0,0,0,0,0,0,0,0,0,0,0,0,0,0,0,0,0,0,0,0,0,0,0,0,0,0,0,0,0,0,0,0,0,0,0,0,0,0,0,0,0,0,0,0,0,0,0,0,0,0,0,0,0,0,0,0,0,0,0,0,0,0,0,0,0,0,0,0,0,0,0,0,0,0,0,0,0,0,0,0,0,0,0,0,0,0,0,0,0,0,0,0,0,0,0,0,0,0,0,0,0,0,0,0,0,0,0,0,0,0,0,0,0,0,0,0,0,0,0,0,0,0,0
0,0,0,0,0,0,0,0,0,0,0,0,0,0,0,0,0,0,0,0,0,0,0,0,0,0,0,0,0,0,0,0,0,0,0,0,0,0,0,0,0,0,0,0,0,0,0,0,0,0,0,0,0,0,0,0,0,0,0,0,0,0,0,0,0,0,0,0,0,0,0,0,0,0,0,0,0,0,0,0,0,0,0,0,0,0,0,0,0,0,0,0,0,0,0,0,0,0,0,0,0,0,0,0,0,0,0,0,0,0,0,0,0,0,0,0,0,0,0,0,0,0,0,0,0,0,0,0,0,0,0,0,0,0,0,0,0,0,0,0,0,0,0,0,0,0,0,0,0,0,0,0,0,0,0,0,0,0,0,0,0,0,0,0,0,0,0,0,0,0,0,0,0,0,0,0,0,0,0,0,0,0,0,0,0,0,0,0,0,0,0,0,0,0,0,0,0,0,0,0,0,0,0,0,0,0,0,0,0,0,0,0,0,0,0,0,0,0,0,0,0,0,0,0,0,0,0,0,0,0,0,0,0,0,0,0,0,0,0,0,0,0,0,0,0,0,0,0,0,0,0,0,0,0,0,0,0,0,0,0,0,0,0,0,0,0,0,0,0,0,0,0,0,0,0,0,0,0,0,0,0,0,0,0,0,0,0,0,0,0,0,0,0,0,0,0,0,0,0,0,0,0,0,0,0,0,0,0,0,0,0,0,0,0,0,0,0,0,0,0,0,0,0,0,0,0,0,0,0,0,0,0,0,0,0,0,0,0,0,0,0,0,0,0,0,0,0,0,0,0,0,0,0,0,0,0,0,0,0,0,0,0,0,0,0,0,0,0,0,0,0,0,0,0,0,0,0,0,0,0,0,0,0,0,0,0,0,0,0,0,0,0,0,0,0,0,0,0,0,0,0,0,0,0,0,0,0,0,0,0,0,0,0,0,0,0,0,0,0,0,0,0,0,0,0,0,0,0,0,0,0,0,0,0,0,0,0,0,0,0,0,0,0,0,0,0,0,0,0,0,0,0,0,0,0,0,0,0,0,0,0,0,0,0,0,0,0,0,0,0,0,0,0,0,0,0,0,0,0,0,0,0,0,0,0,0,0,0,0,0,0,0,0,0,0,0,0,0,0,0
0.6780708,0.33468106,0.23208795,0.26291323,0.24421656,0.57136035,0.44170383,0.19988675,0.53530383,0.13902643,0.3253008,0.48772314,0.69529337,0.41782495,0.35250306,0.2213292,0.53088665,0.51779085,0.5492479,0.37665725,0.4038707,0.18687458,0.3484092,0.3403852,0.3635686,0.41513407,0.07226402,0.45972455,0.21787488,0.21006565,0.4849559,0.54475284,0.3419004,0.3908852,0.20633966,0.58412784,0.448513,0.22922121,0.32427314,0.336288,0.39345485,0.5073392,0.3608868,0.23838909,0.52347416,0.49426067,0.57563514,0.52991515,0.1954658,0.5110575,0.23116435,0.23607989,0.5128463,0.6430257,0.64976865,0.13177706,0.5143726,0.42982444,0.5376313,0.70703447,0.31652448,0.3794606,0.28892225,0.61095244,0.43938482,0.58494496,0.32501876,0.31176087,0.6558791,0.20036915,0.54119766,0.17645933,0.59907943,0.52437836,0.3206603,0.38703084,0.3475594,0.36224312,0.38020623,0.31796622,0.36560676,0.66412765,0.48911166,0.28046498,0.22029325,0.22948346,0.6682082,0.51075625,0.20795189,0.5497678,0.6706846,0.43268558,0.25368258,0.6081232,0.29882565,0.32378915,0.68918425,0.55119604,0.22182563,0.5592819,0.55320024,0.5632515,0.5910348,0.54776704,0.5891795,0.6300591,0.58893704,0.5794351,0.63700145,0.50305194,0.57005185,0.3027314,0.28852573,0.31610796,0.35606167,0.18344365,0.095865145,0.58851606,0.5916701,0.37956664,0.5004093,0.37638038,0.07717249,0.62861377,0.6503284,0.20080216,0.24158065,0.33733317,0.15442267,0.25057775,0.4587927,0.28010166,0.2934949,0.21230932,0.69002664,0.34463564,0.28001258,0.18843797,0.44095033,0.33963814,0.5933941,0.43242112,0.6789787,0.6502532,0.22120728,0.35032296,0.08762118,0.54951304,0.5847833,0.6478066,0.28041518,0.45471117,0.23020256,0.6024197,0.4433576,0.5830017,0.30106732,0.59192955,0.39331612,0.19094686,0.2712062,0.33467168,0.49200532,0.6228786,0.21247207,0.2531619,0.5967081,0.14567813,0.5273571,0.22813945,0.4843865,0.44112396,0.19235218,0.2430286,0.18178627,0.72115177,0.60288835,0.502925,0.69535536,0.3061721,0.42377868,0.57496834,0.3628267,0.17088607,0.13650784,0.62298733,0.48342732,0.09181254,0.6054636,0.13001771,0.5132935,0.3076312,0.12374375,0.47923774,0.16689163,0.33003795,0.4187673,0.23219153,0.1503645,0.51288617,0.68553436,0.23939115,0.45106733,0.6421189,0.37154126,0.31398237,0.42367232,0.5849752,0.44489148,0.39456424,0.59578,0.46498328,0.64974695,0.26400495,0.75761443,0.4104459,0.14428309,0.41018987,0.32075685,0.48804513,0.19914566,0.5707039,0.28266954,0.36101094,0.6368529,0.6105816,0.26640755,0.4578948,0.22370213,0.2775553,0.47515628,0.5602236,0.30941698,0.5965845,0.3798371,0.54505795,0.41296986,0.22242913,0.5738171,0.11462234,0.56054807,0.74149543,0.2824899,0.6183982,0.23734549,0.56707317,0.46328604,0.5559944,0.3776561,0.37051964,0.28187114,0.15643387,0.6867447,0.4286603,0.28210983,0.23968384,0.3195129,0.15048413,0.39560857,0.6091172,0.33956277,0.16575074,0.30507904,0.709091,0.64081305,0.36337852,0.19448447,0.5700354,0.3338723,0.41992065,0.29647687,0.437735,0.663438,0.34357867,0.35363212,0.31091145,0.45198926,0.5234802,0.19424295,0.43248683,0.26965564,0.24325927,0.34322664,0.34800458,0.5317887,0.6877394,0.4269608,0.45476305,0.44411442,0.53886175,0.32165813,0.37470815,0.5537807,0.3454463,0.44802135,0.21309586,0.4309727,0.36374748,0.15865399,0.27399838,0.16632324,0.5656796,0.17981158,0.20070195,0.34526712,0.57284796,0.43928736,0.42628512,0.5152417,0.35993424,0.5982179,0.39675272,0.22886482,0.45863873,0.26428464,0.56118315,0.27831694,0.18385032,0.14262825,0.72876966,0.3427004,0.51371455,0.28221998,0.68775976,0.6622483,0.38770095,0.45451245,0.11096861,0.32586324,0.40003854,0.5152726,0.33563185,0.32814944,0.31154972,0.2101106,0.42229384,0.33795792,0.4514482,0.4221605,0.48311344,0.45614493,0.5430865,0.6105919,0.39512655,0.56604457,0.10922466,0.24275467,0.40759492,0.31605536,0.5414754,0.23689708,0.57178634,0.51040477,0.17757139,0.42253137,0.34701037,0.4376627,0.6073752,0.51389724,0.48365343,0.62903345,0.4839341,0.5129505,0.23529194,0.35893896,0.49419874,0.21429995,0.2502403,0.12729946,0.21707903,0.40375653,0.47912195,0.56425333,0.4783295,0.44462162,0.24101755,0.48266917,0.20956211,0.33797505,0.5071919,0.5616629,0.5736407,0.25200853,0.5430709,0.5601263,0.32536927,0.41758054,0.32171357,0.18015045,0.3263136,0.27980098,0.35683322,0.35760546,0.15443636,0.66135436,0.2778672,0.34215555,0.12084875,0.21567501,0.2540722,0.6445956,0.3246522,0.5678384,0.3947138,0.4539305,0.5283012,0.5406702,0.23195729,0.09582938,0.17330468,0.37262097,0.27434817,0.26415974,0.65315336,0.4784595,0.24838923,0.43692532,0.455989,0.37483513,0.39276645,0.4867899,0.62830377,0.54798615,0.2940428,0.13649595,0.41976765,0.06918941,0.5479645,0.19800834,0.3979125,0.3007649,0.3290516,0.2521582,0.27601033,0.388931,0.046018403,0.24210699,0.566308,0.3854949,0.6728654,0.49942097,0.5357887,0.55348575,0.35812545,0.36936814,0.50471157,0.10503342,0.21650492,0.3077211,0.45081866,0.40433663,0.3387102,0.34285152,0.6590995,0.12796964,0.45861262,0.58538646,0.5286071,0.5053073,0.23249829,0.30964518,0.42729956,0.3253753,0.5232511,0.4402804,0.44741875,0.40830055,0.3118047,0.55971473,0.46840882,0.24004465,0.2695848,0.5782818,0.51160544,0.3055185,0.5151224,0.5192647,0.2212524,0.12634145,0.46065545,0.53272265,0.51405215,0.51760846,0.25098115,0.14558154,0.566234,0.23618902,0.03979654,0.19856367,0.09534528,0.34204286,0.24776742,0.51612514,0.6189,0.32244247,0.3518046,0.19976415,0.7149673,0.38536087,0.39515898
0,0,0,0,0,0,0,0,0,0,0,0,0,0,0,0,0,0,0,0,0,0,0,0,0,0,0,0,0,0,0,0,0,0,0,0,0,0,0,0,0,0,0,0,0,0,0,0,0,0,0,0,0,0,0,0,0,0,0,0,0,0,0,0,0,0,0,0,0,0,0,0,0,0,0,0,0,0,0,0,0,0,0,0,0,0,0,0,0,0,0,0,0,0,0,0,0,0,0,0,0,0,0,0,0,0,0,0,0,0,0,0,0,0,0,0,0,0,0,0,0,0,0,0,0,0,0,0,0,0,0,0,0,0,0,0,0,0,0,0,0,0,0,0,0,0,0,0,0,0,0,0,0,0,0,0,0,0,0,0,0,0,0,0,0,0,0,0,0,0,0,0,0,0,0,0,0,0,0,0,0,0,0,0,0,0,0,0,0,0,0,0,0,0,0,0,0,0,0,0,0,0,0,0,0,0,0,0,0,0,0,0,0,0,0,0,0,0,0,0,0,0,0,0,0,0,0,0,0,0,0,0,0,0,0,0,0,0,0,0,0,0,0,0,0,0,0,0,0,0,0,0,0,0,0,0,0,0,0,0,0,0,0,0,0,0,0,0,0,0,0,0,0,0,0,0,0,0,0,0,0,0,0,0,0,0,0,0,0,0,0,0,0,0,0,0,0,0,0,0,0,0,0,0,0,0,0,0,0,0,0,0,0,0,0,0,0,0,0,0,0,0,0,0,0,0,0,0,0,0,0,0,0,0,0,0,0,0,0,0,0,0,0,0,0,0,0,0,0,0,0,0,0,0,0,0,0,0,0,0,0,0,0,0,0,0,0,0,0,0,0,0,0,0,0,0,0,0,0,0,0,0,0,0,0,0,0,0,0,0,0,0,0,0,0,0,0,0,0,0,0,0,0,0,0,0,0,0,0,0,0,0,0,0,0,0,0,0,0,0,0,0,0,0,0,0,0,0,0,0,0,0,0,0,0,0,0,0,0,0,0,0,0,0,0,0,0,0,0,0,0,0,0,0,0,0,0,0,0,0,0,0,0,0,0,0,0,0,0,0,0,0,0,0,0,0,0,0,0,0,0,0,0,0,0,0,0,0,0,0,0,0,0,0,0,0,0,0,0,0
0,0,0,0,0,0,0,0,0,0,0,0,0,0,0,0,0,0,0,0,0,0,0,0,0,0,0,0,0,0,0,0,0,0,0,0,0,0,0,0,0,0,0,0,0,0,0,0,0,0,0,0,0,0,0,0,0,0,0,0,0,0,0,0,0,0,0,0,0,0,0,0,0,0,0,0,0,0,0,0,0,0,0,0,0,0,0,0,0,0,0,0,0,0,0,0,0,0,0,0,0,0,0,0,0,0,0,0,0,0,0,0,0,0,0,0,0,0,0,0,0,0,0,0,0,0,0,0,0,0,0,0,0,0,0,0,0,0,0,0,0,0,0,0,0,0,0,0,0,0,0,0,0,0,0,0,0,0,0,0,0,0,0,0,0,0,0,0,0,0,0,0,0,0,0,0,0,0,0,0,0,0,0,0,0,0,0,0,0,0,0,0,0,0,0,0,0,0,0,0,0,0,0,0,0,0,0,0,0,0,0,0,0,0,0,0,0,0,0,0,0,0,0,0,0,0,0,0,0,0,0,0,0,0,0,0,0,0,0,0,0,0,0,0,0,0,0,0,0,0,0,0,0,0,0,0,0,0,0,0,0,0,0,0,0,0,0,0,0,0,0,0,0,0,0,0,0,0,0,0,0,0,0,0,0,0,0,0,0,0,0,0,0,0,0,0,0,0,0,0,0,0,0,0,0,0,0,0,0,0,0,0,0,0,0,0,0,0,0,0,0,0,0,0,0,0,0,0,0,0,0,0,0,0,0,0,0,0,0,0,0,0,0,0,0,0,0,0,0,0,0,0,0,0,0,0,0,0,0,0,0,0,0,0,0,0,0,0,0,0,0,0,0,0,0,0,0,0,0,0,0,0,0,0,0,0,0,0,0,0,0,0,0,0,0,0,0,0,0,0,0,0,0,0,0,0,0,0,0,0,0,0,0,0,0,0,0,0,0,0,0,0,0,0,0,0,0,0,0,0,0,0,0,0,0,0,0,0,0,0,0,0,0,0,0,0,0,0,0,0,0,0,0,0,0,0,0,0,0,0,0,0,0,0,0,0,0,0,0,0,0,0,0,0,0,0,0,0,0,0,0,0,0,0,0,0,0,0,0,0,0,0,0,0,0,0,0,0,0,0
0,0,0,0,0,0,0,0,0,0,0,0,0,0,0,0,0,0,0,0,0,0,0,0,0,0,0,0,0,0,0,0,0,0,0,0,0,0,0,0,0,0,0,0,0,0,0,0,0,0,0,0,0,0,0,0,0,0,0,0,0,0,0,0,0,0,0,0,0,0,0,0,0,0,0,0,0,0,0,0,0,0,0,0,0,0,0,0,0,0,0,0,0,0,0,0,0,0,0,0,0,0,0,0,0,0,0,0,0,0,0,0,0,0,0,0,0,0,0,0,0,0,0,0,0,0,0,0,0,0,0,0,0,0,0,0,0,0,0,0,0,0,0,0,0,0,0,0,0,0,0,0,0,0,0,0,0,0,0,0,0,0,0,0,0,0,0,0,0,0,0,0,0,0,0,0,0,0,0,0,0,0,0,0,0,0,0,0,0,0,0,0,0,0,0,0,0,0,0,0,0,0,0,0,0,0,0,0,0,0,0,0,0,0,0,0,0,0,0,0,0,0,0,0,0,0,0,0,0,0,0,0,0,0,0,0,0,0,0,0,0,0,0,0,0,0,0,0,0,0,0,0,0,0,0,0,0,0,0,0,0,0,0,0,0,0,0,0,0,0,0,0,0,0,0,0,0,0,0,0,0,0,0,0,0,0,0,0,0,0,0,0,0,0,0,0,0,0,0,0,0,0,0,0,0,0,0,0,0,0,0,0,0,0,0,0,0,0,0,0,0,0,0,0,0,0,0,0,0,0,0,0,0,0,0,0,0,0,0,0,0,0,0,0,0,0,0,0,0,0,0,0,0,0,0,0,0,0,0,0,0,0,0,0,0,0,0,0,0,0,0,0,0,0,0,0,0,0,0,0,0,0,0,0,0,0,0,0,0,0,0,0,0,0,0,0,0,0,0,0,0,0,0,0,0,0,0,0,0,0,0,0,0,0,0,0,0,0,0,0,0,0,0,0,0,0,0,0,0,0,0,0,0,0,0,0,0,0,0,0,0,0,0,0,0,0,0,0,0,0,0,0,0,0,0,0,0,0,0,0,0,0,0,0,0,0,0,0,0,0,0,0,0,0,0,0,0,0,0,0,0,0,0,0,0,0,0,0,0,0,0,0,0,0,0,0,0,0,0,0
0.27477747,0.2753519,0.21316247,0.5897941,0.5471617,0.4479736,0.34908515,0.2896783,0.3282317,0.6051166,0.2752644,0.5531348,0.5625808,0.5483461,0.106993034,0.6852083,0.3968797,0.6502098,0.37464163,0.5274902,0.61812836,0.44152826,0.26846611,0.54887813,0.42737088,0.2532948,0.49250636,0.1868824,0.32335815,0.489072,0.5469472,0.38111758,0.6104872,0.5649468,0.5489429,0.13833791,0.26339442,0.61603665,0.36711082,0.2845822,0.21810031,0.20817617,0.26498368,0.53803825,0.34947518,0.18847594,0.4343249,0.41192287,0.43997684,0.60167414,0.2424486,0.676322,0.4933984,0.45611638,0.6395099,0.20540585,0.22990718,0.43212053,0.22569658,0.47412577,0.32828557,0.37411714,0.3083257,0.47983113,0.584978,0.4564149,0.59940785,0.5810331,0.47262654,0.48152348,0.46565926,0.28599465,0.18609388,0.6074858,0.53054273,0.37261242,0.5403219,0.53774,0.23830318,0.34287837,0.35090712,0.19722645,0.4094008,0.3211081,0.5647763,0.64709187,0.514876,0.3480589,0.49019635,0.3209985,0.16423796,0.5838107,0.20415542,0.63135487,0.48659343,0.18676282,0.32117876,0.49038288,0.7026151,0.23495448,0.63466763,0.34641454,0.3995437,0.3920116,0.51978505,0.19054471,0.36246333,0.24684854,0.4933002,0.28238815,0.47305194,0.36795127,0.1892616,0.24069169,0.3676049,0.66283756,0.23116606,0.380038,0.24880327,0.30483595,0.3802367,0.37583917,0.52437544,0.21147285,0.64702064,0.3072266,0.46582922,0.33131984,0.521938,0.5401949,0.3169421,0.28433114,0.3008694,0.64375633,0.5120483,0.2587402,0.22743803,0.599472,0.6049379,0.35843426,0.47872457,0.43002918,0.51094353,0.44023836,0.25782907,0.22930773,0.35226884,0.43456614,0.58009136,0.23959161,0.3645791,0.53212065,0.6641824,0.5635447,0.64387536,0.216077,0.340175,0.55535895,0.37908792,0.3454022,0.42624107,0.6173507,0.25441778,0.3356264,0.44936675,0.510541,0.3580584,0.55812186,0.2753735,0.625293,0.6605135,0.5253179,0.5900027,0.5042081,0.22281875,0.6249664,0.19688164,0.37814614,0.18356486,0.5235479,0.26047426,0.6417751,0.3533872,0.55479133,0.43921432,0.42647862,0.21925221,0.35177422,0.66156983,0.2830391,0.3379934,0.2964693,0.29064882,0.34719008,0.35082623,0.34809953,0.53030866,0.5773043,0.6807336,0.69657683,0.39684328,0.19951072,0.1460841,0.3597501,0.44248563,0.34263778,0.4507037,0.2286117,0.6273696,0.21116419,0.32922754,0.27097863,0.30469584,0.51286465,0.6600926,0.55170685,0.50668913,0.25203586,0.21923919,0.27252096,0.4884166,0.454973,0.6062124,0.2776983,0.46732903,0.5324365,0.4176277,0.20028599,0.34938687,0.55672014,0.4312869,0.33617154,0.55065274,0.4313101,0.5115785,0.35848722,0.47943002,0.6097617,0.42898726,0.09535282,0.18959148,0.25451225,0.4632801,0.689018,0.35891822,0.17854038,0.5597024,0.3974355,0.49206495,0.11683652,0.467921,0.56453586,0.55945325,0.55472684,0.1556752,0.5890548,0.6055832,0.40287337,0.35652626,0.37139073,0.5849275,0.3945139,0.32862034,0.29082376,0.51233035,0.380347,0.42610687,0.35319299,0.4631048,0.17560822,0.23873466,0.49752116,0.4683766,0.502633,0.66811293,0.6128905,0.6529764,0.4410597,0.59123254,0.04157692,0.1667243,0.44668296,0.5109425,0.3776023,0.24999365,0.47699186,0.41922316,0.41335982,0.26526898,0.38611495,0.30009195,0.34130368,0.25959015,0.5836406,0.2896054,0.3870604,0.28774327,0.3488634,0.53820556,0.19407742,0.5475367,0.63912797,0.2036408,0.16686514,0.57664585,0.19056644,0.43264866,0.31942075,0.34166595,0.32451186,0.313067,0.3893997,0.52304256,0.47194946,0.36274484,0.49233657,0.20203331,0.25408006,0.44602472,0.2704337,0.2601914,0.34920347,0.1285754,0.5383712,0.5774607,0.3392185,0.48599216,0.61174285,0.42051515,0.22977665,0.3905176,0.43527398,0.574209,0.37128142,0.35137323,0.123622715,0.2683361,0.5809157,0.3621298,0.35703823,0.6312068,0.65370405,0.4228243,0.3559671,0.50786334,0.31547633,0.32005665,0.35879797,0.3075917,0.24565868,0.2713558,0.33412918,0.1534213,0.25444266,0.66836035,0.30189082,0.25606215,0.50856376,0.4755552,0.16211434,0.45383403,0.17891592,0.17407128,0.45650464,0.45005143,0.21102576,0.23931757,0.37337336,0.18840688,0.3029403,0.24543028,0.5518963,0.2608002,0.5100356,0.38516596,0.36954153,0.5784599,0.20728981,0.2688529,0.34527916,0.38663226,0.47958747,0.5583962,0.5413026,0.3152487,0.48711425,0.42868203,0.2437527,0.2236836,0.27033874,0.5063147,0.26348093,0.62753254,0.41959903,0.35474932,0.36201847,0.30521044,0.20766558,0.4758719,0.33050853,0.4629144,0.31705362,0.5823633,0.16426134,0.5850381,0.52291435,0.4605667,0.2768149,0.23765066,0.6028909,0.37248158,0.4768447,0.42660046,0.4570194,0.43983814,0.46527755,0.14499126,0.39370906,0.3575428,0.18165383,0.44127455,0.6403621,0.13875668,0.15414816,0.53690434,0.5470843,0.20963375,0.3140358,0.35415834,0.4057407,0.44631508,0.46009085,0.40282455,0.23809631,0.46431944,0.27015463,0.5447331,0.3237485,0.24102056,0.45688888,0.55851084,0.4640357,0.22040445,0.25778612,0.2767743,0.3416908,0.6188878,0.09528417,0.37413874,0.6009575,0.2921932,0.6076201,0.54478526,0.26376286,0.39644265,0.34083477,0.45857775,0.5165492,0.34339812,0.17438251,0.26400274,0.3015017,0.4922122,0.615395,0.54908305,0.2647166,0.40128303,0.6157139,0.29307917,0.31895494,0.4040037,0.5807418,0.5388556,0.57750726,0.66790116,0.55779165,0.3640921,0.59391576,0.45918056,0.35228276,0.37332508,0.2940735,0.34809566,0.2741886,0.54991597,0.37630978,0.23370077,0.3148829,0.1714489,0.2996931,0.34347045,0.5339561,0.15878509,0.354652,0.4741056,0.20932923,0.6536462,0.38052303,0.34759387,0.5655713
0.57680297,0.34867725,0.64208156,0.32933775,0.24663524,0.51899886,0.2973415,0.41173062,0.251655,0.4448929,0.26655716,0.3627303,0.61856526,0.27824697,0.6608421,0.28632763,0.58969384,0.24237469,0.7066373,0.38610262,0.5231506,0.5583744,0.51824284,0.5807585,0.4610311,0.35288292,0.21912621,0.4074675,0.60342515,0.7471744,0.56504726,0.3504153,0.39380157,0.6929175,0.4736995,0.5266564,0.4070735,0.50083923,0.70273453,0.38161904,0.47150475,0.4558624,0.22588503,0.8094594,0.43120962,0.5689021,0.42901844,0.31925443,0.68090725,0.2797046,0.5604755,0.5213458,0.43770942,0.53284216,0.4693817,0.41299435,0.20203015,0.51235646,0.22923875,0.25785622,0.51225555,0.60381806,0.5691065,0.86827886,0.28889066,0.48212337,0.18714932,0.28029758,0.19615425,0.47410342,0.25194335,0.34153298,0.1395099,0.6774562,0.5635332,0.37215778,0.38159367,0.6790135,0.38343662,0.49101424,0.58208615,0.67243713,0.35099635,0.62121993,0.48430684,0.4430905,0.6826643,0.3768225,0.7831178,0.37285548,0.48665637,0.6513657,0.21335568,0.24305844,0.457068,0.14387468,0.1541982,0.6552477,0.52582264,0.61197454,0.41958964,0.3350538,0.4593833,0.5248032,0.47132462,0.41503674,0.7081401,0.5781501,0.41190168,0.21714392,0.5427625,0.54251367,0.64013195,0.26818654,0.7747471,0.71189374,0.47359803,0.7764917,0.6269844,0.49298793,0.51684785,0.46951413,0.6420725,0.23315857,0.35940024,0.24611951,0.32410735,0.19417419,0.6855608,0.66228396,0.75189865,0.5369805,0.48667166,0.28085896,0.5847958,0.26235557,0.12567087,0.97097594,0.5599997,0.6871911,0.46738645,0.5689567,0.5996086,0.59112585,0.24418882,0.036383703,0.71036816,0.71545655,0.64918256,0.16192073,0.5267486,0.44388524,0.15340693,0.4100198,0.7938951,0.3713906,0.23409162,0.49461865,0.625713,0.2895661,0.55112886,0.5676222,0.22133388,0.49834737,0.44660646,0.48117962,0.4444064,0.5027978,0.6021103,0.5578447,0.58088493,0.5958006,0.558117,0.47022718,0.6007972,0.32392484,0.8169296,0.305321,0.30760807,0.4849022,0.18618822,0.2138995,0.71701384,0.61775494,0.5953832,0.4153334,0.65493923,0.41591153,0.53864527,0.5030678,0.41823277,0.28367227,0.39473203,0.5577075,0.630948,0.21795477,0.2747112,0.45627663,0.6842632,0.60410565,0.25180614,0.536726,0.5545913,0.32039493,0.33436581,0.21661822,0.51561964,0.26201487,0.662375,0.69549894,0.3410681,0.28207296,0.35393813,0.31328693,0.21839206,0.25372872,0.17822711,0.412424,0.40771303,0.34497,0.30706638,0.36621782,0.49973422,0.212811,0.41506568,0.6400515,0.5636289,0.26286668,0.56782323,0.54709923,0.149053,0.5915322,0.24965063,0.4457588,0.48412243,0.4582818,0.4262964,0.39189452,0.3095819,0.29585296,0.6216354,0.20693605,0.7065676,0.78875726,0.58026534,0.4339517,0.36865515,0.40557757,0.2921502,0.5981187,0.31098247,0.4777269,0.5129106,0.53887457,0.4825262,0.6157615,0.7084868,0.63002306,0.14576639,0.3886976,0.40255794,0.48496923,0.51141316,0.40463877,0.32626355,0.19029182,0.36913493,0.30345154,0.01853184,0.64554405,0.40040827,0.4908921,0.22330178,0.34403473,0.6300395,0.7584222,0.5053816,0.17357433,0.41372734,0.41271108,0.47346008,0.582211,0.36461097,0.532732,0.5631758,0.6190087,0.28751752,0.3805913,0.15602632,0.65649784,0.5362886,0.2377699,0.16989197,0.5307258,0.46704745,0.1596526,0.5922489,0.6694554,0.2727455,0.35604897,0.18193841,0.33218947,0.2473469,0.6281536,0.67011094,0.37193847,0.1986415,0.37175792,0.32298654,0.36255306,0.8069795,0.20535299,0.5955607,0.2890209,0.81744236,0.4760666,0.25783303,0.5108552,0.46229216,0.2721382,0.4162318,0.3085148,0.6771827,0.6598472,0.5273153,0.2246652,0.68368345,0.52255917,0.35195306,0.6968809,0.67110145,0.6871851,0.15612836,0.11730069,0.5585546,0.4748562,0.308566,0.6031097,0.30286315,0.4541112,0.21287404,0.45731714,0.33083266,0.27462843,0.46485418,0.323564,0.618188,0.23060527,0.71424615,0.5595982,0.46518672,0.5447942,0.50055575,0.44915807,0.3811973,0.7150362,0.4816956,0.54993856,0.650649,0.58377916,0.14115424,0.45452732,0.46164465,0.66744095,0.23395662,0.62075526,0.3933095,0.52905864,0.6066374,0.3403139,0.2157662,0.4541567,0.65191406,0.12459911,0.72334164,0.5155276,0.3440069,0.39933848,0.44459054,0.46532857,0.38930792,0.7402948,0.28131288,0.41423157,0.64069027,0.57214653,0.5928854,0.42635417,0.08499461,0.34665546,0.37045076,0.5490907,0.3906372,0.34392256,0.5334583,0.520379,0.33623448,0.32413167,0.49207875,0.7410711,0.17126252,0.5562269,0.6630139,0.2775026,0.49879235,0.6857832,0.5264145,0.5124287,0.44481862,0.14208834,0.42452106,0.5873671,0.70995164,0.5852097,0.39166,0.41465396,0.14110029,0.19148467,0.5745974,0.5470799,0.6450048,0.4468152,0.568384,0.21254037,0.4645963,0.41236737,0.19897154,0.34096575,0.46658686,0.21558362,0.41202772,0.6368131,0.23551384,0.27559653,0.5908165,0.16541953,0.5110161,0.15776922,0.6326825,0.5535132,0.72914094,0.31735107,0.516388,0.43293762,0.57175475,0.49994,0.30016407,0.5119953,0.8113298,0.25457942,0.6209473,0.20592387,0.74138445,0.27418777,0.33678594,0.55892515,0.67491657,0.4012043,0.5470919,0.50859237,0.59211606,0.5912711,0.23399156,0.6663918,0.27602154,0.34910053,0.5394918,0.5332448,0.35819757,0.32428178,0.71949244,0.7132384,0.4540267,0.33957347,0.15203829,0.49386194,0.54180014,0.7358244,0.23083723,0.32206312,0.4109524,0.5251045,0.5861299,0.25556988,0.3040385,0.30267596,0.62937903,0.22941862,0.36006147,0.77761775,0.7676439,0.5776215,0.48197043,0.21892804,0.2409334,0.63061637,0.7408627,0.45816824,0.22503707,0.33648857
0.67700124,0.5415335,0.71856385,0.50255555,0.84080666,0.97860974,0.8792081,0.7062614,0.7193439,0.6994231,0.56309205,0.7031521,0.8528672,0.6269401,0.3828653,0.80892086,0.47315273,0.6565703,0.9019454,0.55140376,0.5648908,0.79588336,0.40196386,0.7963666,0.51126176,0.4866781,0.8515907,0.6563672,0.655017,0.5336481,0.39024374,0.35643542,0.43507665,0.5236364,0.42682576,0.86654025,0.70525795,0.51787907,0.8723161,0.59667176,0.54923934,0.5285019,0.31768218,0.39457208,0.5930579,0.43524653,0.67212516,0.82172704,0.5697285,0.5834133,0.6929072,0.7515787,0.77876675,0.46726987,0.65539676,0.73739415,0.58125925,0.848467,0.8340094,0.5446935,0.47387567,0.7857689,0.7491599,0.4542502,0.30041724,0.7774572,0.677752,0.6120759,0.8134461,0.53742987,0.46834594,0.5497855,0.75613904,0.90350115,0.6015397,0.4541179,0.63656145,0.87792933,0.86336684,0.4381971,0.54374754,0.57676387,0.62558013,0.41896355,0.42191705,0.76116365,0.5009751,0.60087824,0.9181639,0.83429325,0.46821284,0.49576032,0.7241168,0.43908554,0.95445675,0.5524643,0.55027866,0.5927937,0.6759377,0.51446974,0.76360804,0.54506665,0.8174179,0.5105383,0.5975821,0.7395212,0.8527693,0.37088835,0.71748763,0.353309,0.6962169,0.6310164,0.94048727,0.6209967,0.82119656,0.6801157,0.815308,0.8386483,0.31448245,0.71851707,0.4799771,0.8166652,0.852169,0.57943237,0.8923809,0.3668434,0.8536256,0.81897444,0.78945875,0.83466893,0.90499383,0.48111978,0.80666447,0.59763557,0.5252916,0.61255044,0.5318671,0.40651038,0.44928816,0.6454491,0.46655068,0.4323968,0.35261413,0.6366933,0.6548535,0.846429,0.9023328,0.4602563,0.650816,0.7164272,0.8827149,0.83283025,0.4428169,0.46036392,0.48475435,0.40677875,0.7418202,0.3740765,0.4752599,0.7503194,0.3108744,0.53686124,0.5149028,0.7042208,0.70429045,0.64306647,0.33592698,0.5679713,0.50238115,0.5910343,0.7574558,0.5717819,0.6621601,0.41169938,0.5695959,0.5740135,0.81097627,0.3389419,0.5913213,0.63146156,0.76812243,0.5369709,0.5480329,0.43872964,0.6535452,0.74775547,0.77700347,0.79943603,0.7199253,0.2746341,0.9352573,0.6520288,0.33863574,0.6129298,0.45029563,0.79564214,0.60522383,0.9651433,0.8637959,0.93442476,0.7516692,0.49992657,0.80776554,0.6447327,0.59636104,0.783377,0.7392247,0.2723141,0.7112911,0.7944727,0.6109312,0.48031223,0.85499954,0.59620374,0.65540946,0.67777157,0.69798243,0.5264428,0.30960053,0.5923347,0.6851931,0.8670987,0.5459816,0.9561691,0.67602056,0.58290154,0.5444437,0.6357599,0.87145096,0.5457243,0.57944185,0.5803626,0.7085453,0.41951084,0.4970842,0.8480373,0.5211542,0.59603596,0.4305792,0.6553963,0.4065691,0.91869044,0.72792107,0.7205922,0.93296915,0.79128736,0.53214395,0.75565505,0.54157794,0.703942,0.6370489,0.74139327,0.6642195,0.6835148,0.5537877,0.73813957,0.5952485,0.37047687,0.5013949,0.2804081,0.4211099,0.55999845,0.4842283,0.7678886,0.33691412,0.4974182,0.626023,0.40092805,0.73152834,0.5621229,0.38085517,0.84854835,0.46504787,0.8296172,0.83883977,0.39084423,0.64186954,0.59754616,0.60269254,0.9228395,0.6526544,0.58822674,0.6345464,0.44114545,0.60382545,0.72470456,0.46596053,0.41087845,0.60959363,0.5230251,0.6367209,0.8099568,0.7035439,0.5020314,0.51500124,0.6009481,0.6011967,0.41796783,0.37806976,0.58259284,0.75804126,0.78880197,0.48866984,0.41533586,0.32379693,0.9867917,0.5341142,0.62571627,0.59537,0.40121245,0.801488,0.50499254,0.9454061,0.5436926,0.69097805,0.40614963,0.8050745,0.8134713,0.496541,0.63006973,0.49255627,0.78926337,0.5536543,0.34897587,0.6086855,0.7763041,0.51648116,0.5235803,0.723082,0.3979066,0.5833027,0.6753403,0.8001573,0.7311692,0.73715705,0.48241407,0.93128073,0.7906182,0.45333084,0.5435339,0.778352,0.37426814,0.5951288,0.7576155,0.6999745,0.5342843,0.38018197,0.6654283,0.6742069,0.57817245,0.80227256,0.75936955,0.45158613,0.6294583,0.6266729,0.7752622,0.80029327,0.79345274,0.78190386,0.62984526,0.69264305,0.28894833,0.50941956,0.66259813,0.32948744,0.35779017,0.3837035,0.6774445,0.7155105,0.5931723,0.3804143,0.32037863,0.6644887,0.6656891,0.4846498,0.649247,0.44921464,0.6205922,0.5685624,0.41648272,0.712214,0.62624556,0.28357914,0.41546765,0.32865036,0.7374764,0.6018182,0.6903712,0.6484815,0.6179267,0.33914798,0.5341708,0.7892517,0.81841826,0.583203,0.80415267,0.40609628,0.79357815,0.59963185,0.8680937,0.8672383,0.71115035,0.6325391,0.84928304,0.5245931,0.50357944,0.8619822,0.6568784,0.7190029,0.4122122,0.83898634,0.45764452,0.72248924,0.4035296,0.7479541,0.8240319,0.3573044,0.62680143,0.30005646,0.82269406,0.5769551,0.5823003,0.6756809,0.38928133,0.692825,0.64493155,0.47288913,0.43716615,0.4251404,0.5815841,0.6792072,0.7781266,0.3385052,0.46060485,0.615338,0.7149582,0.39338714,0.6059129,0.5704884,0.7407133,0.7631055,0.56628096,0.7408213,0.6370437,0.4490965,0.63643056,0.6844584,0.41568595,0.6607615,0.7343352,0.7008678,0.72746176,0.6352315,0.45735586,0.68381286,0.5019467,0.34205344,0.6492294,0.6932135,0.87585026,0.7540245,0.53892493,0.6182702,0.80146646,0.61217624,0.82843906,0.8472056,0.6315586,0.4722023,0.537399,0.6916895,0.45628074,0.8101837,0.8067226,0.5180298,0.4247248,0.80432963,0.3920842,0.75841355,0.5335441,0.51891625,0.7594271,0.74085486,0.92584413,0.6467926,0.6882161,0.4998612,0.7296459,0.5128411,0.7699569,0.86662287,0.7611291,0.76280063,0.5965355,0.59107614,0.4769083,0.5283639,0.67168933,0.6174696,0.94523233
0,0,0,0,0,0,0,0,0,0,0,0,0,0,0,0,0,0,0,0,0,0,0,0,0,0,0,0,0,0,0,0,0,0,0,0,0,0,0,0,0,0,0,0,0,0,0,0,0,0,0,0,0,0,0,0,0,0,0,0,0,0,0,0,0,0,0,0,0,0,0,0,0,0,0,0,0,0,0,0,0,0,0,0,0,0,0,0,0,0,0,0,0,0,0,0,0,0,0,0,0,0,0,0,0,0,0,0,0,0,0,0,0,0,0,0,0,0,0,0,0,0,0,0,0,0,0,0,0,0,0,0,0,0,0,0,0,0,0,0,0,0,0,0,0,0,0,0,0,0,0,0,0,0,0,0,0,0,0,0,0,0,0,0,0,0,0,0,0,0,0,0,0,0,0,0,0,0,0,0,0,0,0,0,0,0,0,0,0,0,0,0,0,0,0,0,0,0,0,0,0,0,0,0,0,0,0,0,0,0,0,0,0,0,0,0,0,0,0,0,0,0,0,0,0,0,0,0,0,0,0,0,0,0,0,0,0,0,0,0,0,0,0,0,0,0,0,0,0,0,0,0,0,0,0,0,0,0,0,0,0,0,0,0,0,0,0,0,0,0,0,0,0,0,0,0,0,0,0,0,0,0,0,0,0,0,0,0,0,0,0,0,0,0,0,0,0,0,0,0,0,0,0,0,0,0,0,0,0,0,0,0,0,0,0,0,0,0,0,0,0,0,0,0,0,0,0,0,0,0,0,0,0,0,0,0,0,0,0,0,0,0,0,0,0,0,0,0,0,0,0,0,0,0,0,0,0,0,0,0,0,0,0,0,0,0,0,0,0,0,0,0,0,0,0,0,0,0,0,0,0,0,0,0,0,0,0,0,0,0,0,0,0,0,0,0,0,0,0,0,0,0,0,0,0,0,0,0,0,0,0,0,0,0,0,0,0,0,0,0,0,0,0,0,0,0,0,0,0,0,0,0,0,0,0,0,0,0,0,0,0,0,0,0,0,0,0,0,0,0,0,0,0,0,0,0,0,0,0,0,0,0,0,0,0,0,0,0,0,0,0,0,0,0,0,0,0,0,0,0,0,0,0,0,0,0,0,0,0,0,0,0,0,0,0,0,0,0,0,0
0.71060914,0.412797,0.5179418,0.29211792,0.814665,0.36549398,0.54861164,0.7414942,0.7538487,0.47827742,0.7129868,0.65854007,0.25165895,0.39769223,0.5276049,0.57209283,0.5159956,0.7246936,0.41081396,0.6567395,0.85610926,0.60899514,0.37466416,0.41504002,0.57140803,0.29771328,0.7064563,0.42710182,0.67758244,0.45035282,0.47328728,0.45216143,0.58924663,0.23764925,0.8457191,0.7526525,0.4725086,0.57719237,0.4983627,0.5581724,0.76878434,0.6173977,0.57471085,0.6005065,0.61865425,0.405245,0.35348096,0.3023217,0.78444433,0.5107036,0.44915065,0.1935504,0.38673416,0.318698,0.62480444,0.43307018,0.39552087,0.34252858,0.5652727,0.53602004,0.57273936,0.26473856,0.4831305,0.51102376,0.7851194,0.6187127,0.48152325,0.62880194,0.30565274,0.49087605,0.6839001,0.7365701,0.56559384,0.3251912,0.41063717,0.5337526,0.48326528,0.6227743,0.2511879,0.8152859,0.349392,0.4815067,0.5010983,0.6966228,0.4898652,0.37484574,0.38236263,0.7600835,0.77028006,0.7210512,0.59524924,0.65432435,0.5330459,0.60944295,0.6317608,0.87853014,0.48912355,0.72344804,0.79058516,0.5285223,0.551942,0.39044943,0.4537596,0.8174093,0.6018495,0.74131733,0.3796403,0.80803937,0.84604543,0.5636335,0.90474826,0.356575,0.31596988,0.73329806,0.43284962,0.36143315,0.37738606,0.81034684,0.6145689,0.42891994,0.5413804,0.35762122,0.80116856,0.24222277,0.7923969,0.59070116,0.7752164,0.4974446,0.6505563,0.55491143,0.67241377,0.54819465,0.463092,0.8036106,0.32556707,0.48067534,0.5401446,0.5418089,0.44089225,0.7859362,0.7044646,0.46402496,0.66881406,0.52491343,0.46624258,0.33537012,0.2620077,0.3490971,0.360774,0.3958606,0.60752374,0.21791244,0.36139706,0.7269518,0.51505554,0.42592537,0.59184974,0.59048146,0.69478554,0.2748305,0.471421,0.56865835,0.46295702,0.59804934,0.7172952,0.6462367,0.31064624,0.3584075,0.63921803,0.5015709,0.6671733,0.6301902,0.50878906,0.38426358,0.5128313,0.36887133,0.37410903,0.62418514,0.4920026,0.38549867,0.8642515,0.55041355,0.6297013,0.7516881,0.82505435,0.41810548,0.31871718,0.3081535,0.45265996,0.5076386,0.511685,0.17120437,0.42164078,0.5796913,0.45597756,0.41283265,0.64305735,0.42246318,0.57051986,0.829391,0.41981852,0.6954719,0.47929153,0.62864065,0.84309494,0.23019,0.8125357,0.6240905,0.21298753,0.64933586,0.7968435,0.85029906,0.73100615,0.5690659,0.3726123,0.3661667,0.7203466,0.7023321,0.53178126,0.3286046,0.52966046,0.55216724,0.5673132,0.47639987,0.70139474,0.45811984,0.7648713,0.7501661,0.6510168,0.60654575,0.5270623,0.22576584,0.6365569,0.574026,0.4736711,0.7529287,0.6266104,0.33349037,0.39335778,0.6939718,0.51079154,0.5251687,0.74465156,0.645724,0.6815671,0.5701291,0.799769,0.5726981,0.60595036,0.71146417,0.5496859,0.6445823,0.7429702,0.39090756,0.31821963,0.3529544,0.7884587,0.2641323,0.35831475,0.7654163,0.7144655,0.4143307,0.45984653,0.6464129,0.5028815,0.57210577,0.49508426,0.39558095,0.6597712,0.4154095,0.67139226,0.7087633,0.6253304,0.41507748,0.55265135,0.29142725,0.64977664,0.24687165,0.23376498,0.45421714,0.37299114,0.45170063,0.8040039,0.23548084,0.6542665,0.5858301,0.6501616,0.54106826,0.27058956,0.5077033,0.39885497,0.6684825,0.43445167,0.79580367,0.2699351,0.64613664,0.5891274,0.47165978,0.63186055,0.75104713,0.27607065,0.47181383,0.49187243,0.6167159,0.40974438,0.2449116,0.298526,0.38276553,0.53116316,0.49529007,0.42100984,0.81544363,0.8222104,0.37559602,0.33186367,0.4284678,0.5119488,0.35323682,0.41677505,0.8114507,0.5792403,0.5796164,0.59038115,0.30831984,0.19188505,0.71019906,0.510314,0.3819547,0.4578602,0.5252294,0.4359653,0.51511455,0.64289635,0.7407582,0.8263202,0.64529175,0.28001088,0.3410161,0.40964672,0.83728844,0.4124619,0.45851278,0.521377,0.58821744,0.36934152,0.5197464,0.6469688,0.54216725,0.41700965,0.5427298,0.79947716,0.7022726,0.7985848,0.36613694,0.8283566,0.5139407,0.32931596,0.7873173,0.5111241,0.671192,0.5964248,0.6942687,0.59217227,0.2984415,0.6650604,0.6178442,0.6242427,0.6616854,0.6016511,0.58102584,0.6573309,0.78233373,0.4597716,0.30675822,0.409414,0.29273853,0.36699793,0.5609435,0.6911431,0.7164559,0.7869221,0.66458404,0.25213805,0.34377098,0.5976458,0.6357584,0.6751641,0.6341034,0.423506,0.6443254,0.665079,0.45027763,0.7241726,0.32933295,0.83555335,0.62592304,0.49531373,0.31380552,0.4983885,0.5680394,0.667429,0.34658098,0.3046206,0.30877253,0.35128167,0.50185126,0.40486285,0.33733618,0.54192436,0.3942255,0.6851243,0.3573704,0.4754128,0.7041689,0.8716112,0.7595449,0.48885337,0.5332876,0.73519,0.68463796,0.49701455,0.7277167,0.65514874,0.7445513,0.66697466,0.5877413,0.50912863,0.7968975,0.76711977,0.3859335,0.6420845,0.45381522,0.88292587,0.6678159,0.5800904,0.7271102,0.68075323,0.74937207,0.44064325,0.5229242,0.5492046,0.61105627,0.40636727,0.4699461,0.6845778,0.56376505,0.33322483,0.45716596,0.6114935,0.5967805,0.6206106,0.6539107,0.39138213,0.78740704,0.28075096,0.25178763,0.48712748,0.6603692,0.40610415,0.45758542,0.36393523,0.57011896,0.28742692,0.37279698,0.67940426,0.72727907,0.4118649,0.5245408,0.5776465,0.3473743,0.30631676,0.45565093,0.5247264,0.62205184,0.6786917,0.37376603,0.61609614,0.8680002,0.65641034,0.7422184,0.5424632,0.42712224,0.6408063,0.5862983,0.41133478,0.5096222,0.629946,0.71274483,0.79750025,0.4160354,0.4553082,0.32244304,0.35055763,0.8705152,0.6107122,0.78369015,0.65973306,0.6867217,0.75780356,0.66942805
