0,1,2,3,4,5,6,7,8,9,10,11,12,13,14,15,16,17,18,19,20,21,22,23,24,25,26,27,28,29,30,31,32,33,34,35,36,37,38,39,40,41,42,43,44,45,46,47,48,49,50,51,52,53,54,55,56,57,58,59,60,61,62,63,64,65,66,67,68,69,70,71,72,73,74,75,76,77,78,79,80,81,82,83,84,85,86,87,88,89,90,91,92,93,94,95,96,97,98,99,100,101,102,103,104,105,106,107,108,109,110,111,112,113,114,115,116,117,118,119,120,121,122,123,124,125,126,127,128,129,130,131,132,133,134,135,136,137,138,139,140,141,142,143,144,145,146,147,148,149,150,151,152,153,154,155,156,157,158,159,160,161,162,163,164,165,166,167,168,169,170,171,172,173,174,175,176,177,178,179,180,181,182,183,184,185,186,187,188,189,190,191,192,193,194,195,196,197,198,199,200,201,202,203,204,205,206,207,208,209,210,211,212,213,214,215,216,217,218,219,220,221,222,223,224,225,226,227,228,229,230,231,232,233,234,235,236,237,238,239,240,241,242,243,244,245,246,247,248,249,250,251,252,253,254,255,256,257,258,259,260,261,262,263,264,265,266,267,268,269,270,271,272,273,274,275,276,277,278,279,280,281,282,283,284,285,286,287,288,289,290,291,292,293,294,295,296,297,298,299,300,301,302,303,304,305,306,307,308,309,310,311,312,313,314,315,316,317,318,319,320,321,322,323,324,325,326,327,328,329,330,331,332,333,334,335,336,337,338,339,340,341,342,343,344,345,346,347,348,349,350,351,352,353,354,355,356,357,358,359,360,361,362,363,364,365,366,367,368,369,370,371,372,373,374,375,376,377,378,379,380,381,382,383,384,385,386,387,388,389,390,391,392,393,394,395,396,397,398,399,400,401,402,403,404,405,406,407,408,409,410,411,412,413,414,415,416,417,418,419,420,421,422,423,424,425,426,427,428,429,430,431,432,433,434,435,436,437,438,439,440,441,442,443,444,445,446,447,448,449,450,451,452,453,454,455,456,457,458,459,460,461,462,463,464,465,466,467,468,469,470,471,472,473,474,475,476,477,478,479,480,481,482,483,484,485,486,487,488,489,490,491,492,493,494,495,496,497,498,499
0.52653986,-0.22905947,0.36950874,0.5159313,0.41177958,-1.0569565,1.1255441,0.04365814,0.27718902,-0.6399824,-0.52333176,-0.90891683,-0.44891718,-0.2276776,-0.28339076,-1.0256584,-0.7234289,-0.72776103,0.3906962,0.29666963,-0.18202578,0.106036074,-0.55030507,-1.0238048,0.21290644,-0.25476933,0.12534896,-0.36196873,-0.21312106,-0.40076822,-0.58376426,-0.7944001,0.17956719,0.8349484,-0.57154036,-0.06698244,-0.1990928,0.48393014,0.73800176,0.36076003,-0.21660674,0.85030216,0.9710954,0.6018241,-0.5013921,-0.4020198,-1.0504458,0.29281804,0.23691414,0.15881391,-0.07022334,-0.16858001,-0.66334885,-0.03951735,0.37061444,0.8494655,-0.057804678,0.6934761,0.17372741,-0.5072859,0.21266314,0.13715011,-0.5565313,0.9922046,-0.44082695,0.08793239,-0.46960613,-0.18993174,-0.84573764,0.7892939,-0.31170893,0.09624159,0.058628812,-0.5712292,0.34634474,-0.5311939,-0.09450549,0.551968,0.46402568,-0.29954445,-0.25206572,-0.71630645,-0.48081404,-0.3489126,-0.1291085,-0.008399554,-0.41240993,-0.5623625,0.44439906,-0.01756746,-0.4638928,-0.76582325,-0.97153324,-0.52208364,-0.5179693,0.17538573,0.19499391,-0.25512275,0.6233059,0.4580817,-0.98445445,0.70506823,0.063509695,-1.0791149,0.58692867,-0.33405873,-1.0679013,0.118097454,-1.2287629,0.7804644,-1.229143,-1.2495651,-0.17931648,0.32866183,-0.28500965,-1.1935201,-0.6171554,0.7212829,-0.6967806,-0.56671077,0.76659375,-0.3017212,-0.3075404,-0.60005003,-0.1296118,0.72251534,-0.68864816,-0.43656996,-0.7673914,-0.5553723,0.13290906,0.29325968,-0.9081596,0.83776253,0.5808686,0.1743455,-0.06828146,0.5089308,-0.93372965,0.8954171,-0.7108895,0.31347752,-0.9298985,-0.22487752,-0.012194491,0.12347143,0.52015257,-0.49334958,0.45602506,-0.9521281,0.7499042,0.27343044,-0.22991192,-0.17700262,-0.071926266,-0.3091209,-0.37864584,-0.6082336,-0.8822599,-0.45009783,0.6633696,-1.1275177,-0.09016372,0.6715665,0.88043,0.23157488,0.5562321,0.5655434,-0.38737133,0.29128587,0.33711058,-0.66476274,-0.2717201,-0.29648593,0.31862998,0.9454904,0.43831444,0.5292637,-0.16883521,0.21407214,-0.50210035,-0.08408196,-0.6992711,0.3387071,-1.3567241,0.52786624,-0.7177635,-0.07390388,-0.62736833,0.54952097,-0.9265278,0.6736859,0.4337508,-0.31706867,0.8532953,-0.69726866,0.48028395,0.34456688,0.33467576,-0.81633985,0.16079679,0.116245694,-0.12946878,0.5581293,-0.8926295,-1.1615846,-0.07865266,0.24434641,0.44758722,-0.41638958,0.69094306,-1.0377189,-1.205624,0.13907665,-1.1168888,0.041916598,0.15438744,-0.82439363,-0.6938439,-0.45869806,-0.28733248,-0.8278009,-0.7793075,0.061055493,0.60664797,-0.5297782,-0.47945896,0.0654337,0.9655008,0.193854,-0.28570783,-0.8450909,0.15948595,-0.6580324,-1.3425013,-0.41657317,0.3259688,0.68395376,0.18209645,-0.609993,0.37792924,-0.49593446,-1.042338,-0.05698004,0.14875485,0.03539675,0.9084409,-0.053197473,-1.4971166,-0.8887106,0.5018711,-0.11951811,0.42069274,0.67546064,-0.43543556,-0.04239857,-0.52794725,-0.59876114,0.5341651,0.5865781,0.7855708,-0.3131001,-0.2639427,0.5097041,0.32277453,1.1000459,0.4086256,-0.69208735,0.3486748,0.74375975,0.6303359,-0.7932308,-1.2977307,-0.43088186,-0.44734666,0.085920885,0.5262678,-0.4914854,-0.03102239,-1.0166556,1.0509804,-0.110074505,0.6416103,0.000659039,1.0233234,-0.22192347,-0.71248645,-0.13149099,0.26212436,-0.31325212,-0.9109127,0.020676183,-0.101660915,-1.1044289,0.52245414,-0.59099376,-0.20890844,-0.43196097,0.38407624,-0.9245629,-0.048760198,-0.45638865,0.6951717,0.7452848,-0.10693147,-0.39956105,0.41609418,0.5103787,-0.30980477,-1.0464951,0.8949092,0.060039055,0.32043225,0.35882908,0.27535278,-0.5396122,-0.5602856,-0.71569335,-0.027324429,-0.87164456,0.26522493,-0.74843174,-0.34050635,-1.110855,-0.7448092,-0.2736021,0.46573955,0.5341357,0.22081195,-0.06426667,-1.134232,-0.003830158,-0.6391277,0.16930197,-0.6110521,-1.274496,0.107753135,-0.28748792,0.591753,-1.0399445,-0.061376777,0.46993697,-0.30999985,0.60743874,0.114455916,0.58936346,-0.60104954,0.5925721,0.2433174,-0.73495007,-1.1162161,0.5462534,0.3038058,-1.0996494,-0.30444735,-0.56525594,-0.14362329,-1.2336633,0.6406875,-0.10935948,0.078388505,-0.5324903,0.6884189,-0.44000325,-0.4986565,0.41412976,0.05141661,-0.26132622,-0.5332221,-0.6779663,-0.3849464,1.0592164,-0.8864094,-0.32174623,0.3162152,0.56143194,0.18411684,-1.2144344,-0.72426605,-0.05904331,0.19355367,0.05971372,0.12750928,0.6767431,0.034751616,-1.4195043,0.27147582,-1.130126,-0.053838484,0.4731635,-0.4897803,0.82284725,0.5231084,0.038342666,-0.29581583,0.07940413,0.4816287,-1.331206,0.029239187,-0.5300369,-0.9630366,0.21158193,-1.3115904,-0.061139002,-1.1148211,-0.21251449,-0.2845428,0.5086596,-0.52964604,-0.121095225,-0.30946255,-0.15193993,-0.3280307,-0.9212107,-0.91388416,-0.84646875,0.957059,-0.1930136,-1.1997935,0.36204228,0.48304784,0.24662651,-0.16923736,-0.7442979,-0.3207357,0.33506152,-0.2815114,-0.667094,0.21521227,-1.3300779,0.053945284,-0.27550617,0.19157675,-0.7336524,-0.4598259,-0.86253613,0.3346592,-0.3993653,-0.6599351,-0.35961658,0.23290068,0.63697803,0.15935192,-0.7990981,0.2765197,0.69668263,-0.2207928,-0.2585452,-0.31320915,-1.3432506,0.03621141,0.36893675,0.4829853,-0.6389691,-0.8156515,0.14031926,0.15309912,-0.50594425,0.21981926,0.17961445,-0.29115912,1.0261961,-0.6841388,-1.0701436,0.010145875,-1.2775362,-0.03391268,-0.6281166,0.00605124,0.7003402,-0.26009938,-0.9419389,0.025689138,-0.3927943,-0.6064768,-0.7607233,-0.15276034,-0.5600241,0.014243271,-0.42974165,-1.3028545,0.09591536,-0.78285325,-0.35506886,-1.2757344,-0.51287377,-0.38916415,-0.27011636,-0.5957951,0.91527975,-0.58424944,-0.019319113,0.7242708,-0.08207003,-0.20493445,0.12493355,-0.10621739,-0.89346737,0.16900977,0.3595831
1.051311,1.2901564,-0.32433572,0.96972406,1.4860243,0.8314786,0.6963305,0.2657784,0.49459878,0.7418247,-0.22774659,0.30414164,0.72836965,-0.001753686,0.5979696,0.21612473,0.5898883,0.08921824,0.029636336,0.46637022,0.9276984,1.1933976,0.83650357,0.7899121,0.83276683,0.9405985,0.42789072,0.41179895,0.30713788,0.71408343,1.0005081,0.6267593,0.20934418,-0.3008674,0.6008388,1.5247958,0.76769096,0.6414642,1.179702,0.15783286,1.0700994,0.6447887,0.6653343,0.60443753,0.86656076,1.4473712,0.08722066,1.6653984,0.43520218,1.025102,0.7743913,1.0573667,0.75961393,0.9251654,1.3800931,-0.000502228,1.4899276,0.62495995,0.94322646,0.438429,1.1624271,0.037901007,0.8077377,-0.45272973,0.61041796,0.20986296,0.33703294,0.37696883,0.25787517,0.5135688,1.1746243,1.2837483,1.2366678,0.7003526,1.4799135,0.79021925,-0.002004741,0.40874603,0.40252203,1.42684,0.5512637,1.4732517,1.0312563,0.38484016,0.89639646,0.085813634,1.4148858,0.2936608,0.67353463,0.6804564,1.038561,0.34612286,1.0673102,1.4705062,0.88835377,0.8777049,0.110732615,0.6958957,0.47347102,0.26549807,0.54728615,1.5134697,1.328231,0.74204487,-0.33942848,1.0223641,1.0763824,0.18607713,0.69036657,0.18889017,0.9122807,1.0202174,0.7795593,1.3086003,0.672361,1.6576439,0.6215663,0.837143,0.9216365,1.2154335,1.1326082,-0.23096146,0.26531187,0.11091825,0.4686419,1.2063515,0.22437425,0.16753346,0.9506163,0.6986525,1.0994494,0.6459339,0.5286748,0.073900275,-0.32601425,0.5305868,0.095284775,0.15413313,0.69789803,0.91511256,0.7021853,0.8996104,0.5746674,0.7434361,-0.19246224,1.0213076,0.5735424,0.43779278,0.61164373,0.12368407,0.79153925,0.42336437,-0.17699164,0.1039875,1.0059909,1.0816914,1.1941159,0.693114,1.0020946,0.8015577,0.4151737,1.4349772,1.3045738,0.38870683,0.5036457,0.94882506,0.17087515,-0.12557775,0.6285651,1.2311866,0.50087523,1.5786121,-0.13214627,0.33441547,0.5383629,0.344138,0.28994477,1.0592936,1.2857966,0.6191866,0.5280526,-0.06647722,0.5873716,0.8926986,0.2869782,0.5837945,0.86560076,0.59445906,1.0095724,0.741031,0.15764289,-0.2201683,0.23727627,-0.26073712,0.7503999,0.85857606,0.31813654,0.8710293,0.5280124,0.58424157,1.2278123,0.61176115,0.4246214,-0.17311662,0.74523747,0.55211365,0.2430214,1.3113061,0.8695346,0.47209913,1.2645255,1.0036889,0.62446326,-0.31370345,0.44392875,0.10514445,0.7971048,0.4109251,1.0258069,0.56629586,0.5672576,0.6743358,0.99240136,0.4580952,0.20578164,-0.22272882,0.9914137,0.79866844,0.4608065,1.0234293,0.48359144,0.50784266,-0.10454382,0.33237296,0.8502929,0.5569437,1.1822851,0.44151142,0.7743616,0.039637376,0.47591645,0.6886108,-0.22706042,0.6076366,0.751431,-0.07742391,0.88282335,1.7058164,0.60356176,0.8312121,0.17465545,1.1304412,0.19776066,0.11939061,0.5773483,0.5345671,0.5820411,0.74303395,0.96238035,1.087136,0.5635366,0.929412,1.5833629,-0.15597896,0.16403854,1.4507734,0.44883922,0.024033383,1.2052897,0.8264696,0.26120552,0.24474575,0.23416404,0.9418248,0.19151814,0.8573075,0.24902743,0.47678995,0.8753981,0.22695626,-0.3645542,1.0893304,1.1570154,0.8671706,0.20016794,1.0254606,0.7373279,0.8824801,0.47722366,0.85232496,1.303975,1.4760518,0.21090692,1.0737779,0.38524246,1.1130133,0.17493582,0.20720796,1.421581,1.0429934,0.104675025,0.9231196,0.62554616,0.14664097,0.34085914,0.3839625,-0.26514405,1.0274004,0.18638161,-0.10350881,0.8457555,0.89581436,0.6562655,0.45473704,1.4057057,-0.26228797,0.117525406,1.5939002,0.17215663,0.6307382,1.185555,1.5456749,-0.4085604,1.1018147,1.1194853,1.3146291,0.31754905,1.363795,0.40650263,-0.1495924,0.029304074,1.1062909,1.2687376,0.4054221,0.5338749,1.4268142,1.1949879,-0.181468,1.3630426,-0.38491267,0.70169795,1.0996649,0.67772627,0.21366817,0.57419777,0.83343893,0.049391437,0.78758633,0.3283988,-0.4642325,1.2145303,0.35124716,0.87368244,0.8549398,-0.34398136,0.8276845,0.104738034,0.62417644,1.5989119,-0.11255086,0.16113289,0.6632163,0.6963899,-0.25208375,0.36596197,-0.5191751,-0.046006277,0.53360003,0.93828523,0.7477369,0.8029737,0.2478997,0.57964975,0.8058674,0.46176538,-0.3502014,0.06652873,1.0645465,1.3530835,0.36594158,0.10420568,1.122876,0.7071312,0.21105087,0.39492482,0.014878618,0.94412583,0.5104288,0.062139638,0.3252411,0.82319397,0.8653401,0.11254221,0.26801017,0.41079766,1.1387974,1.1403034,0.6650265,0.6698261,0.18443209,0.39117885,0.98957074,1.0802171,0.7212265,0.43105677,0.4565114,0.34714237,0.32271868,1.0075009,0.8242102,1.2434863,1.1895326,0.05273763,1.4839814,0.712384,0.89492947,1.0874864,0.5766887,1.3356827,0.14524923,0.2967954,0.59618104,0.5441812,0.6381383,0.65177643,1.0603218,0.83351606,1.0937237,1.2078996,0.85156506,0.740337,0.14759853,0.7174352,1.410515,0.37620994,0.7218517,0.90710485,0.6101085,0.95547134,-0.093227066,1.2556282,0.30446693,1.0039805,1.2544771,0.20621166,0.18008184,0.5840852,0.5862901,0.8712604,0.85074645,1.0433972,1.5135572,1.2020323,0.7752347,0.44607493,0.8454144,0.9198907,0.89531225,1.3068161,0.66975427,0.6574225,1.3210499,0.59862536,0.40861645,0.7723272,0.11638706,0.7840946,0.1959316,0.004684464,0.4263508,0.33971182,-0.14382218,1.0901653,0.98168063,0.8949765,0.49802086,0.06389815,0.82849073,0.29312667,1.253921,1.4041743,0.868307,1.2794986,0.8776611,0.57818305,0.7915936,-0.15594682,0.5906048,-0.5205194,0.9886684,1.1724021,0.7044566,-0.029924758,0.7348039,0.051957205,1.1993268,1.4751537,0.08054508,0.5694005,0.5013269
-0.89696074,-0.10029638,-1.0940508,-0.7589575,0.20730807,0.8752335,-0.6504471,0.81429404,-0.5433088,0.4907878,-0.5324552,0.47727636,0.48505598,-0.9006282,0.689379,-0.04562071,-0.7835069,0.22203848,-0.33174667,-0.11133364,-0.22361456,0.55707794,0.31083354,0.39681524,0.430434,0.17226006,-0.19445765,0.111371,0.018459102,-0.7312947,0.27593893,-0.09352122,0.04716393,0.05749877,-0.10306202,-0.7336849,0.610088,0.067895435,-0.35895672,-0.8250333,-0.67417914,-0.041228816,-0.69937354,-0.28481123,-0.82847196,-0.57946867,0.42274386,-1.0565095,0.5105314,-0.82414824,0.15687455,-0.2837297,-0.117608644,0.8519964,-0.32403007,-0.6751733,-0.29662696,0.6721075,-0.6028372,-1.153098,0.6920661,-0.40382883,0.69570273,-0.9458656,-0.19596949,-0.41270688,-0.021979466,-0.26023355,0.37969506,-0.32983282,-0.50651234,0.6702576,-0.16403432,-0.50546527,-0.3993693,-0.59365225,0.36800113,0.055303164,-0.37249032,-0.110658474,0.32963392,0.45088133,-0.1813855,0.19137748,-0.11011948,0.81200105,0.05720539,-0.51169825,-0.36279124,-0.36714894,-0.86499447,0.068690635,0.78232414,-0.32453242,-0.19902371,-0.59678835,-0.3775525,-0.30094972,-0.11400007,-0.35056987,0.7699627,-0.11730489,0.6723863,0.32989433,0.19052055,0.86828834,-0.42797565,-0.0629523,-0.18865624,-0.6982402,-0.11513029,-0.23753095,-0.3481014,-0.39383525,-0.8066881,-0.13190806,-0.2135357,-0.20655724,-0.3431498,0.26418594,-0.60436934,-0.48549017,-0.09929188,0.18312526,0.18800987,-0.80340636,-0.1415762,-0.043721855,0.01848491,-0.7192056,-0.23454973,-0.07788091,-0.76081204,-0.46856794,-0.09478542,0.90281856,0.7578158,0.17172521,-0.38995108,-0.4368687,-0.25255343,0.40947637,0.30965182,-0.8496842,-0.33957547,0.060182087,-0.44716385,-1.1307776,0.5515586,0.81196964,-0.07708466,-0.28462493,0.31514832,-0.29564458,-0.8481141,-0.012420571,0.7329228,-0.14316437,-0.551511,0.5048346,-0.39237565,-0.293065,-0.7357765,-0.91430193,-0.2630038,-0.03831041,0.24509005,-0.68288714,-0.7544916,-0.3146952,-0.9392439,0.9217228,-0.3145824,-0.11337639,-0.08669583,0.32746074,-0.7927156,0.008724859,-0.5314425,-0.3358988,-0.23492911,-0.4421631,-0.08152565,-0.3657458,-0.58915,0.42885694,-0.21087508,0.8645346,-0.13056047,-0.36603868,-0.3082848,0.73807013,0.476187,-0.37956107,0.8817767,-0.3665435,-0.49137938,-0.8768793,-0.123711236,0.28803703,-0.12462898,-0.8733029,0.15501055,-0.72761375,0.29135853,0.21572186,-0.19662102,0.18863551,-0.7440894,0.11491753,-1.1779288,-0.2838216,-0.20870975,-0.45491606,-0.6133621,-0.79020166,0.84954065,-0.51642597,-0.28150594,-0.29913318,-0.76329815,0.9000864,-0.4478124,0.2145553,-0.15921511,0.08407351,0.49301925,0.46828115,-0.4080353,-0.26754418,0.65697765,-0.6071576,-0.13613199,-0.069210626,-0.5426724,-0.28480154,-0.11025113,-0.58728606,0.4241936,0.27085248,-0.10935879,-0.43397734,0.3748687,-0.9264413,-0.72153646,0.15300322,0.28319502,0.20752394,0.6376659,-0.5311449,0.4353469,-0.7461981,-0.32385156,-0.59137416,0.21399899,-0.05198875,-0.56843084,-0.006003119,-0.25223836,-1.0439435,0.022948388,-0.07730839,-0.57845956,-0.0763438,-0.10464205,0.12934174,-0.11236069,0.06370653,-0.49777776,-0.6487001,-0.38477403,-0.033281095,0.41306973,0.007713208,0.16024041,0.8038799,-1.0172474,-0.104734875,-0.2821799,-0.8080402,0.23170656,-0.56570154,-1.0722728,-0.45134953,0.5166553,0.52121544,0.022781376,-0.32701322,0.33142635,0.44682088,-0.08069169,0.19708194,0.59034365,-0.08819403,-0.55963075,-0.78740525,0.35177645,-0.65139866,-0.4507674,0.2612209,-0.23928595,0.19921963,0.26789033,0.2617027,0.078690134,-0.6680311,0.44941404,-0.016158469,-0.115191005,-0.7162947,0.74866825,-0.10036834,0.81811786,-0.71789324,-0.3420261,-0.70533913,0.21661456,-0.19086695,-0.46058732,0.65569246,-0.004453775,0.5045948,0.38777232,-0.29693866,-0.19590893,0.217528,-0.22028148,0.36746693,-0.78672713,0.023752127,-0.07764857,-0.28664935,-0.57532614,-0.18183115,0.26986378,-0.5347248,0.5328701,-1.01054,-0.60883987,-0.44931898,0.4738942,-0.26908433,0.2933939,-1.0842493,-0.15100029,-0.40704226,-0.40224552,-0.17051712,-0.318374,-0.018585324,-1.1285203,-0.23925333,-0.29051787,0.032652363,-0.21800613,-0.88937634,-0.004470015,0.31643295,-0.5014415,0.59522384,0.07124144,0.1537737,0.3844514,-0.718154,-0.20551166,-0.51901764,0.095835865,-0.46667132,0.6710402,-0.34646428,-0.63244885,0.22106689,-0.070563816,-0.61751544,-0.13795656,0.027825003,-0.22346802,-0.08246999,0.000626271,-0.35496682,0.32235536,-0.6549551,0.5807319,-0.25764877,-0.28247246,0.009933194,-0.309605,0.06725762,0.14280096,-0.29187873,0.50288934,-0.018754484,0.0466754,-0.011790232,0.619909,-0.44377273,-0.7453791,-0.45647076,-0.73828316,-0.23020902,0.5181093,-0.5621899,-0.007626349,-0.7372111,0.025659781,-0.35730827,-0.64835656,-0.10139742,-0.77329475,-0.2078356,0.3198735,0.005326669,-0.35092133,0.5862666,0.5024839,-0.69213736,0.43754977,0.016109066,-0.40514064,-0.35489166,-0.3978246,-0.6056953,0.40125757,-0.6111361,-0.5240378,-0.44277668,0.091936976,-0.50649244,-0.22507173,-0.2949538,-0.99386674,-0.15444627,-0.9450006,0.5450816,0.853037,-0.5173038,0.06482665,-0.796531,-0.41885516,-0.61016124,-0.39154202,-0.96974134,-0.07479475,0.9049125,-0.3835743,0.58227366,0.62967926,0.0516316,-0.005935615,-0.73377734,0.43174523,0.06958476,-0.18024445,-0.51896083,-0.4720335,0.28323832,0.69898546,-0.3891925,-0.13056874,-0.8994871,-0.4066135,0.06103164,-0.43378058,-0.6477734,-0.06783798,-0.33269027,0.19360411,-0.34359244,-0.71230364,0.29159412,-0.5284901,0.49248034,-0.35160038,-0.5350124,-0.6801912,-0.14557432,0.10348534,-0.80695933,-1.17433,-0.93396956,-0.21614474,-1.0761809,-0.26168782,-0.35400045,0.48577577,-0.8124174,0.38881984,-0.69567007,-0.10149802,0.26952133,-0.690529,0.621213,-0.25441092,-0.3021057,0.454457,-1.00757,-1.0285305,-0.8014277,-0.21569116,0.60539985
-0.04055614,0.343294,0.85026103,0.4843898,-0.06841953,1.3981408,0.26528984,0.16096948,0.23456995,0.533311,0.95581675,0.5890275,0.1346891,0.7391963,0.13368094,0.52495617,-0.12392112,0.2763542,0.39910874,0.4893642,0.6797384,0.51921475,0.99585414,1.0289668,0.89889634,0.08488131,-0.28306398,-0.22991705,0.19606155,0.6906849,0.8060935,1.1733022,0.47863764,0.40207255,0.09251727,0.16724224,0.54658496,0.5885445,0.7789224,0.34045863,1.0222266,0.4373863,-0.5221822,0.30933508,1.4395597,0.5942732,0.046646688,-0.07907097,0.44017723,0.44343108,1.1804532,0.5712298,0.4358192,1.0932137,0.7254372,-0.30362147,0.09731279,1.2843461,1.2600412,0.100137725,0.041941483,1.0515765,0.2128813,0.4931916,-0.2085901,-0.14596997,0.056238774,0.63471174,0.2912787,-0.17377025,0.6086183,0.9639745,1.4981977,0.13399975,1.3530426,0.46791768,0.51441544,0.5709122,0.8428563,0.63013846,-0.5741343,-0.48868513,0.5940672,0.6451521,0.5871604,-0.060871482,0.27520663,0.7038754,1.197681,0.61545545,-0.33612865,1.3660327,0.9184315,0.8919936,0.5584535,1.3757312,0.054161485,0.17087427,0.13692212,0.2694245,0.025572766,0.8932129,-0.44954664,0.7627236,0.5284619,0.8019245,0.90216166,0.27904087,1.0945117,1.0789994,0.28860977,0.36782,0.31776935,1.1595132,0.3373787,0.24663383,0.9656609,0.2677434,0.819768,-0.060121022,0.9733709,-0.06711855,-0.014156799,-0.32118875,-0.3656053,0.754908,0.5597441,0.5465436,0.68890566,0.8853899,1.0297556,0.89624274,1.0657995,0.20789012,0.9875958,0.591169,0.612562,0.9552687,0.1838866,0.7566696,-0.33109605,0.6800404,0.97912794,0.7576592,0.45085564,0.02314083,0.22374432,0.2127551,-0.35427687,1.394031,0.90942127,0.3436101,-0.036785208,-0.107338,0.25874704,1.007055,0.2092786,0.5955806,-0.2830358,0.066159904,0.8485581,0.60874385,0.032451734,0.3897231,0.18513037,-0.34563246,0.08711926,1.0403259,0.8364677,0.3758081,0.6896612,0.92080534,0.5726292,0.38268808,1.2866668,0.19378024,1.1093832,0.45022795,1.3104324,-0.17555316,-0.013299852,1.02405,1.15725,0.45748025,0.38502038,0.17962764,-0.0748162,0.18054414,0.77157396,1.2253215,1.0293851,0.5287193,0.8272824,-0.005986797,-0.3180511,1.1701975,0.011072069,0.8497054,-0.17219535,1.123897,0.7882954,-0.31563845,0.08039557,0.20141026,0.2998156,0.68761075,1.2519228,0.6550903,0.4458307,0.23320414,-0.2903243,0.6561038,0.73151696,-0.4477484,0.970707,1.5373616,0.6053661,0.3230034,0.6135346,-0.07806421,-0.12598924,0.44577366,1.1069021,0.51568544,-0.37506717,-0.43811268,0.7292787,-0.06814561,0.3805905,0.31984064,-0.45510536,0.5161279,-0.024410859,-0.20227508,0.8772234,-0.34706575,0.7766122,0.8900349,1.1772112,1.0714726,1.0634899,0.51235354,0.7362967,0.8389942,0.448621,0.7616153,0.18142758,0.8085466,1.064959,0.06875871,0.16601753,0.68242854,0.3459572,0.53996325,0.032709397,0.2977762,0.979965,1.2163594,0.20514463,1.1142566,0.7700196,1.1386471,0.23197453,0.48598757,0.6193252,0.575672,1.0331513,0.78256106,-0.121450536,-0.060796186,0.38851407,-0.20809892,0.3084946,0.20199578,-0.39400697,0.437698,-0.05526363,0.32340795,-0.030886866,-0.13532957,0.57337403,0.53554684,-0.055463,1.1196609,0.7074441,1.3439415,0.11769916,-0.5319942,1.0828584,0.24551444,0.23088281,0.783981,-0.304505,0.55139947,-0.3956096,1.0334606,1.394712,0.8091544,1.0660067,0.14311604,-0.45770776,1.0767765,0.060449366,-0.031532638,0.49502653,1.5311922,0.2390191,0.9074142,0.86029345,0.10545585,0.06480618,0.88279617,0.40781078,0.84590244,0.9900844,0.9770791,0.1168965,0.68710715,0.3632343,1.1917181,0.21424517,0.36983588,0.29710993,0.93932694,0.7472383,-0.30707353,0.89660895,0.15688264,0.30928415,1.3404615,0.1228792,0.07711739,0.74723357,0.1394859,1.1095811,0.385495,0.44916606,0.525473,0.32944894,0.6991634,0.9195876,1.0834271,1.1871668,0.41069162,0.26589936,1.1501995,-0.4428771,0.42678204,0.27418828,0.44294596,0.07821773,-0.10074768,0.71051157,0.14101975,0.5276156,0.38004923,1.1405468,1.1905521,-0.07136496,-0.11387304,0.92881435,0.10814994,0.39961356,0.4122201,0.50593245,0.15051521,0.87020695,0.107606955,0.08298871,-0.48644254,1.374701,0.28730178,-0.2848438,-0.274299,0.83927184,1.0572731,0.022501815,-0.076493695,0.913741,0.37427646,1.1876081,0.50435954,-0.18171637,0.5056062,-0.07814048,0.43701416,0.34520358,0.4106223,1.289289,0.40077636,0.2969,0.023436377,-0.14960107,0.6928182,-0.1314624,0.41518977,0.05040992,1.0607836,1.2031865,-0.40627497,1.2252041,-0.001776144,0.6643921,0.68498516,1.2793287,1.0207682,0.038767394,0.5077431,0.23504108,-0.18316323,-0.007486505,1.2366883,1.0357735,-0.577603,-0.12814373,0.40037575,-0.5259969,0.8261078,0.6321649,0.51894504,0.3018267,1.2011988,1.3545607,0.5558346,0.2649753,-0.113182105,0.24043652,0.8184645,-0.22973987,-0.18844685,1.0566862,-0.49377203,1.087361,0.9724397,1.0311242,0.74699783,0.8514305,0.32964393,0.7510789,0.7248168,1.2687945,0.19414863,0.3623194,1.0461577,1.0324447,0.888954,-0.2642546,0.54834014,1.2706025,0.6865204,1.4532412,0.5702913,0.29068983,0.112276055,0.71536595,1.0163813,0.8360911,0.47554806,-0.46192753,1.0657985,0.21060605,-0.02372073,0.6538156,1.1031946,0.20728216,-0.07726517,0.43633315,-0.28257182,0.8803222,0.71733975,0.50333196,1.2282411,-0.103114,0.68519795,0.046970204,0.36123,1.0485011,1.2823321,0.6347888,0.09893543,1.008634,0.37488756,1.3283471,-0.07222574,0.16934712,0.95214605,-0.3379146,0.983481,0.8276641,0.27059886,0.58990514,1.0142999,0.7100451,0.9927814,0.9816006,0.29928327,-0.34701174,1.0138297,1.47119,-0.15101458
0.6141812,0.3344995,0.5215579,1.0939521,1.2123182,1.2088934,0.37005624,1.3977424,0.6112585,0.34698915,0.5930143,0.080699585,0.9691948,-0.2461611,0.49299785,1.3788487,0.76833904,0.21196233,1.2530096,0.98152745,1.061449,0.61357033,1.5101755,1.096168,0.16984561,0.6145314,0.7895597,0.34811455,0.19352503,1.1157402,1.7720171,0.001481202,1.0767616,0.3679569,1.0821024,-0.11668621,-0.044421796,0.7394745,0.9416903,1.1943468,0.4315035,0.86355144,-0.5164254,0.36444426,1.326117,1.0065541,0.6620148,1.2621253,1.3393685,1.2945292,0.8428438,0.8166061,0.31721362,1.0804276,0.3963687,-0.5403594,0.22748232,0.8806653,-0.006252401,0.8975875,0.6270486,0.22300124,0.48524302,0.8546086,0.6398242,0.69156134,1.4484141,0.42021602,0.7936372,1.2234021,1.4944845,0.65394855,0.7819513,0.9344772,0.9551586,0.6761118,0.3095558,0.009783284,1.46521,0.8034785,-0.047366086,0.26716024,0.9054415,1.6252247,0.38968614,0.051999502,0.616965,-0.0418235,1.6779816,0.9474871,1.0411327,1.1481918,0.9101137,1.2544192,1.1263188,0.37859967,1.3254696,1.3943272,-0.2748106,0.036183994,1.0724638,1.6025529,-0.23493582,1.0565349,1.2662108,0.8575098,0.6593234,-0.16308346,0.633073,0.26562798,1.8219876,0.9402284,0.27540857,1.2087117,0.104647055,0.10855835,1.6644987,0.15822561,0.9473687,-0.00189569,1.0493143,0.106932886,0.3211897,1.180905,0.49071473,-0.1570765,0.5820618,1.0639855,-0.014335013,0.16812773,0.6678869,0.7925218,-0.000106887,0.19408563,0.24817057,0.5848223,0.6109331,0.67303467,-0.019175094,0.389552,1.320044,0.06702806,0.7781718,1.7090231,0.6084544,0.16544197,0.2232734,0.22816595,0.6033995,0.5856878,1.4143821,1.0536473,1.3681037,0.7045076,0.47221312,1.0639675,0.6874348,1.1369795,0.92720675,0.6691358,-0.44247466,0.7658017,0.9557122,-0.06959489,-0.006933698,0.33739161,0.1764935,1.1403916,0.3272517,0.11746542,0.99625355,1.0298313,0.15608308,0.8540644,1.2162488,1.4480412,1.0138667,-0.16103129,0.64367855,0.63719004,0.6361981,1.1818216,1.037231,0.116181605,0.9953205,1.2595189,0.99980617,1.4946214,0.9301924,1.5317838,1.1776552,0.6175765,0.036868464,0.4279194,0.8688723,1.7012756,0.121233515,0.2227508,1.2088304,0.77013046,0.2497677,0.25734913,1.2458556,0.5235804,0.14391188,0.8493398,0.92365116,0.11509038,0.7390505,0.76711047,0.6264104,1.1248119,0.90335876,0.5943041,0.46056238,1.5898186,0.51388717,0.6721009,1.355611,1.0207759,1.187184,0.41505015,0.8424217,0.9411486,-0.15665576,0.23830275,0.2723192,0.11041009,0.63013476,0.49192482,-0.24418229,1.5192176,0.71872026,1.5569364,0.77905595,0.866125,1.6217787,0.62063617,0.82401943,0.011265941,1.35788,0.8186557,1.4169278,0.110634334,0.2838815,0.08145524,0.25442287,0.75632113,1.7715696,1.2077006,-0.008791643,0.15729049,-0.06560462,0.4036574,0.9534504,0.9341625,1.2537783,0.3212516,1.2843708,0.22587214,0.34553924,0.81761926,1.1273966,0.4802997,0.59182024,0.8016593,1.3065385,0.6736748,0.7194789,0.37256005,1.1238192,0.9824261,0.52744174,1.5457659,0.29973015,1.285976,1.2684841,0.33131245,0.58699137,1.1553531,0.6250286,0.6661934,0.14801921,0.5811349,1.0774453,1.5848665,0.09810703,0.49102965,1.1849247,0.36834264,0.32163832,0.6570353,0.316442,1.4771056,1.1758442,1.0114939,1.0816755,0.54877245,-0.041417696,0.9221266,0.8149436,1.3220247,1.1705059,-0.000876984,0.49459425,0.2683462,1.4368995,0.83833957,0.8667085,0.5185053,1.1931988,0.6274821,0.18826008,1.631881,1.0997479,1.1167763,-0.4219403,1.0435745,1.978901,-0.19027404,0.9762172,0.36127645,1.3289453,1.2740966,1.4197692,0.60468614,0.7434335,0.60465634,1.5105473,1.0316654,1.4646002,0.54152286,0.12517615,0.31963822,1.3664128,0.31924146,0.17820457,0.11733634,1.1348624,1.0114831,0.85034835,1.447388,0.51014227,0.23555225,0.46184915,-0.08036983,-0.059758313,0.09173209,1.0167449,1.2714368,1.3322802,-0.24555254,1.3294483,1.2914783,0.95311105,0.8957248,0.1999654,1.1205072,-0.10072231,0.59670514,1.3860254,1.2799104,0.22432013,0.6188834,0.63978624,1.164356,0.17749299,0.10587241,0.6903286,0.6818152,1.7485164,-0.04911801,1.0228376,0.9030216,0.08792745,1.0085247,0.85024416,0.7974527,1.4298042,0.65307605,1.2707076,0.5529381,1.3951048,0.08901927,0.2256614,0.12196683,1.2145611,0.3923497,1.4720994,0.6077826,0.4078212,0.9155068,-0.005073183,1.431291,0.49389803,0.72248775,1.1337116,1.1382118,0.46855262,0.5689673,0.03173059,0.80302936,0.34415278,0.4023806,1.1686677,0.45525658,0.94047433,1.0410439,0.6509402,-0.44050756,1.2655867,0.171727,0.39863917,1.0461719,0.06225596,1.5365633,0.2752038,1.353197,0.97970355,1.1798704,-0.14041966,1.3817612,1.3025603,1.9498943,1.0149193,0.9099645,1.4473215,0.5712939,0.14973328,0.55939126,1.0241154,0.96255714,1.0359485,1.0822699,1.1041387,0.6273145,0.824889,0.82830155,0.84489024,0.6068166,1.4437125,0.18218708,0.8396963,0.6534543,0.6073413,0.26391625,0.6665014,0.15283749,1.447326,0.93560874,1.0666502,0.57531494,0.08452513,1.014848,0.25264037,1.2718271,1.0429429,1.6964875,-0.38532865,1.6536667,1.1188029,0.4002622,0.3539844,0.75584775,1.4112023,0.9292258,1.1740001,0.45738038,0.29798433,-0.17397545,0.25164816,0.45507142,0.8547154,1.1152134,0.84835654,0.12881461,0.3304699,1.1323797,0.52555925,0.8636882,1.4918617,1.0413654,1.4179451,1.2886282,-0.05357768,0.27538875,0.6090944,0.9890016,0.61623603,0.5632046,1.3754317,0.9380544,-0.052642856,0.45509544,0.3238775,0.19168851,0.57507205,1.1739705,0.9064622,0.7481337
0.6520661,0.6616152,0.48541954,0.5924131,-0.14019717,1.1896425,0.40493974,0.032157477,0.013955486,0.399595,1.2389565,1.1639291,0.93648714,-0.020202514,1.1662974,0.69586205,1.3155781,0.7768102,0.4457235,1.0332549,0.5238794,1.421138,1.2628825,0.32773492,0.22098039,1.0674119,0.30077118,0.9111847,0.30869827,1.2271268,0.73338586,0.02812392,0.27861175,-0.24421318,0.65589446,0.91679436,0.06571173,0.89738554,0.29385176,0.47486627,1.0152259,0.032403376,0.6056987,0.94796205,1.063714,0.59453654,0.8489018,0.40591788,1.067181,1.6269217,1.0035833,0.29730457,0.24422683,0.784585,0.47809437,1.2622302,0.7540856,-0.01233267,0.003755977,0.7750665,0.6797816,1.094497,0.5642167,0.59799343,0.017665839,0.35096115,0.2970001,1.4913261,0.13628615,1.0256717,1.211991,0.8389183,0.5898025,0.71087503,-0.31666955,1.0514972,0.33034122,0.65881115,0.014971917,-0.24706924,0.86587757,0.31191188,1.0513215,1.3352027,0.78615534,0.87606096,1.2505369,1.5564601,0.440655,-0.08876917,0.19961558,0.6630138,0.5481566,0.018698428,0.94353324,1.3023375,0.65516806,0.6928022,1.4933366,0.69941854,0.3615509,1.3989264,0.8519033,0.35998076,0.45090917,-0.17353481,0.5296722,0.952423,1.1495959,0.9917603,0.41501856,1.1336737,0.21956958,0.46966305,0.6649355,0.00272019,0.104510315,0.44033742,0.9266121,0.9732478,0.51585907,0.3312029,0.28346097,1.546666,-0.079889216,0.915447,0.94742084,-0.11598125,0.54539317,0.29909265,0.89461964,-0.23879915,-0.22150558,0.48394826,0.14289953,-0.028325628,0.29694858,0.33100426,1.22732,0.09461687,0.7707184,0.56392103,1.4263198,0.51596767,0.028648805,0.9806889,0.07183407,0.43399882,0.6841132,1.6455854,0.70686084,0.6665772,1.2036043,1.1360477,0.009885576,1.3252479,1.3134835,1.7839766,1.0260965,0.6063441,0.56551385,0.35570467,0.6698559,1.0597769,1.2001276,-0.004496951,0.51943004,-0.17337646,0.63271296,0.65278316,0.7355231,1.3629901,0.4943867,0.7688297,0.21331002,0.2104934,0.50353456,1.151975,0.5673778,1.1731646,0.704772,0.30767882,0.05043964,0.8771392,1.380228,1.2847407,0.6108514,0.2500404,1.0129553,0.4080627,-0.29652953,0.051537365,1.477401,0.6495272,0.47627392,0.5145158,0.6317924,-0.04299049,0.42144185,0.6624441,0.7968407,-0.20698492,0.7904382,-0.19809826,0.6827443,0.7195057,0.8214285,-0.17903386,0.83445656,1.0079806,0.773348,-0.112336166,0.20736362,-0.035897065,1.1975099,0.39974996,0.5156295,0.5930753,0.30522007,1.0208391,0.47925782,1.300593,0.027328689,0.4923723,0.5607029,0.7112377,0.878731,0.5031628,1.5151986,0.44862205,0.64044225,0.5479917,1.3385146,-0.2520548,-0.01606354,0.98803097,0.64921,-0.24904694,0.7862414,0.8833867,0.18388048,0.6600503,-0.1865039,0.9340283,0.53845,0.53317493,-0.07218409,0.63822114,1.1590141,0.46177793,0.61785483,-0.12793037,0.9058123,-0.34069657,1.4012256,1.3851209,0.09446766,0.14396875,0.3120852,-0.33286986,0.3290802,0.86651707,0.7357167,0.9454112,0.15377933,0.552978,0.29654357,1.2763231,1.1856227,0.39889768,0.6649355,0.5984853,0.59641075,1.5149164,0.2782302,1.4296243,0.10638327,0.4532532,1.0843745,0.9973698,0.57909596,-0.23436123,0.646467,-0.050256066,0.3384608,1.1676986,0.4930755,0.80987144,0.7103785,-0.15575425,0.18618898,0.6086293,-0.3176066,0.5342433,1.2741362,0.36649245,1.481794,0.96027446,0.29852852,0.07740852,1.0279951,1.1484219,-0.16329083,0.81081045,0.7240877,0.15175326,1.0538594,0.46929988,0.1606152,0.057586953,0.367882,1.0627766,0.3297818,0.2565928,1.1422578,1.2360545,1.3202132,0.10434087,0.09155329,0.3942676,1.0516139,1.6579103,0.19712324,1.1941793,0.21169461,-0.091178186,0.113135174,0.39747444,0.89696175,0.50861704,1.0624473,0.28311923,0.48944342,0.96114177,0.88661146,0.9044868,0.3463477,0.38091716,-0.034096006,1.4718654,0.94958586,0.119463645,1.170565,0.742283,0.24443027,0.3570664,-0.29228115,0.8474121,0.8533322,0.7307762,0.61857206,0.23344262,0.026885416,-0.017986452,0.22674876,0.7348436,0.5600226,1.1461245,0.86337906,0.1313811,1.3299036,-0.20764777,0.66772044,0.5304594,1.258332,-0.06997996,0.2696253,0.4172702,1.3354683,1.632295,0.96473366,0.5738977,1.5914438,0.08546864,0.11664297,-0.011636559,1.4177847,0.4956066,0.5657905,1.0543219,1.6694274,0.6198381,0.42677802,1.1662346,0.46068084,1.0025464,1.2628001,0.2685501,1.1566113,1.2959297,0.23804162,0.14063951,0.45238495,-0.09452543,-0.028649587,0.6657201,1.3458058,0.650574,1.1698966,0.65474594,0.37908468,1.679617,-0.15639745,0.34283346,0.27172333,1.3619524,0.07723921,0.72377473,0.030407112,0.9622887,0.32096007,1.5588386,0.15419948,-0.26785427,0.727657,0.8468681,1.4219342,0.75004953,1.1205758,1.041134,1.4714569,1.091363,0.1841981,0.45412868,1.1963421,0.6685529,0.7471,0.756536,0.7697084,0.4516435,-0.16871645,0.7039212,1.118001,0.6707703,0.60163397,0.77693284,0.18883927,0.7852023,1.1091111,1.67097,1.2476526,0.45125216,1.8153138,0.4618898,0.5391377,0.9056526,0.15952516,0.47524303,1.3011076,0.6374407,0.86442685,1.0049236,0.21920983,1.6276776,-0.22541377,-0.007478622,0.90851414,-0.21450508,0.4027943,0.71117914,0.16877069,1.2900511,0.042694483,0.9472635,0.9227136,1.0447327,1.673317,0.89112276,1.7291323,0.2899748,-0.050854154,1.361142,1.0740492,0.86631644,0.44925255,1.1853279,1.2006797,-0.28779393,0.26134086,1.014721,1.6387491,0.004787905,1.1190306,0.75922215,0.34653705,-0.13855036,-0.32490557,-0.057832297,0.63680273,1.0179738,-0.06197123,0.663678,0.2804378,0.89517015,0.17634514,0.4931743,1.390889,1.3208308,0.089886814,0.15142152
0.9565728,0.3304681,0.53370446,0.57588416,0.29058278,0.08285714,-0.15644653,0.24641667,0.6531925,-0.10615869,0.051765084,0.89665383,0.5065789,1.0250896,0.3481348,-0.2918912,-0.5240987,0.4768506,0.4446254,0.067944616,0.9252477,1.0148045,0.5111242,0.26828215,0.4937864,0.8590289,0.8530842,0.9812173,0.63956475,1.3477916,0.76879644,0.025620665,1.2173936,0.8738458,-0.46505222,0.27551723,0.9043594,0.7716503,0.48952222,0.88135344,0.8732787,0.55599654,0.51003635,-0.049594022,1.1910329,0.095753044,0.3298468,0.14807253,0.000359344,0.6873365,0.39920896,0.2062755,0.9363063,1.4324178,-0.34445536,0.5798903,1.311634,-0.2767969,0.30663374,0.5969708,0.1555441,0.39205825,0.8706247,0.76094586,0.2641311,0.26033708,0.24474733,0.63185656,0.4724079,1.2480022,1.2460635,0.51867527,0.2131697,0.44991884,0.9193649,-0.058077946,0.3491931,-0.15525109,0.32561922,0.6115436,0.47473887,-0.08241303,0.9081518,-0.48385638,0.5527305,-0.27139986,-0.13705128,0.78042644,0.88315386,0.03474049,0.20270689,0.92107797,0.24440841,0.9115647,0.8133403,-0.64504427,-0.09079911,0.5123711,0.81615007,0.09242851,1.3523705,-0.11469092,0.2343691,0.12593089,0.15116851,1.1822128,0.24020891,-0.4473968,-0.46241096,0.36741856,0.31861147,0.121023856,-0.030273424,-0.31789407,0.011075378,1.0396926,-0.14429282,0.7140609,0.5701276,0.35239467,-0.45233104,1.1150672,0.23333873,-0.5118452,0.49244803,0.26305652,0.9333527,0.66240734,0.05475942,0.2766843,0.7358369,1.1340312,0.002773702,0.78656834,1.1311591,0.8805303,0.08006287,0.32864806,0.6990694,-0.24281695,0.12513763,0.6858947,0.009463356,0.04093268,0.19728936,-0.5095107,0.2656438,0.833839,0.77871394,0.33231625,0.47203395,1.2204418,0.5937665,1.028882,0.3925259,0.9828603,0.20737647,-0.48758093,0.8231893,1.2881801,-0.0662688,-0.14263499,-0.45742097,0.16577171,0.06959344,0.27724525,-0.16121878,0.9601748,-0.24679925,0.22284907,0.3022359,0.23026742,0.6939536,-0.20088506,0.9162277,0.14666367,0.5449798,0.60199267,0.7232509,1.0097511,0.6462048,0.46308115,0.31053182,0.5093968,0.034921605,1.1662198,0.24344093,-0.018599417,-0.10253937,0.88212544,0.68788886,0.11140106,0.74190843,0.669032,1.0455352,0.2495005,-0.120535925,0.61658305,0.4772427,0.26138285,0.41787583,0.06856763,0.000422596,-0.5241412,-0.08232617,0.7707836,-0.3058635,-0.003351784,0.5645429,-0.35515285,0.211054,-0.4523486,0.76885813,0.77948856,0.3429141,0.9742834,1.2548647,-0.3648759,0.75205237,-0.06400337,0.36079976,0.28147635,0.7924561,-0.08397537,-0.50469524,0.48241296,0.38482457,-0.13812488,0.8231286,0.17710091,0.31530035,1.2764477,0.13437708,0.5042188,1.061338,-0.1539367,1.1617303,-0.34586573,0.7050711,0.3310565,0.29323062,-0.4640272,0.9488868,0.7851835,0.16391715,0.06392546,1.0743264,0.6817697,0.096397616,0.71650755,0.65239483,-0.29122108,0.9985874,0.1931846,0.17930336,0.69803166,0.37066063,0.7469619,0.07631741,0.44143897,-0.002717291,0.12804805,0.870873,1.1059875,-0.4043663,0.06997143,1.1109629,0.43266574,-0.37728587,-0.17844841,0.8177054,-0.047595218,0.7146632,0.57498574,1.1124647,-0.145901,-0.36594564,0.13369757,-0.48667347,0.2810742,-0.40378246,0.8015967,0.005122767,0.56625146,-0.1818405,0.88277775,0.10534284,0.670592,1.2575532,0.15084298,0.71883065,-0.4912216,-0.68330485,0.4827369,1.1440605,0.08261628,0.024851745,0.16824147,0.49063122,0.66755986,1.0235856,0.3561834,-0.4574994,0.7767769,-0.025159191,0.2587713,0.9065189,0.8647774,0.09699833,0.57155335,-0.07164326,-0.032729026,0.8585202,-0.01372518,1.2140259,1.3903697,0.084977135,1.2453203,0.059776966,0.3241164,0.74955565,0.31705663,0.53706753,0.5862231,-0.36047363,-0.22284548,0.7640763,0.74727094,0.5167442,-0.45468113,1.1737484,1.1450094,-0.27867246,0.041576557,0.9908156,0.43150082,-0.6720122,0.5763721,0.25769955,0.7641332,-0.29409721,0.11715938,0.5466935,0.3615223,0.8314876,-0.07944668,0.6629609,0.40947726,0.7099619,0.49695104,0.54928666,0.6973325,0.81775594,0.51360524,-0.13091987,0.86388373,-0.30885437,0.85212976,0.7488671,0.509424,0.29604456,0.8180089,0.1638469,0.29483044,0.7397803,-0.16274793,-0.3579192,0.33504328,-0.58666813,0.54282343,0.081988126,0.84903514,-0.38151395,-0.18684071,1.1335652,-0.3509531,-0.24158669,0.97425056,0.8635366,0.7510816,0.1369259,0.03659428,0.17535844,0.55155814,0.2560065,0.98417664,1.1028717,0.51618516,1.0044278,-0.26290914,0.6468501,-0.29373,0.91706777,0.6210715,0.008171342,0.0958394,-0.24951015,0.27344155,0.09325071,1.1350583,0.37646723,0.67274296,0.001452557,0.8075185,-0.069707,0.31589025,0.055362415,0.72929794,0.3853387,1.0917178,1.0505655,1.0338811,0.213383,0.45664155,0.30036414,0.27024972,-0.2100498,0.26548862,-0.36498958,0.9983916,0.1775551,-0.31646776,0.7937274,0.23643036,0.20155632,0.49955928,0.9073594,-0.14089318,-0.4563791,0.04991453,-0.48997074,0.2523545,-0.15114145,-0.3208646,-0.16379108,0.26173627,0.5723841,-0.10427534,-0.42177,0.75780886,0.76958334,0.46477222,0.50828373,0.9557717,-0.056597687,0.51951736,0.1551595,0.40656078,0.50133735,0.104499675,0.17219327,-0.21269652,1.3443376,0.809869,0.5466403,-0.61153215,0.4634218,1.4708141,0.24599205,0.64023626,-0.38060936,1.3456045,0.15644515,-0.17517388,1.2232027,0.608201,0.54992074,1.2973782,0.3559173,-0.12101569,0.51484656,1.2886753,-0.24457635,0.012117081,0.95656925,1.0911187,0.8426044,-0.27549377,-0.4101406,0.41256574,0.6936682,0.58458614,-0.12612708,0.84461015,0.093597375,-0.21391708,0.21593113,0.78266805,-0.13886566,0.8383153,0.8233468,0.25544155,0.37916172,-0.14893864,-0.06668769,0.59930646,-0.44467786,0.5366905,0.7467648,-0.096106336
0.374478,0.34372163,0.75111645,1.3781421,0.71442556,-0.019427277,0.9500503,0.9699381,1.0735388,0.68011576,0.92374396,0.7301915,1.375897,0.10664799,0.60464066,0.8315904,0.46350598,0.524989,0.54858696,0.57852906,0.17770343,1.1016434,0.11627005,0.11380396,0.66727793,-0.23486294,0.86607116,0.029381784,0.8540248,-0.06974594,0.086482786,0.80127966,0.21701692,1.0680852,-0.09030844,0.1292574,0.5150604,0.04235176,0.7031635,0.9589817,-0.29617596,-0.13649224,0.0476501,0.30067477,1.3393561,0.9281826,-0.23764923,0.08907246,-0.06558906,-0.042473644,-0.39683768,1.1161531,0.05588361,0.6613547,0.57790923,-0.39587274,0.7697874,-0.03823165,0.34052035,0.25045,0.5951476,1.3988684,0.8694798,0.47986224,0.9911122,0.73642385,0.1994764,0.7913902,0.9199946,0.45194897,0.936465,0.8849293,-0.023982894,0.42958462,-0.17614037,0.9926026,1.2108635,1.5445857,0.2682515,1.2402157,1.5052136,0.8795677,0.77645344,0.3659699,0.5978223,0.8141246,0.34705546,0.39565754,0.25240895,0.18623312,1.2237598,0.8400751,0.23686975,0.5287038,1.0205114,0.15005943,0.8210752,0.978722,0.5957594,0.10941562,1.0362865,1.0504556,0.3515391,0.27809924,0.087202236,0.50183415,0.97122556,0.7195072,0.80108076,1.2282393,0.072773404,1.0108892,0.042698495,1.2826235,0.80371,0.98018456,0.28879184,0.67326117,0.7138134,0.21039692,-0.04179723,0.9995339,0.8376963,-0.15322085,0.77830267,0.5512916,0.56098974,0.23891048,0.39439157,0.86690915,0.92261547,0.29455423,0.74435,1.1971217,0.82852894,-0.077786535,0.9709933,0.24250789,-0.21253867,0.6111492,0.8030053,0.75095445,0.4064324,0.1576098,-0.12956963,0.054789416,-0.50099224,0.1632112,1.4333104,0.7069134,0.40344527,1.2228807,-0.14436045,0.03448062,-0.127978,0.3369258,0.2690221,0.06214274,0.30496117,1.3911511,-0.03611023,1.4375886,0.83093905,0.34647766,1.2375239,-0.019172817,1.1420445,0.7267014,0.5386998,0.83040464,0.67495084,-0.3558544,1.2709115,1.1106104,0.37887642,-0.08686997,0.17041498,0.6337813,0.3072159,0.7099379,0.8087323,0.16422828,0.29474196,0.9907509,1.1614467,-0.35743728,0.6004439,0.16204838,0.7141006,0.4692649,0.54963773,-0.45097074,0.52333945,0.65872484,0.8629374,-0.041937955,-0.01392214,1.3359702,0.73405135,1.5651062,1.1816124,0.1337559,1.2306687,1.0688202,0.37844607,1.543811,0.47367314,0.3094313,-0.053320244,1.2511795,0.40589425,0.85819393,0.8455658,0.39038485,0.93851125,0.09495383,0.5050132,0.70583355,0.07217326,1.4159706,1.2179528,1.2382834,1.1271869,0.27190953,1.1291361,0.39576995,-0.29917255,1.1012814,1.2945192,-0.050720185,0.8643394,0.18937851,0.8016043,0.83090407,0.53716445,0.0321465,0.099562764,0.96874213,0.13049963,0.16447584,1.057043,0.91778004,0.909468,-0.2006778,0.4010145,1.043804,0.2636068,-0.072673835,0.6162315,1.1381042,0.32300586,0.68223673,0.6399087,1.0776716,0.3019664,0.16722125,-0.032002807,1.3143024,1.3295636,-0.21715,-0.03332953,-0.021250762,0.52072084,1.0970716,0.9381904,0.1796244,0.61873066,0.03154429,1.6803635,0.49000013,0.26447818,-0.21609853,0.67852235,0.038063664,1.0571966,0.95040727,0.17515813,1.3521888,-0.25208274,-0.07894534,0.19305195,1.2808684,0.48337185,0.7228993,0.58551306,-0.20744747,0.75656086,0.1362537,0.40218034,0.52915466,0.70690143,1.1544476,1.0896299,1.0495948,0.40156725,1.0498452,0.68933225,0.7199645,0.19538882,0.5712645,1.1670783,0.49600792,0.64552504,-0.22085512,0.6573379,0.25900474,0.88107926,0.7120363,0.47332892,1.2758378,0.25844258,-0.17096761,-0.2960751,-0.067653306,0.68291384,-0.007095777,-0.22422801,0.72485703,0.89990956,0.58493084,0.09574829,0.6683913,0.7999708,0.7409285,1.6854676,1.3490347,-0.2999198,1.1381528,1.5536448,0.48622024,-0.15544382,0.58404016,0.65774214,0.38962168,0.9558714,0.70456225,-0.283495,0.38804287,-0.2828108,0.8227294,0.4116611,0.7415462,0.38359278,-0.26104945,-0.23906294,0.6523459,1.215737,-0.030528817,1.3329077,0.7327079,0.6852413,0.13449521,0.34067032,0.2675294,0.44851598,1.3890293,0.09574044,0.19693358,0.5723928,1.3028759,0.33441168,1.3334376,-0.104870886,0.43107474,0.51470023,-0.50613403,1.024913,1.188572,1.4248922,0.8962852,0.26480687,1.0899136,1.3229711,0.79892296,0.8697312,0.55310166,0.35783675,0.47808048,0.6304415,0.22933508,0.68807155,0.09487573,-0.24114421,-0.020066114,0.86869895,-0.09905065,0.7268623,0.8527034,0.100319594,1.2977705,0.9895858,1.0372136,0.3781753,0.8411072,0.07837246,-0.21762301,1.1899207,1.3497285,0.12490072,-0.31253022,-0.48754928,0.2572963,0.46048662,0.50489837,-0.12256588,1.0450735,1.4049988,1.3253298,0.5693868,1.3466136,0.65985876,1.0140761,0.8920853,0.13579658,0.16933452,0.37566307,0.26542002,0.9336867,0.8735942,0.6028454,0.41492987,1.2921728,0.7253647,0.9340993,0.17540222,0.5859928,0.8705761,0.59570205,0.16205543,0.41606984,1.0738229,0.63662755,1.0836606,1.3795029,-0.082906865,-0.32507706,1.2617241,1.237703,1.0059235,-0.16588041,-0.03516371,0.14979364,0.8307367,0.9613292,0.6381382,0.5711692,-0.01155596,0.32404524,0.3121864,0.7157938,0.78185475,0.114623815,0.45748892,1.0313512,0.3396633,0.7128809,0.9721709,-0.102498755,1.0932498,0.199131,0.6595863,0.7002247,-0.16325068,0.30849656,1.00288,1.1770251,0.5206349,0.40032783,0.40368927,0.57289493,-0.14199133,0.18775772,0.17230052,-0.03818461,0.27081126,1.0681384,0.78318214,0.49990064,0.6911739,0.6485038,0.20203961,0.68080115,0.8696015,1.3657446,0.807986,-0.49989262,0.3002951,0.2911557,0.04880976,-0.1255859,1.4875166,0.48470828,0.47519022,0.21690284,0.98400533,1.2289248,0.7356569,0.46691883,1.1556264,0.78953785
0.4578487,1.4301964,0.68975693,1.4575514,0.7018465,0.7741379,0.25383404,0.3204922,0.9910971,1.5201342,-0.13709627,0.8774762,0.5235848,0.26209122,0.1496324,0.64708954,0.7059181,0.8150656,0.47984803,0.84929174,0.91201437,0.7378596,0.59896135,1.3616366,0.83040226,1.5108796,0.62567157,1.2247925,1.6975081,0.2286412,0.72782415,0.9846981,1.1361318,0.41008335,0.5668141,0.20969218,1.5743151,0.65594393,1.430496,0.97244495,1.177024,1.0298581,0.24935643,1.0776454,1.0951761,0.58565974,0.7870397,1.0779465,0.5414597,0.38067862,0.3861953,0.8631765,0.92814016,0.7479854,0.10904163,1.1710808,0.7105339,1.5435371,0.39320806,1.04045,-0.028993629,1.6214924,1.3489373,1.5804851,0.081536636,1.1144257,0.9487393,1.0798327,0.6633843,0.7556183,0.6990105,0.45012543,0.7913936,0.05775841,1.5469971,1.2500607,1.3226764,1.2658436,0.7061859,0.9170677,1.3022326,-0.001178478,1.5328585,1.3221325,1.3717983,1.3830565,0.8435537,1.5007472,1.0233222,1.2625198,1.0005289,0.33537015,1.3955723,1.1506867,0.7917379,1.4172497,0.9001234,0.6174223,0.84842676,0.6483911,1.2183295,0.29672328,0.3764016,0.5716509,-0.028634844,1.0082349,1.0951452,0.35739225,0.6735032,1.1322017,1.3067275,1.115635,0.8675504,0.99700576,1.28888,0.9317314,0.99112904,0.118481405,1.0771815,0.7405084,0.224061,0.86997163,0.9022415,1.8428383,-0.18799198,0.19594212,0.17471094,1.7190148,1.0601271,1.4135122,0.59548014,1.0432624,1.4452742,-0.087976806,1.4398782,0.80357707,1.3956512,1.0219245,1.4092125,0.17356333,-0.026833033,0.63290423,1.4717362,1.0511458,0.7698931,0.8062774,0.6631123,1.5985048,1.0118164,0.5890784,0.6201816,0.60919684,0.55120826,1.0425544,1.0693146,1.2965937,1.3311357,1.0186634,1.4342701,1.3202956,1.691262,0.5831533,0.33333096,1.345642,1.528002,0.90896845,1.3744233,0.5853563,1.0744178,0.25972074,0.6321511,0.8381087,0.8806816,1.0136704,1.3892771,0.1406916,1.654512,0.71006113,2.2705357,-0.010128985,0.57028455,1.4883652,0.43935513,0.59196603,0.9255924,0.997675,1.530439,1.061822,0.35319182,1.5013013,0.2878951,1.2961717,1.5824387,1.3826658,1.295734,0.60429555,0.29333934,1.3724415,1.1484034,0.65284115,0.88335484,0.17201595,0.40576884,0.8279256,0.48110098,0.81026846,1.3381146,0.900074,0.44521132,0.4014591,1.0301392,0.83740294,0.5483124,0.3797022,1.1384948,1.3349802,0.54157376,0.888413,1.2020737,0.6218277,1.456758,1.2233503,0.02260285,0.45221627,1.3712013,-0.002370561,1.0519395,0.6121672,0.5123818,0.42903975,0.6414773,0.94074035,0.85617,1.4122471,1.5760919,1.7339437,0.9093527,1.3703091,0.95292425,1.6707224,1.2343636,1.0289645,0.7073084,0.6310949,0.92924803,0.65949917,0.06750346,1.0005221,1.6850581,1.1818923,0.94280577,1.8708147,0.33145085,0.7819997,0.61417514,0.097605355,-0.15574104,0.021864733,1.2823757,0.17799214,1.2889489,1.2256123,-0.093650505,0.16380982,1.1390642,1.2750117,0.69294834,0.5566348,0.5796645,0.9217669,0.6196794,0.6066301,1.1455624,1.0592809,0.36647353,0.70272946,1.3262811,1.0275053,0.5062778,1.2756029,1.02959,0.9818699,0.909018,-0.004674557,0.53078675,1.1368445,0.9453506,0.10859927,1.135758,1.1183405,1.0034904,0.5828044,0.5243493,1.6242194,1.3181871,1.0026879,0.96252984,0.9697628,0.9604136,1.3995682,0.40226072,1.8249828,1.2242663,0.757266,0.62272286,1.3998648,1.2293102,0.9445804,1.3608426,0.94565266,-0.06188199,0.67814374,0.37871832,1.0752974,1.7924529,1.1669183,1.2285058,2.0221028,1.3134482,1.5218916,0.5616093,0.52889365,0.61660737,1.4748286,0.27338636,0.5045974,1.5588357,1.0549248,0.44308648,0.93161315,1.4839045,1.0938181,0.71868664,1.4871287,0.7858085,2.007926,1.1155685,0.3390944,0.6384327,1.3850569,0.6143184,0.09881906,0.7356652,-0.011450634,0.5126204,0.6236498,0.3172726,1.2161754,1.6618764,1.1689624,1.3136427,0.98728454,1.7171974,1.4205358,0.6219542,1.2747942,1.4311329,1.0621729,0.21744047,1.5931128,1.4650686,1.1336904,0.70394117,1.3084596,1.5594614,1.2150339,0.9120177,0.64238715,0.67909414,-0.06217266,0.56621057,1.6676722,1.3488783,1.1709808,1.6334041,0.35205492,1.8664201,0.32936814,0.6277064,1.6082091,0.27612633,1.6452978,0.52535725,1.2346541,0.9939819,1.6044954,0.86702555,1.6393358,0.55518055,1.5663065,0.6056916,0.68955845,-0.06678979,1.6762887,0.1327015,0.35366204,0.13153183,0.3006514,0.10360231,1.1789596,0.80442077,0.7615214,0.989422,1.3222258,1.4713155,0.9306766,1.2641376,1.6275184,1.0425054,0.589779,1.0534309,0.8706381,1.2746991,1.1398776,0.22404982,0.18810238,0.798386,0.9920216,0.47073868,1.5395117,1.3929175,0.37879562,1.2310832,1.2300018,1.6753644,1.5526739,1.4381661,1.3849621,1.3927226,1.2329341,0.67797774,0.8797408,0.54601103,0.9865352,0.84565336,1.6718329,1.3283311,1.3369746,1.1400733,0.27276847,1.3926426,1.3941063,1.644215,0.70794815,0.73705065,1.6081046,1.5895846,1.8428059,0.5541865,1.4840323,0.5460532,1.4177521,1.0919523,0.8954001,0.8386262,1.628915,0.10839595,1.0829084,1.6732678,-0.12658179,1.0540084,1.0258007,-0.11792079,1.4236401,1.4104011,1.0698892,0.6081617,0.5841568,1.4027498,0.037908863,1.1644688,0.9166071,0.0411221,1.8779957,1.274064,0.34527624,0.5122494,0.7953763,0.03937701,1.2831079,0.06675605,0.74873114,1.456682,1.3312074,1.2519561,1.3749582,0.43597227,1.3507574,0.46746564,1.3693953,0.5957255,0.3696366,0.88124144,1.2332373,0.20535038,1.0058379,1.6365426,1.3438,1.5677825,1.6750443
0,0,0,0,0,0,0,0,0,0,0,0,0,0,0,0,0,0,0,0,0,0,0,0,0,0,0,0,0,0,0,0,0,0,0,0,0,0,0,0,0,0,0,0,0,0,0,0,0,0,0,0,0,0,0,0,0,0,0,0,0,0,0,0,0,0,0,0,0,0,0,0,0,0,0,0,0,0,0,0,0,0,0,0,0,0,0,0,0,0,0,0,0,0,0,0,0,0,0,0,0,0,0,0,0,0,0,0,0,0,0,0,0,0,0,0,0,0,0,0,0,0,0,0,0,0,0,0,0,0,0,0,0,0,0,0,0,0,0,0,0,0,0,0,0,0,0,0,0,0,0,0,0,0,0,0,0,0,0,0,0,0,0,0,0,0,0,0,0,0,0,0,0,0,0,0,0,0,0,0,0,0,0,0,0,0,0,0,0,0,0,0,0,0,0,0,0,0,0,0,0,0,0,0,0,0,0,0,0,0,0,0,0,0,0,0,0,0,0,0,0,0,0,0,0,0,0,0,0,0,0,0,0,0,0,0,0,0,0,0,0,0,0,0,0,0,0,0,0,0,0,0,0,0,0,0,0,0,0,0,0,0,0,0,0,0,0,0,0,0,0,0,0,0,0,0,0,0,0,0,0,0,0,0,0,0,0,0,0,0,0,0,0,0,0,0,0,0,0,0,0,0,0,0,0,0,0,0,0,0,0,0,0,0,0,0,0,0,0,0,0,0,0,0,0,0,0,0,0,0,0,0,0,0,0,0,0,0,0,0,0,0,0,0,0,0,0,0,0,0,0,0,0,0,0,0,0,0,0,0,0,0,0,0,0,0,0,0,0,0,0,0,0,0,0,0,0,0,0,0,0,0,0,0,0,0,0,0,0,0,0,0,0,0,0,0,0,0,0,0,0,0,0,0,0,0,0,0,0,0,0,0,0,0,0,0,0,0,0,0,0,0,0,0,0,0,0,0,0,0,0,0,0,0,0,0,0,0,0,0,0,0,0,0,0,0,0,0,0,0,0,0,0,0,0,0,0,0,0,0,0,0,0,0,0,0,0,0,0,0,0,0,0,0,0,0,0,0,0,0,0,0,0,0,0,0,0,0,0,0,0,0,0,0,0,0,0,0,0,0
0,0,0,0,0,0,0,0,0,0,0,0,0,0,0,0,0,0,0,0,0,0,0,0,0,0,0,0,0,0,0,0,0,0,0,0,0,0,0,0,0,0,0,0,0,0,0,0,0,0,0,0,0,0,0,0,0,0,0,0,0,0,0,0,0,0,0,0,0,0,0,0,0,0,0,0,0,0,0,0,0,0,0,0,0,0,0,0,0,0,0,0,0,0,0,0,0,0,0,0,0,0,0,0,0,0,0,0,0,0,0,0,0,0,0,0,0,0,0,0,0,0,0,0,0,0,0,0,0,0,0,0,0,0,0,0,0,0,0,0,0,0,0,0,0,0,0,0,0,0,0,0,0,0,0,0,0,0,0,0,0,0,0,0,0,0,0,0,0,0,0,0,0,0,0,0,0,0,0,0,0,0,0,0,0,0,0,0,0,0,0,0,0,0,0,0,0,0,0,0,0,0,0,0,0,0,0,0,0,0,0,0,0,0,0,0,0,0,0,0,0,0,0,0,0,0,0,0,0,0,0,0,0,0,0,0,0,0,0,0,0,0,0,0,0,0,0,0,0,0,0,0,0,0,0,0,0,0,0,0,0,0,0,0,0,0,0,0,0,0,0,0,0,0,0,0,0,0,0,0,0,0,0,0,0,0,0,0,0,0,0,0,0,0,0,0,0,0,0,0,0,0,0,0,0,0,0,0,0,0,0,0,0,0,0,0,0,0,0,0,0,0,0,0,0,0,0,0,0,0,0,0,0,0,0,0,0,0,0,0,0,0,0,0,0,0,0,0,0,0,0,0,0,0,0,0,0,0,0,0,0,0,0,0,0,0,0,0,0,0,0,0,0,0,0,0,0,0,0,0,0,0,0,0,0,0,0,0,0,0,0,0,0,0,0,0,0,0,0,0,0,0,0,0,0,0,0,0,0,0,0,0,0,0,0,0,0,0,0,0,0,0,0,0,0,0,0,0,0,0,0,0,0,0,0,0,0,0,0,0,0,0,0,0,0,0,0,0,0,0,0,0,0,0,0,0,0,0,0,0,0,0,0,0,0,0,0,0,0,0,0,0,0,0,0,0,0,0,0,0,0,0,0,0,0,0,0,0,0,0,0,0,0,0,0,0,0,0,0,0
0,0,0,0,0,0,0,0,0,0,0,0,0,0,0,0,0,0,0,0,0,0,0,0,0,0,0,0,0,0,0,0,0,0,0,0,0,0,0,0,0,0,0,0,0,0,0,0,0,0,0,0,0,0,0,0,0,0,0,0,0,0,0,0,0,0,0,0,0,0,0,0,0,0,0,0,0,0,0,0,0,0,0,0,0,0,0,0,0,0,0,0,0,0,0,0,0,0,0,0,0,0,0,0,0,0,0,0,0,0,0,0,0,0,0,0,0,0,0,0,0,0,0,0,0,0,0,0,0,0,0,0,0,0,0,0,0,0,0,0,0,0,0,0,0,0,0,0,0,0,0,0,0,0,0,0,0,0,0,0,0,0,0,0,0,0,0,0,0,0,0,0,0,0,0,0,0,0,0,0,0,0,0,0,0,0,0,0,0,0,0,0,0,0,0,0,0,0,0,0,0,0,0,0,0,0,0,0,0,0,0,0,0,0,0,0,0,0,0,0,0,0,0,0,0,0,0,0,0,0,0,0,0,0,0,0,0,0,0,0,0,0,0,0,0,0,0,0,0,0,0,0,0,0,0,0,0,0,0,0,0,0,0,0,0,0,0,0,0,0,0,0,0,0,0,0,0,0,0,0,0,0,0,0,0,0,0,0,0,0,0,0,0,0,0,0,0,0,0,0,0,0,0,0,0,0,0,0,0,0,0,0,0,0,0,0,0,0,0,0,0,0,0,0,0,0,0,0,0,0,0,0,0,0,0,0,0,0,0,0,0,0,0,0,0,0,0,0,0,0,0,0,0,0,0,0,0,0,0,0,0,0,0,0,0,0,0,0,0,0,0,0,0,0,0,0,0,0,0,0,0,0,0,0,0,0,0,0,0,0,0,0,0,0,0,0,0,0,0,0,0,0,0,0,0,0,0,0,0,0,0,0,0,0,0,0,0,0,0,0,0,0,0,0,0,0,0,0,0,0,0,0,0,0,0,0,0,0,0,0,0,0,0,0,0,0,0,0,0,0,0,0,0,0,0,0,0,0,0,0,0,0,0,0,0,0,0,0,0,0,0,0,0,0,0,0,0,0,0,0,0,0,0,0,0,0,0,0,0,0,0,0,0,0,0,0,0,0,0,0
0,0,0,0,0,0,0,0,0,0,0,0,0,0,0,0,0,0,0,0,0,0,0,0,0,0,0,0,0,0,0,0,0,0,0,0,0,0,0,0,0,0,0,0,0,0,0,0,0,0,0,0,0,0,0,0,0,0,0,0,0,0,0,0,0,0,0,0,0,0,0,0,0,0,0,0,0,0,0,0,0,0,0,0,0,0,0,0,0,0,0,0,0,0,0,0,0,0,0,0,0,0,0,0,0,0,0,0,0,0,0,0,0,0,0,0,0,0,0,0,0,0,0,0,0,0,0,0,0,0,0,0,0,0,0,0,0,0,0,0,0,0,0,0,0,0,0,0,0,0,0,0,0,0,0,0,0,0,0,0,0,0,0,0,0,0,0,0,0,0,0,0,0,0,0,0,0,0,0,0,0,0,0,0,0,0,0,0,0,0,0,0,0,0,0,0,0,0,0,0,0,0,0,0,0,0,0,0,0,0,0,0,0,0,0,0,0,0,0,0,0,0,0,0,0,0,0,0,0,0,0,0,0,0,0,0,0,0,0,0,0,0,0,0,0,0,0,0,0,0,0,0,0,0,0,0,0,0,0,0,0,0,0,0,0,0,0,0,0,0,0,0,0,0,0,0,0,0,0,0,0,0,0,0,0,0,0,0,0,0,0,0,0,0,0,0,0,0,0,0,0,0,0,0,0,0,0,0,0,0,0,0,0,0,0,0,0,0,0,0,0,0,0,0,0,0,0,0,0,0,0,0,0,0,0,0,0,0,0,0,0,0,0,0,0,0,0,0,0,0,0,0,0,0,0,0,0,0,0,0,0,0,0,0,0,0,0,0,0,0,0,0,0,0,0,0,0,0,0,0,0,0,0,0,0,0,0,0,0,0,0,0,0,0,0,0,0,0,0,0,0,0,0,0,0,0,0,0,0,0,0,0,0,0,0,0,0,0,0,0,0,0,0,0,0,0,0,0,0,0,0,0,0,0,0,0,0,0,0,0,0,0,0,0,0,0,0,0,0,0,0,0,0,0,0,0,0,0,0,0,0,0,0,0,0,0,0,0,0,0,0,0,0,0,0,0,0,0,0,0,0,0,0,0,0,0,0,0,0,0,0,0,0,0,0,0,0,0,0,0
0.77001476,0.6545287,0.48468333,0.488369,0.24160402,0.5280543,0.30097926,0.323643,0.70368636,0.55504984,0.47506592,0.24298017,0.22590946,0.42662522,0.46918058,0.7365393,0.3984468,0.19723617,0.360287,0.36423585,0.74915713,0.33463448,0.82720524,0.6523493,0.6849372,0.4060314,0.6559686,0.88640517,0.4391688,0.47151116,0.6243548,0.55683655,0.55654883,0.4643293,0.31957528,0.69993263,0.6983275,0.4408366,0.6726866,0.62298036,0.30349177,0.69380736,0.22319189,0.16682953,0.41462764,0.72140414,0.4473297,0.112286136,0.7976603,0.21044286,0.6842556,0.82870185,0.39798698,0.6434916,0.20553118,0.76667255,0.60254246,0.4183831,0.39941385,0.6291899,0.4075908,0.48345506,0.5222823,0.87001044,0.48382863,0.281337,0.19523042,0.79142094,0.26570362,0.5402616,0.8090867,0.83338875,0.4613165,0.46403852,0.61696607,0.5034464,0.57449096,0.49994674,0.7159954,0.536726,0.5863345,1.0348406,0.730638,0.7516524,0.8226449,0.4872386,0.6568473,0.5615809,0.30933422,0.26871023,0.32763782,0.44447592,0.74090075,0.3284006,0.7604055,0.9343354,0.3646297,0.7058166,0.5144659,0.7788767,0.53732204,0.68969125,0.698983,0.4656483,0.574453,0.51856434,0.41970348,0.48617455,0.38866538,0.5082438,0.32386512,0.7141168,0.7003401,0.69395167,0.23238115,0.38549966,0.64736766,0.43524534,0.7325142,0.71638113,0.75287604,0.76675856,0.38427556,0.68773687,0.25408974,0.79868716,0.53847337,0.35582456,0.4327573,0.35806835,0.22967175,0.57155687,0.3543644,0.41333854,0.27424952,0.84940994,0.56846493,0.5475597,0.34509867,0.45997477,0.37532112,0.5915257,0.47402802,0.32663533,0.4982078,0.8022623,0.38662946,0.4363504,0.86839527,0.5074678,0.3869237,0.749388,0.37740472,0.79156464,0.8236063,0.54474676,0.15781775,0.18650891,0.529257,0.45104876,0.45165196,0.44185808,0.5627729,0.2945581,0.5459757,0.90194756,0.74182516,0.50196797,0.16241212,0.44470283,0.24168698,0.5222177,0.49832356,0.61833507,0.7880505,0.2921211,0.43748075,0.3774959,0.88630104,0.56221694,0.6497852,0.46158287,0.77062255,0.68546265,0.6278163,0.41079304,0.33648798,0.76890963,0.6820329,0.39988223,0.7903531,0.7998676,0.16505246,0.6579835,0.5822233,0.85729146,0.6004241,0.437119,0.34151137,0.7883468,0.39242145,0.33439884,0.56473804,0.41549748,0.71685255,0.5253247,0.4661163,0.54302144,0.7690414,0.34317166,0.3770214,0.5452067,0.91155154,0.6671463,0.46982646,0.78113765,0.57368386,0.43174532,0.81434155,0.49011698,0.9705459,0.48282048,0.7890115,0.48209417,0.6126761,0.80449605,0.7826279,0.6057583,0.69023836,0.17547643,0.37235084,0.7958682,0.680569,0.56268096,0.5918303,0.7638253,0.39071658,0.6755002,0.40813774,0.36264876,0.7836214,0.5775608,0.37707582,0.68943685,0.46267793,0.28680053,0.79805154,0.497234,0.7107987,0.63478935,0.5980993,0.6692389,0.8766764,0.7245208,0.38378906,0.6777301,0.36813867,0.4774152,0.760064,0.55106413,0.3344581,0.63785183,0.9226597,0.49744096,0.58379245,0.7673589,0.33126998,0.541667,0.70999396,0.3380247,0.6606068,0.49811727,0.7296869,0.48939237,0.6278497,0.43404448,0.84461135,0.55775666,0.3937599,0.46255407,0.87962526,0.88689375,0.5873254,0.3178191,0.16029973,0.533417,0.87343675,0.06590345,0.5066697,0.7023503,0.6112817,0.3226807,0.13505167,0.5120145,0.449655,0.26651898,0.39867622,0.6957908,0.7647442,0.7419661,0.40181768,0.6783743,0.6555995,0.73214036,0.8628692,0.6188588,0.7142337,0.31230795,0.43656236,0.81900114,0.6462553,0.18732373,0.37285686,0.23758724,0.82206035,0.67912346,0.4857288,0.9153237,0.6520378,0.45407844,0.6867793,0.739753,0.8050419,0.39442706,0.7189357,0.256228,0.43057093,0.7863199,0.5755069,0.3824958,0.24601395,0.57450294,0.6546596,0.80279076,0.33840862,0.70752996,0.6696108,0.60083294,0.48583934,0.65933293,0.47343323,0.4098023,0.24855289,0.99668854,0.7390787,0.9394448,0.8166779,0.48394993,0.64880276,0.25312722,0.8218436,0.8474623,0.58385915,0.6232148,0.77923733,0.45067784,0.91782254,0.74295205,0.71794575,0.22442412,0.35585952,0.59141743,0.8606935,0.49417025,0.729538,0.39203045,0.67532176,0.5643612,0.7587975,0.41319156,0.75852764,0.8608906,0.7107995,0.5066994,0.37738857,0.25186113,0.25252002,0.9403138,0.75451934,0.519842,0.61381876,0.39106944,0.5171992,0.8127911,0.53778446,0.25582334,0.4190254,0.54000914,0.4311421,0.85151976,0.5399366,0.68686175,0.64567274,0.32292837,0.8288477,0.70367986,0.5875815,0.81231517,0.47366562,0.7090084,0.7723859,0.40909642,0.7101444,0.26404116,0.7728604,0.5950447,0.4704868,0.86058205,0.76502377,0.26973218,0.5846547,0.31629425,0.43070346,0.20692335,0.6200989,0.70201635,0.81033444,0.6376984,0.5468076,0.25116062,0.5621101,0.5201053,0.4374091,0.5563415,0.5144799,0.37806642,0.24181446,0.8338631,0.12636383,0.774533,0.69235474,0.43030742,0.42176604,0.4700868,0.5214929,0.4555364,0.52086484,0.7185322,0.5307324,0.38888904,0.47742593,0.6009665,0.57010865,0.7318948,0.5225458,0.6333114,0.36319077,0.51274997,0.2565666,0.35477817,0.65136427,0.27667865,0.3810044,0.43256357,0.3202138,0.16911677,0.7887561,0.26747867,0.6244685,0.2772668,0.36719343,0.83518994,0.64598095,0.63957876,0.65652966,0.7776531,0.21442239,0.47353265,0.40798247,0.721574,0.6168045,0.5031926,0.3141111,0.71581805,0.3689069,0.76561135,0.22917642,0.9167027,0.72738165,0.26120567,0.9276959,0.5254413,0.32593477,0.69094396,0.4325752,0.7258353,0.41998,0.39222986,0.49600193,0.6655444,0.44489595,0.28558242,0.5364878,0.7976941,0.53906953,0.27836442,0.35377303,0.67419857,0.40371808,0.6070406
0.25333717,0.21280588,0.38396227,0.15450643,0.5226477,0.16427317,0.17851503,0.040162593,0.21162915,0.48625344,0.15061355,0.19053154,-0.06208415,0.22706543,0.5374686,0.006321549,0.60445076,0.39873222,0.13470852,0.09371241,-0.18781751,0.3789968,0.22673653,0.17824137,-0.036671508,-0.004705097,-0.08671626,0.38470116,-0.1663649,-0.20804276,-0.114447996,0.33576593,0.109268844,-0.049238984,0.047196902,0.08498622,0.20285472,-0.033949543,0.18157257,0.014404279,-0.08244045,-0.16131546,0.17905983,0.19503988,0.087425634,0.010764245,0.4178801,0.04187541,0.07608301,0.35478094,0.033988148,-0.007541732,0.38732243,0.40082273,0.21713994,0.27505487,-0.1640952,0.16858788,0.031194087,0.18611594,-0.06272934,0.14611872,0.14530016,0.27942628,0.29598793,0.17634726,0.32011282,0.12575041,-0.020938843,-0.02439631,-0.060431194,0.5053666,0.22706786,0.30252564,0.17879172,0.24872994,0.035954688,0.12609267,0.16874713,-0.040752105,0.25752136,0.12868422,-0.11868858,0.009824289,-0.23043674,0.37477595,0.33853656,-0.019237924,0.1850445,-0.14536536,0.30696633,0.14797166,0.40910557,0.22233586,-0.01917935,0.494981,0.02629339,0.056506105,0.20462644,0.01589698,0.31434718,0.12947346,0.27035823,0.050359145,-0.06067807,0.3232543,0.14865775,0.3425349,0.13982278,0.2766194,0.211112,-0.11233233,0.121801384,0.21094787,-0.043948624,0.39750835,0.14494275,0.08845437,0.14558567,0.23294646,-0.009708439,0.24250437,0.30401886,0.24130845,0.3733099,-0.06953015,0.10572028,0.021654576,0.21300557,0.22607394,0.32812327,0.037228744,0.07038286,0.09127238,-0.14124075,0.4664517,0.026334388,0.39732498,-0.11195235,0.51454026,0.03984998,0.29038304,0.18111594,0.058941238,0.26763198,0.41579315,-0.052233417,-0.1323058,0.15605198,0.10624442,0.31313968,0.21012725,0.16924211,0.13850105,0.33543018,0.22770056,0.06534667,0.28517297,0.39462098,-0.07761877,0.1599922,0.046368886,0.06274559,0.1451469,0.3901208,0.064313814,0.43246236,0.10691985,0.08059999,0.022108492,-0.002434562,-0.010103985,-0.17511208,-0.08923464,0.2923448,0.030701866,-0.13133253,0.16913864,0.12143645,0.3026136,0.35587612,-0.094164684,-0.13412763,0.35407734,0.07500893,0.2675446,0.1562276,0.3999747,-0.22964948,0.38249466,0.05922488,0.11269502,0.27681538,-0.011759464,0.00873111,0.19074862,-0.14238319,0.24289879,0.13075131,-0.007065904,-0.17143527,0.11086949,0.5309079,0.18363717,0.34859303,0.16199538,0.30132887,0.046772163,-0.08030722,0.4728957,0.22319199,0.36318678,0.42212695,0.2858481,0.33083233,0.3183257,0.28882936,0.022459965,0.19437915,0.08623714,0.41238552,0.2240809,0.11070258,0.2773812,-0.08246863,0.06996944,-0.09008436,0.36660433,0.23071092,0.18421379,0.1646255,0.3140245,0.45537505,0.362713,0.108565845,0.22316371,0.30458966,-0.058833856,0.2306945,-0.09622445,0.0535698,0.22642505,0.0713486,-0.08870232,0.17116676,0.0314192,0.2662486,0.261528,0.23641469,0.2289573,-0.10892693,-0.14445059,0.44723028,0.04019771,-0.0726449,0.021813858,0.051050153,0.20365389,0.14957029,0.3633061,-0.0374374,0.003601126,0.073662065,0.10416292,-0.04790549,0.14955992,0.15859847,0.23307417,0.18845518,0.05154098,-0.02143091,0.040999312,0.11637952,-0.012781398,0.21442597,0.20782235,0.08278967,0.16941269,0.3576783,0.079049796,0.22212678,0.03848398,0.017711826,0.042431306,0.12761515,0.20783892,0.2978907,-0.014303925,-0.15011893,-0.08225508,0.28954425,0.35612848,-0.22692977,0.35632312,-0.037207805,0.38348195,0.13972464,0.037760977,0.31373218,-0.11875017,-0.07656669,0.002054221,0.36857584,0.15689358,0.22577655,0.11970405,-0.10568315,0.3106809,0.42910722,0.30399552,-0.011930311,0.13829197,0.3346017,0.26153088,0.07756473,0.33100504,0.3629637,0.36578104,0.13453855,-0.08016917,-0.07668957,0.22596982,0.16061866,0.07918085,0.35540745,0.26197168,0.3062504,-0.061123602,-0.045051232,0.15210368,0.21827742,0.25907573,0.1676085,0.16981013,0.116676815,-0.10236234,0.4687849,0.42366758,0.26283458,0.26772425,-0.06553729,-0.059108924,0.5124016,0.34379357,0.32480755,0.10503153,0.09503567,0.34396788,-0.006200751,0.18267728,0.18400899,0.4308739,0.3835099,0.053004526,-0.06848913,-0.09606617,0.46009386,0.17138109,0.25982535,-0.068989165,-0.011239617,0.03517021,0.30719647,0.116050355,0.021829836,-0.06869749,-0.11772133,-0.047104977,0.25819105,-0.0397291,0.09916417,0.25679165,0.11350242,-0.042494986,-0.08379929,0.26180717,0.5335197,0.20028988,-0.15796997,0.41927424,0.117248274,0.16940945,-0.14597712,0.13086168,0.12452626,0.03150872,0.2159676,0.12512961,0.21911792,0.18830289,0.1559772,-0.029584728,-0.036074832,0.17177236,0.44583887,-0.13907088,0.13033244,0.023925286,0.0723789,0.29309195,0.3792964,0.26068932,0.027125822,0.16117291,0.067960225,0.4187838,-0.08798832,0.2909562,-0.013121034,0.26477045,-0.16392443,0.3997849,0.14497933,0.36264852,-0.047009483,0.27639052,0.30441856,0.10492198,-0.09751763,0.2277115,0.05707857,0.45805266,0.13011536,0.117461905,0.51610833,-0.001091245,-0.09276062,0.19138905,0.43971002,0.2407408,0.41205984,0.37516135,0.44284648,0.24906786,0.08355423,0.103762984,0.3523057,0.005429331,0.31845647,-0.2045069,0.2367706,0.3442699,0.08072617,0.42424288,0.124562025,0.17850588,0.13203532,0.07343172,-0.023088608,0.5224628,0.2433312,0.12151485,0.09492931,0.012724415,0.26746574,-0.04481512,0.16209435,-0.042260304,-0.010622058,0.1595313,0.3887731,0.02839974,0.24600476,-0.04497976,-0.02086399,0.23715194,-0.09499297,0.16930807,0.47612906,0.36130545,0.16611251,0.07389756,-0.0601762,-0.14700495,0.30865917,-0.2588062,0.43257108,0.49203926,0.3316252,-0.24685633,0.24863543,0.38667127,0.4174925,0.17779177,0.5813685,0.57941616,0.27562812,0.12761311,0.22126482,0.07054625,0.29927027,0.40875992,0.008702186,0.36243436,0.2723812,-0.0652993,0.20647871,0.14949127,0.036726616,-0.020642778
0.18647796,0.23709735,-0.080917805,0.16320817,0.27295703,0.12171941,-0.2469042,0.1252868,0.17093007,0.17519432,-0.105744444,-0.018789647,-0.054480515,0.01947914,0.57149696,0.03797574,0.16303593,0.000105533,0.09687243,0.30695188,0.3225187,0.44605166,-0.10755425,0.042695656,-0.10150025,0.24419828,0.16947351,-0.09385699,-0.0641837,0.16754016,0.1334811,0.49939546,0.12116962,0.20720698,-0.062380377,0.21517771,0.4584649,0.33858576,0.084344625,0.029543225,0.08137687,0.011142651,0.5008823,0.076475784,0.3909682,0.25215784,-0.06974639,-0.2856065,0.063538626,0.2592634,0.031026118,-0.01814177,-0.256197,0.11411909,-0.050249618,0.13423538,0.057614777,0.1754432,-0.030500924,0.03367242,-0.1953163,0.06713652,0.40007773,0.029355468,0.3357654,-0.03850807,0.1729213,0.34566844,-0.035419874,0.21204498,0.17749164,0.2792487,0.08742314,0.47513103,0.09339365,-0.01377169,0.064613044,0.112043284,0.15988903,0.20622261,0.3549496,0.23211926,-0.007039949,0.056767114,0.29358163,0.3739101,0.031838838,-0.1775593,0.21170558,0.47827014,0.068534635,0.26791576,-0.18361641,0.29789728,-0.08538741,-0.1383577,0.05215878,-0.05447925,-0.063954756,0.28668976,-0.02442091,0.20162417,0.43558964,0.2477184,0.037401278,0.16763376,0.17437454,0.21845865,0.21699437,-0.007535164,0.10628708,0.37382093,-0.06377174,0.14493462,0.029891722,0.31376293,0.19821183,0.037106052,0.32299364,0.3647816,0.11427156,0.25337955,0.09646474,0.19862276,-0.015417999,0.1938759,0.16050586,0.42550159,0.012325069,0.3064977,-0.05735155,0.002656095,-0.1260207,-0.07797294,0.32566,-0.074345574,0.3576929,0.25319433,0.13596983,0.10959627,-0.021493455,-0.10922472,0.43144986,-0.075033985,0.13959563,-0.013542791,-0.022378195,0.03407009,0.19682042,-0.17023966,-0.029646864,0.29040778,0.42608756,0.146533,0.16608469,-0.120648354,0.17979655,0.24366327,0.003084249,-0.058367666,0.26262322,0.32806322,0.29722166,0.09932575,0.009823842,-0.13382307,0.01914685,0.1245745,0.23355916,0.24131297,0.45270154,0.06475912,0.3381019,0.08930743,-0.11769432,0.12687518,0.34176865,0.33246252,0.13183631,0.3602336,-0.058648102,0.3886222,-0.18960057,0.2602747,0.25636393,0.1923937,0.19632618,0.02132052,-0.008717146,-0.06368073,0.06926785,0.22709404,0.28055826,0.018172232,0.1734757,0.044221167,0.06336113,-0.016464839,0.08524689,0.2826291,0.015671358,0.31618097,0.40556148,-0.053875133,0.29286078,0.33570552,-0.06748897,0.081892036,-0.027011026,0.20858862,0.25682437,0.15851885,0.32848895,0.2278236,-0.18355162,0.23861097,0.10890292,0.06360281,-0.1629918,0.28645167,0.1432495,-0.1929311,0.14955305,0.61197144,-0.07900173,0.2716566,0.15178376,0.008985429,0.06738878,0.13825768,0.18582578,-0.15074544,0.07143535,-0.06506664,0.22466287,0.22649884,-0.13113153,0.2935403,0.18459667,0.13992375,-0.028839469,0.05542899,0.34032714,0.22263871,0.52416146,0.13759774,-0.13799985,-0.07008401,0.3314499,-0.045015104,-0.2221805,-0.06771238,0.3145431,0.14743648,0.1736682,0.0769232,-0.2092216,-0.084763095,-0.24973358,0.14497755,0.010746625,-0.006341639,0.23060372,0.086704716,0.24509172,-0.025172118,-0.14253569,0.07737209,0.15681055,0.2356694,0.24579163,0.23860587,0.10268116,-0.019122144,0.2097514,-0.10506428,0.124296315,-0.11090088,0.17440571,0.2057339,0.007428204,-0.15432163,0.17079508,0.090270795,-0.00689339,-0.006203743,0.30613437,0.19340652,0.37480652,-0.20400706,0.29312423,0.016989732,0.1932178,0.20410872,0.12866664,0.47874317,-0.14065902,0.18779951,0.35776463,0.19459508,-0.034806285,-0.06436684,-0.058279667,0.22519547,0.33773732,0.3282817,-0.08863983,0.35520977,0.36826462,0.3206968,-0.25001964,0.31280333,0.073655576,-0.1284682,0.22267494,0.24409333,0.210582,-0.25857422,0.20826939,0.1570842,0.36264402,-0.021778852,-0.026351692,0.12015892,0.02908927,0.13502052,-0.18539205,0.29662198,-0.2175437,-0.20033205,0.057523392,0.14516672,0.035732917,0.37780058,0.3588954,-0.12021684,-0.17158325,0.34742406,-0.010285862,0.30777615,-0.024466572,0.16399866,0.32680815,0.36749652,0.20364751,0.15971242,-0.07171707,0.44434363,-0.08763101,0.1370775,-0.0949426,0.33962542,0.37493408,0.4331215,0.3919949,0.033480924,0.26546863,-0.041628778,0.28468758,-0.001042779,0.14958681,0.2795425,-0.13583697,0.009080194,0.08473594,0.43210435,0.014210237,0.27540746,0.20857023,0.2341474,0.022584178,-0.060810447,-0.11913326,0.12841888,0.0511098,0.46929017,0.17167297,-0.07897912,0.050651092,-0.27045593,0.09256368,0.13725118,-0.07455344,-0.1236702,0.04047922,0.09649478,0.27901366,0.23087633,-0.16125937,-0.32932535,0.36005634,0.31987914,0.23911706,0.3112336,-0.021745322,0.26599807,0.12757377,0.029105728,0.19173017,0.10902904,0.25835678,-0.22307657,0.21083559,0.37701574,0.40998408,-0.15951681,0.19184762,0.41564688,0.37317213,-0.006642612,0.112286024,-0.20682962,0.070778474,0.22438619,0.16639426,-0.007686871,0.44377267,0.22233264,0.3443696,-0.16898344,-0.07124205,0.13990258,-0.16965969,0.46412978,0.12748347,-0.11924158,0.08475933,0.5442688,-0.19008586,-0.02684243,0.2548363,0.21191716,0.26818582,0.16503164,-0.035021808,-0.12396903,0.13271444,0.06899451,0.3516136,0.001539629,-0.027437963,0.31930745,-0.04578322,0.23913418,-0.17149918,-0.020280015,0.12954165,0.09964946,0.10819637,0.3371173,0.21970187,-0.093787804,0.089062706,0.25152698,-0.2774783,0.33174282,0.024330342,0.30556822,-0.13818435,0.05799256,0.0623132,0.10523874,0.43292788,0.15096755,0.10837937,0.073008165,0.1168915,0.40085205,-0.10201083,0.107506,0.03185605,0.27520794,0.40780756,-0.099090375,0.086137444,0.1248303,0.16174701,0.59497595,-0.036772575,0.29922047,0.2739045,-0.058280263,-0.004806786,-0.036775906,0.29245147,0.22565396,0.24590898,0.08169805,0.4419337,0.23259072,0.35534948,0.48889306,0.08675098,0.18219805,0.01152248,0.26654112,0.051866867,0.29486066,-0.075130306,0.080061935
0,0,0,0,0,0,0,0,0,0,0,0,0,0,0,0,0,0,0,0,0,0,0,0,0,0,0,0,0,0,0,0,0,0,0,0,0,0,0,0,0,0,0,0,0,0,0,0,0,0,0,0,0,0,0,0,0,0,0,0,0,0,0,0,0,0,0,0,0,0,0,0,0,0,0,0,0,0,0,0,0,0,0,0,0,0,0,0,0,0,0,0,0,0,0,0,0,0,0,0,0,0,0,0,0,0,0,0,0,0,0,0,0,0,0,0,0,0,0,0,0,0,0,0,0,0,0,0,0,0,0,0,0,0,0,0,0,0,0,0,0,0,0,0,0,0,0,0,0,0,0,0,0,0,0,0,0,0,0,0,0,0,0,0,0,0,0,0,0,0,0,0,0,0,0,0,0,0,0,0,0,0,0,0,0,0,0,0,0,0,0,0,0,0,0,0,0,0,0,0,0,0,0,0,0,0,0,0,0,0,0,0,0,0,0,0,0,0,0,0,0,0,0,0,0,0,0,0,0,0,0,0,0,0,0,0,0,0,0,0,0,0,0,0,0,0,0,0,0,0,0,0,0,0,0,0,0,0,0,0,0,0,0,0,0,0,0,0,0,0,0,0,0,0,0,0,0,0,0,0,0,0,0,0,0,0,0,0,0,0,0,0,0,0,0,0,0,0,0,0,0,0,0,0,0,0,0,0,0,0,0,0,0,0,0,0,0,0,0,0,0,0,0,0,0,0,0,0,0,0,0,0,0,0,0,0,0,0,0,0,0,0,0,0,0,0,0,0,0,0,0,0,0,0,0,0,0,0,0,0,0,0,0,0,0,0,0,0,0,0,0,0,0,0,0,0,0,0,0,0,0,0,0,0,0,0,0,0,0,0,0,0,0,0,0,0,0,0,0,0,0,0,0,0,0,0,0,0,0,0,0,0,0,0,0,0,0,0,0,0,0,0,0,0,0,0,0,0,0,0,0,0,0,0,0,0,0,0,0,0,0,0,0,0,0,0,0,0,0,0,0,0,0,0,0,0,0,0,0,0,0,0,0,0,0,0,0,0,0,0,0,0,0,0,0,0,0,0,0,0,0,0,0,0,0,0,0,0,0,0,0,0,0,0,0,0,0,0,0,0
0,0,0,0,0,0,0,0,0,0,0,0,0,0,0,0,0,0,0,0,0,0,0,0,0,0,0,0,0,0,0,0,0,0,0,0,0,0,0,0,0,0,0,0,0,0,0,0,0,0,0,0,0,0,0,0,0,0,0,0,0,0,0,0,0,0,0,0,0,0,0,0,0,0,0,0,0,0,0,0,0,0,0,0,0,0,0,0,0,0,0,0,0,0,0,0,0,0,0,0,0,0,0,0,0,0,0,0,0,0,0,0,0,0,0,0,0,0,0,0,0,0,0,0,0,0,0,0,0,0,0,0,0,0,0,0,0,0,0,0,0,0,0,0,0,0,0,0,0,0,0,0,0,0,0,0,0,0,0,0,0,0,0,0,0,0,0,0,0,0,0,0,0,0,0,0,0,0,0,0,0,0,0,0,0,0,0,0,0,0,0,0,0,0,0,0,0,0,0,0,0,0,0,0,0,0,0,0,0,0,0,0,0,0,0,0,0,0,0,0,0,0,0,0,0,0,0,0,0,0,0,0,0,0,0,0,0,0,0,0,0,0,0,0,0,0,0,0,0,0,0,0,0,0,0,0,0,0,0,0,0,0,0,0,0,0,0,0,0,0,0,0,0,0,0,0,0,0,0,0,0,0,0,0,0,0,0,0,0,0,0,0,0,0,0,0,0,0,0,0,0,0,0,0,0,0,0,0,0,0,0,0,0,0,0,0,0,0,0,0,0,0,0,0,0,0,0,0,0,0,0,0,0,0,0,0,0,0,0,0,0,0,0,0,0,0,0,0,0,0,0,0,0,0,0,0,0,0,0,0,0,0,0,0,0,0,0,0,0,0,0,0,0,0,0,0,0,0,0,0,0,0,0,0,0,0,0,0,0,0,0,0,0,0,0,0,0,0,0,0,0,0,0,0,0,0,0,0,0,0,0,0,0,0,0,0,0,0,0,0,0,0,0,0,0,0,0,0,0,0,0,0,0,0,0,0,0,0,0,0,0,0,0,0,0,0,0,0,0,0,0,0,0,0,0,0,0,0,0,0,0,0,0,0,0,0,0,0,0,0,0,0,0,0,0,0,0,0,0,0,0,0,0,0,0,0,0,0,0,0,0,0,0,0,0,0,0,0,0,0
0,0,0,0,0,0,0,0,0,0,0,0,0,0,0,0,0,0,0,0,0,0,0,0,0,0,0,0,0,0,0,0,0,0,0,0,0,0,0,0,0,0,0,0,0,0,0,0,0,0,0,0,0,0,0,0,0,0,0,0,0,0,0,0,0,0,0,0,0,0,0,0,0,0,0,0,0,0,0,0,0,0,0,0,0,0,0,0,0,0,0,0,0,0,0,0,0,0,0,0,0,0,0,0,0,0,0,0,0,0,0,0,0,0,0,0,0,0,0,0,0,0,0,0,0,0,0,0,0,0,0,0,0,0,0,0,0,0,0,0,0,0,0,0,0,0,0,0,0,0,0,0,0,0,0,0,0,0,0,0,0,0,0,0,0,0,0,0,0,0,0,0,0,0,0,0,0,0,0,0,0,0,0,0,0,0,0,0,0,0,0,0,0,0,0,0,0,0,0,0,0,0,0,0,0,0,0,0,0,0,0,0,0,0,0,0,0,0,0,0,0,0,0,0,0,0,0,0,0,0,0,0,0,0,0,0,0,0,0,0,0,0,0,0,0,0,0,0,0,0,0,0,0,0,0,0,0,0,0,0,0,0,0,0,0,0,0,0,0,0,0,0,0,0,0,0,0,0,0,0,0,0,0,0,0,0,0,0,0,0,0,0,0,0,0,0,0,0,0,0,0,0,0,0,0,0,0,0,0,0,0,0,0,0,0,0,0,0,0,0,0,0,0,0,0,0,0,0,0,0,0,0,0,0,0,0,0,0,0,0,0,0,0,0,0,0,0,0,0,0,0,0,0,0,0,0,0,0,0,0,0,0,0,0,0,0,0,0,0,0,0,0,0,0,0,0,0,0,0,0,0,0,0,0,0,0,0,0,0,0,0,0,0,0,0,0,0,0,0,0,0,0,0,0,0,0,0,0,0,0,0,0,0,0,0,0,0,0,0,0,0,0,0,0,0,0,0,0,0,0,0,0,0,0,0,0,0,0,0,0,0,0,0,0,0,0,0,0,0,0,0,0,0,0,0,0,0,0,0,0,0,0,0,0,0,0,0,0,0,0,0,0,0,0,0,0,0,0,0,0,0,0,0,0,0,0,0,0,0,0,0,0,0,0,0,0,0,0,0,0
0,0,0,0,0,0,0,0,0,0,0,0,0,0,0,0,0,0,0,0,0,0,0,0,0,0,0,0,0,0,0,0,0,0,0,0,0,0,0,0,0,0,0,0,0,0,0,0,0,0,0,0,0,0,0,0,0,0,0,0,0,0,0,0,0,0,0,0,0,0,0,0,0,0,0,0,0,0,0,0,0,0,0,0,0,0,0,0,0,0,0,0,0,0,0,0,0,0,0,0,0,0,0,0,0,0,0,0,0,0,0,0,0,0,0,0,0,0,0,0,0,0,0,0,0,0,0,0,0,0,0,0,0,0,0,0,0,0,0,0,0,0,0,0,0,0,0,0,0,0,0,0,0,0,0,0,0,0,0,0,0,0,0,0,0,0,0,0,0,0,0,0,0,0,0,0,0,0,0,0,0,0,0,0,0,0,0,0,0,0,0,0,0,0,0,0,0,0,0,0,0,0,0,0,0,0,0,0,0,0,0,0,0,0,0,0,0,0,0,0,0,0,0,0,0,0,0,0,0,0,0,0,0,0,0,0,0,0,0,0,0,0,0,0,0,0,0,0,0,0,0,0,0,0,0,0,0,0,0,0,0,0,0,0,0,0,0,0,0,0,0,0,0,0,0,0,0,0,0,0,0,0,0,0,0,0,0,0,0,0,0,0,0,0,0,0,0,0,0,0,0,0,0,0,0,0,0,0,0,0,0,0,0,0,0,0,0,0,0,0,0,0,0,0,0,0,0,0,0,0,0,0,0,0,0,0,0,0,0,0,0,0,0,0,0,0,0,0,0,0,0,0,0,0,0,0,0,0,0,0,0,0,0,0,0,0,0,0,0,0,0,0,0,0,0,0,0,0,0,0,0,0,0,0,0,0,0,0,0,0,0,0,0,0,0,0,0,0,0,0,0,0,0,0,0,0,0,0,0,0,0,0,0,0,0,0,0,0,0,0,0,0,0,0,0,0,0,0,0,0,0,0,0,0,0,0,0,0,0,0,0,0,0,0,0,0,0,0,0,0,0,0,0,0,0,0,0,0,0,0,0,0,0,0,0,0,0,0,0,0,0,0,0,0,0,0,0,0,0,0,0,0,0,0,0,0,0,0,0,0,0,0,0,0,0,0,0,0,0,0
0,0,0,0,0,0,0,0,0,0,0,0,0,0,0,0,0,0,0,0,0,0,0,0,0,0,0,0,0,0,0,0,0,0,0,0,0,0,0,0,0,0,0,0,0,0,0,0,0,0,0,0,0,0,0,0,0,0,0,0,0,0,0,0,0,0,0,0,0,0,0,0,0,0,0,0,0,0,0,0,0,0,0,0,0,0,0,0,0,0,0,0,0,0,0,0,0,0,0,0,0,0,0,0,0,0,0,0,0,0,0,0,0,0,0,0,0,0,0,0,0,0,0,0,0,0,0,0,0,0,0,0,0,0,0,0,0,0,0,0,0,0,0,0,0,0,0,0,0,0,0,0,0,0,0,0,0,0,0,0,0,0,0,0,0,0,0,0,0,0,0,0,0,0,0,0,0,0,0,0,0,0,0,0,0,0,0,0,0,0,0,0,0,0,0,0,0,0,0,0,0,0,0,0,0,0,0,0,0,0,0,0,0,0,0,0,0,0,0,0,0,0,0,0,0,0,0,0,0,0,0,0,0,0,0,0,0,0,0,0,0,0,0,0,0,0,0,0,0,0,0,0,0,0,0,0,0,0,0,0,0,0,0,0,0,0,0,0,0,0,0,0,0,0,0,0,0,0,0,0,0,0,0,0,0,0,0,0,0,0,0,0,0,0,0,0,0,0,0,0,0,0,0,0,0,0,0,0,0,0,0,0,0,0,0,0,0,0,0,0,0,0,0,0,0,0,0,0,0,0,0,0,0,0,0,0,0,0,0,0,0,0,0,0,0,0,0,0,0,0,0,0,0,0,0,0,0,0,0,0,0,0,0,0,0,0,0,0,0,0,0,0,0,0,0,0,0,0,0,0,0,0,0,0,0,0,0,0,0,0,0,0,0,0,0,0,0,0,0,0,0,0,0,0,0,0,0,0,0,0,0,0,0,0,0,0,0,0,0,0,0,0,0,0,0,0,0,0,0,0,0,0,0,0,0,0,0,0,0,0,0,0,0,0,0,0,0,0,0,0,0,0,0,0,0,0,0,0,0,0,0,0,0,0,0,0,0,0,0,0,0,0,0,0,0,0,0,0,0,0,0,0,0,0,0,0,0,0,0,0,0,0,0,0,0,0,0,0,0,0
0.8104562,0.63886124,0.95490915,0.4616729,0.61494076,0.56842,1.0698125,0.8866028,0.54254574,0.49532077,1.0255861,0.6276123,0.38060978,0.770316,0.9887133,0.8633469,0.79655784,0.8373268,0.8527535,0.8508944,0.65499306,0.872035,0.6732437,0.53748757,0.53505796,0.84291536,0.6988116,0.54164,0.74522746,0.49956945,0.57643366,0.6458499,0.84684086,0.5675375,0.79431456,0.8826737,0.71127486,0.7336505,0.60856545,0.9165723,0.861039,0.7326659,0.8216957,0.64995843,0.7599712,0.5183885,0.9347781,0.6105062,0.4343414,0.615267,0.5874157,0.822579,0.9458569,0.47203165,0.7219502,0.78321105,0.96314985,0.5714601,0.56889945,0.88371783,0.9911759,0.48465046,1.0727516,0.42409307,0.8249746,0.7051817,0.44791418,0.63901174,0.7821504,0.6603573,0.7213313,0.86309135,0.440904,0.6630021,0.56137276,1.0767733,0.7588571,1.0379562,0.43663532,0.72235066,0.65201545,0.6400852,0.67171055,0.8427108,0.754462,0.45687178,0.69467044,0.32922518,0.8327296,0.4014143,0.4824951,0.41783807,0.82774246,0.9195901,0.58651894,0.7430267,0.64342576,0.50656897,0.6619237,0.5221044,0.65209484,0.86432,0.95031613,0.7223746,0.6383255,0.81814754,0.7901244,0.7043471,0.7037759,0.48339534,0.4618685,0.4559361,0.8400648,0.63434225,0.8105443,0.7095674,0.6573806,0.7246883,0.6193804,0.7218159,0.5216748,0.2746457,0.641932,0.489986,0.44759357,0.86952484,0.55306333,0.76969284,0.82938755,0.7909636,0.81955624,0.4750541,0.736154,0.5507312,0.5498069,0.8471839,0.5141576,0.47982383,0.92306656,0.45873266,0.98189104,0.47628385,0.776589,0.551779,0.6908697,0.5175692,0.8359385,0.7957422,0.59320855,0.43880594,0.8551098,0.4753144,0.6420755,0.8312609,0.59985626,0.39589933,0.43537208,0.60955375,0.7725467,0.97617763,0.8038217,0.76673156,0.6507125,0.9081647,0.82155746,0.49069354,0.57418567,0.69068503,0.7738036,0.59101593,0.65586835,0.412821,0.5447865,0.86305666,0.6727918,0.47818208,0.40647808,0.9343406,0.7934603,0.6114466,0.54210305,0.9106436,0.47401282,0.3684247,0.88925844,0.86917496,0.9758261,0.62086856,0.7811072,0.49240264,0.6992238,1.016465,0.33324957,0.8775684,0.28238446,0.8380901,0.9716199,0.45441154,0.91587794,0.670446,0.8633067,0.54351604,0.72205526,0.5406904,0.4996038,0.8242147,0.72695065,0.7201544,0.7684747,0.87933296,0.4853672,0.377239,0.53733635,0.5186318,0.43816522,0.6566963,0.88438284,0.8448537,0.69113094,0.6537721,0.9411984,1.0245904,0.5360484,0.57177407,0.847563,0.4993651,0.9008684,0.5286463,0.6802717,0.4054327,0.5143556,0.6028759,0.86220586,0.7519533,0.41018274,0.95548517,0.6860289,0.46634683,0.6550924,0.8136095,0.914086,0.7307799,0.7681533,0.91183007,0.6425471,0.50785524,0.6376587,0.5937561,0.4730818,0.9056266,0.5813514,0.725159,0.8777914,0.91710854,0.7651566,0.36368477,0.64794594,0.56198305,0.6741266,0.5969298,0.34732103,0.7485155,0.8175497,0.823206,0.8670076,0.98475266,0.7379393,0.75581664,0.4207158,0.5687298,1.0172365,0.92575514,0.47993076,0.7946893,0.82493335,0.48772016,0.5965343,0.6474517,0.49326053,0.8011987,0.4734398,0.85512906,0.48499104,0.6668408,0.5453855,0.46732935,0.8672244,0.65144867,0.7197139,0.6436455,0.8977813,0.55025226,0.578165,0.6500535,0.81361926,0.8523152,0.41459784,0.5833713,0.8807778,0.60961306,0.92633766,0.63292944,0.46984604,0.916385,0.7539103,0.6685711,0.43039453,0.5456842,0.69566107,0.63225126,0.96046996,0.88635045,0.4732479,0.8380863,0.9001564,0.6385151,1.0031781,0.5090667,0.6970324,0.8655002,0.3566433,0.7553367,0.82285374,0.6166416,0.64964795,0.67990863,0.664094,0.31484273,0.6127894,0.45930195,0.41642293,0.84615934,0.7442914,0.7689926,0.7150051,0.4981124,0.90910316,0.5254562,0.6522261,0.9382265,0.4114975,0.36146858,0.91463727,0.6251988,0.7809193,0.4017357,0.74172074,0.9350544,0.81445605,0.644174,0.82138014,0.57247066,0.53912663,0.5793446,0.5092279,0.73455197,0.52578557,0.4972329,0.7568191,0.8914789,0.40520296,0.62239593,0.7207113,0.8883221,0.631157,0.85464054,0.58662885,0.5703303,0.42533568,0.49407277,0.6795885,0.8138708,0.843603,0.6296672,0.92368037,0.83397406,0.8786381,0.401441,0.901066,0.6371145,0.76675975,0.49063593,0.48454985,0.9603189,0.7081003,0.76377,0.4017228,0.9660239,0.7792249,0.95371056,0.7079111,0.7326686,0.4650318,0.8738817,0.54172313,1.0258045,0.6533389,0.7210985,0.86748403,0.8777782,0.47974208,0.54449326,0.6971965,0.6187319,0.69089967,0.99451476,0.8187748,0.53235817,0.4655119,0.74270576,0.55685127,0.72037214,0.6733645,0.5431418,0.6272256,0.3609254,0.36132893,0.87318873,0.4066923,0.6341778,0.5255386,0.50948286,0.35257804,0.7366923,0.7977414,0.40714848,0.47865173,0.5680105,0.7700685,0.90077245,0.60374725,0.66394335,1.1455702,0.67379236,0.9649366,0.5969244,0.82933,0.84578377,0.53401303,0.398748,0.7321157,0.9259045,0.38315836,0.4726853,0.46037903,0.8828189,0.60352165,0.8494137,0.5628653,0.7889972,1.0039448,0.69388324,0.6023437,0.8974159,0.4499247,0.72118163,0.47893003,0.83917767,0.85037214,0.888518,0.8395982,0.56082743,0.5995019,0.5096445,0.6712322,0.62578446,0.76433176,0.5500146,0.8992091,0.74515665,0.38972977,0.958963,0.934022,0.31360525,0.44442415,0.8216482,0.37845758,0.71687895,0.76404107,0.5088642,0.40412265,0.70601714,0.4584627,0.80112314,0.3000613,0.8194485,0.7692004,0.73421735,0.6232935,0.64014584,0.8299941,0.8980958,0.56649476,0.7767402,0.5459331,0.6938289,0.3325818,0.72199273,0.80514914,0.4596231
0,0,0,0,0,0,0,0,0,0,0,0,0,0,0,0,0,0,0,0,0,0,0,0,0,0,0,0,0,0,0,0,0,0,0,0,0,0,0,0,0,0,0,0,0,0,0,0,0,0,0,0,0,0,0,0,0,0,0,0,0,0,0,0,0,0,0,0,0,0,0,0,0,0,0,0,0,0,0,0,0,0,0,0,0,0,0,0,0,0,0,0,0,0,0,0,0,0,0,0,0,0,0,0,0,0,0,0,0,0,0,0,0,0,0,0,0,0,0,0,0,0,0,0,0,0,0,0,0,0,0,0,0,0,0,0,0,0,0,0,0,0,0,0,0,0,0,0,0,0,0,0,0,0,0,0,0,0,0,0,0,0,0,0,0,0,0,0,0,0,0,0,0,0,0,0,0,0,0,0,0,0,0,0,0,0,0,0,0,0,0,0,0,0,0,0,0,0,0,0,0,0,0,0,0,0,0,0,0,0,0,0,0,0,0,0,0,0,0,0,0,0,0,0,0,0,0,0,0,0,0,0,0,0,0,0,0,0,0,0,0,0,0,0,0,0,0,0,0,0,0,0,0,0,0,0,0,0,0,0,0,0,0,0,0,0,0,0,0,0,0,0,0,0,0,0,0,0,0,0,0,0,0,0,0,0,0,0,0,0,0,0,0,0,0,0,0,0,0,0,0,0,0,0,0,0,0,0,0,0,0,0,0,0,0,0,0,0,0,0,0,0,0,0,0,0,0,0,0,0,0,0,0,0,0,0,0,0,0,0,0,0,0,0,0,0,0,0,0,0,0,0,0,0,0,0,0,0,0,0,0,0,0,0,0,0,0,0,0,0,0,0,0,0,0,0,0,0,0,0,0,0,0,0,0,0,0,0,0,0,0,0,0,0,0,0,0,0,0,0,0,0,0,0,0,0,0,0,0,0,0,0,0,0,0,0,0,0,0,0,0,0,0,0,0,0,0,0,0,0,0,0,0,0,0,0,0,0,0,0,0,0,0,0,0,0,0,0,0,0,0,0,0,0,0,0,0,0,0,0,0,0,0,0,0,0,0,0,0,0,0,0,0,0,0,0,0,0,0,0,0,0,0,0,0,0,0,0,0,0,0,0,0,0,0,0,0,0,0,0
0.232015,0.45130774,0.17509839,0.30631098,0.36555147,0.28056076,0.41182286,0.19249703,0.33257523,0.64684075,0.22581029,0.23225507,0.3650918,0.4266786,0.25627404,0.16926844,0.4603815,0.46968618,0.2716444,0.40957618,0.44723484,0.31891653,0.2281884,0.5621746,0.2851178,0.48138407,0.46208015,0.28946134,0.10212429,0.23585363,0.22776458,0.18435307,0.18249087,0.0828849,0.5191334,0.2494054,0.49634156,0.23213728,0.17918158,0.45217004,0.25116622,0.36094475,0.41856867,0.27442908,0.28078738,0.3730031,0.26106164,0.48033464,0.38085046,0.31437647,0.48533362,0.3510215,0.18454431,0.4465842,0.5515836,0.32847208,0.2551209,0.12713848,0.29808602,0.43171358,0.45431712,0.32112178,0.41252992,0.27227566,0.30609933,0.538879,0.3785577,0.19594444,0.52801406,0.45090774,0.4243557,0.40166178,0.35884613,0.31285262,0.41574547,0.32266885,0.22555728,0.35443375,0.12696478,0.22765923,0.49553013,0.36291304,0.37648717,0.34964088,0.22409362,0.24263594,0.47211975,0.42651725,0.24172272,0.2646275,0.31935817,0.30588663,0.4365932,0.34291396,0.3588247,0.60815346,0.4257123,0.14642745,0.2565494,0.6222157,0.47640005,0.27287093,0.39181185,0.36993808,0.2793191,0.43290362,0.3518727,0.2800937,0.31098455,0.5703975,0.59118384,0.46736303,0.35827625,0.45970002,0.3958888,0.49096337,0.50176847,0.22028951,0.24565828,0.48658013,0.3575282,0.25887045,0.44769615,0.25223812,0.37348256,0.22041507,0.3041018,0.45371124,0.59331775,0.25474107,0.43652326,0.23571727,0.27358082,0.48560303,0.2673987,0.2628125,0.17215784,0.36890227,0.41530824,0.22448532,0.41841856,0.20966114,0.4481489,0.5010561,0.60139513,0.4816526,0.33251837,0.41308084,0.34591073,0.2574069,0.38236257,0.38777703,0.40648738,0.39965746,0.5417163,0.4213957,0.5047689,0.42904678,0.38753247,0.3383565,0.45317566,0.5177779,0.46606424,0.36045176,0.5411961,0.450871,0.27809498,0.19724485,0.26363966,0.26994544,0.3710739,0.3052056,0.32768482,0.24507049,0.3947999,0.38693267,0.40102723,0.1902599,0.18507998,0.44139653,0.49540737,0.43546134,0.58043075,0.34016475,0.3540094,0.3533121,0.37490094,0.42420173,0.33481497,0.30885336,0.4689604,0.27317494,0.38364998,0.4842507,0.18508288,0.35372385,0.2577285,0.28018278,0.62780464,0.4216954,0.39677644,0.24140678,0.48734468,0.24796338,0.42621619,0.1951264,0.48892424,0.45325646,0.22778103,0.2848129,0.3776393,0.42139637,0.31731316,0.3805837,0.40452236,0.3626521,0.53571695,0.47379318,0.51091474,0.44963956,0.7970975,0.4324767,0.40133414,0.4251278,0.37396434,0.31098264,0.46474767,0.46409944,0.2581926,0.5680673,0.4244633,0.35157436,0.22131248,0.5016677,0.4568638,0.51373583,0.27377647,0.21613248,0.21033715,0.37355387,0.41229355,0.32553014,0.24404347,0.48480004,0.45100722,0.33766165,0.18408547,0.20776883,0.2705815,0.30314597,0.15604071,0.35876164,0.36625683,0.47102448,0.52639437,0.27592286,0.29297775,0.24623017,0.27103156,0.36655903,0.36388153,0.20581466,0.19064811,0.4437624,0.4891668,0.33350635,0.29258776,0.542017,0.24274112,0.39743033,0.2093375,0.47052234,0.25565726,0.21522519,0.40201744,0.38500586,0.35135671,0.33294883,0.408655,0.4838868,0.33931357,0.53220826,0.42314634,0.46512747,0.39480314,0.6336188,0.24805517,0.1322585,0.4929859,0.31040582,0.3793899,0.3189736,0.40962127,0.5951844,0.29410636,0.50158125,0.41462764,0.5191575,0.30071333,0.3593099,0.22698507,0.39959148,0.5616115,0.29486337,0.3816025,0.4996926,0.27927417,0.19825064,0.47465765,0.42860243,0.1234036,0.5162584,0.54020095,0.37087026,0.24057811,0.28460068,0.1873658,0.4616469,0.25997436,0.2764948,0.32796898,0.27705926,0.19738944,0.50761366,0.2700374,0.5027192,0.39375034,0.44877598,0.3253237,0.2692779,0.43533945,0.33709124,0.23659448,0.4703409,0.30475217,0.23336244,0.44873303,0.45789805,0.49895054,0.42899925,0.512267,0.46368578,0.50053734,0.38891703,0.41991085,0.17200562,0.25231516,0.3322181,0.30055282,0.44099453,0.42597213,0.4271572,0.56424785,0.4114417,0.561886,0.325511,0.49414042,0.4871096,0.25527287,0.39328244,0.28615582,0.5311353,0.35882887,0.49712217,0.4032072,0.25725546,0.3234779,0.319377,0.60213906,0.28538588,0.22462249,0.4462226,0.546116,0.273682,0.321353,0.39241883,0.28745908,0.47000074,0.3109924,0.52721393,0.42622104,0.2650117,0.4657438,0.12592247,0.54399246,0.30422565,0.4580459,0.3317137,0.46269444,0.45772344,0.33324465,0.17356934,0.32504278,0.23224954,0.30498222,0.34393373,0.4143986,0.31843674,0.43108702,0.3737029,0.2794211,0.3956554,0.31973356,0.19328205,0.59177357,0.4116539,0.15404399,0.30946514,0.4823144,0.40355012,0.2772943,0.26529747,0.4957922,0.43534186,0.0949328,0.45414445,0.31262076,0.41295096,0.25700668,0.32777646,0.21491572,0.31599063,0.2697131,0.29944953,0.3950767,0.4711969,0.30807948,0.29274032,0.42411333,0.38460338,0.36834735,0.45691502,0.41490686,0.5148973,0.52124393,0.5080978,0.48521915,0.22511487,0.44202515,0.39364302,0.2779302,0.35560182,0.36346433,0.49327448,0.42965126,0.6953214,0.42775154,0.288054,0.41520107,0.31392992,0.22322722,0.5863151,0.27051815,0.39657143,0.38330013,0.45809668,0.36340278,0.27329618,0.39309618,0.21073885,0.44864717,0.2067136,0.10496425,0.6111721,0.19894241,0.36722866,0.27033818,0.2705159,0.7160338,0.37418732,0.24739306,0.5151023,0.2773759,0.20682287,0.42433208,0.13331787,0.44622162,0.41570434,0.32071382,0.21855222,0.29909447,0.45163888,0.33197623,0.5122042,0.5390843,0.37636396,0.58019936,0.5513681,0.42808458,0.23452319,0.13798136,0.278737,0.39068335,0.49160948,0.60720795,0.3388068,0.42504185,0.28728056,0.17079501,0.21900885
0.16490164,0.5852429,0.239016,0.27547738,-0.25015894,-0.22704706,0.22091612,-0.028983077,-0.17910777,-0.070570424,0.46513265,0.21172301,-0.21116234,-0.056906383,0.16148676,-0.14668418,0.4827709,0.007288699,0.28457707,0.01620096,-0.082873926,0.1664284,0.3387049,-0.16112304,0.03188048,0.3540227,0.41263208,0.25322205,-0.013640983,-0.1538041,0.1499851,0.04479483,0.27453652,-0.012495236,0.21350147,0.06606971,0.37447202,0.37730277,-0.27146164,0.36174315,0.24243438,-0.1291069,0.31771758,-0.046159986,0.028264243,0.019092575,0.09365113,0.09788008,0.117286585,0.21759696,-0.1082507,-0.15919723,0.25381523,-0.056286175,0.3403803,0.31381255,0.20664908,-0.06271688,0.19058308,0.19505998,0.031066602,0.041304704,0.23142442,0.28371722,0.24674134,-0.08668649,0.2079059,-0.0204653,0.20962112,0.3942551,0.20668225,0.009728638,0.31789818,0.10036325,0.392723,-0.10832914,0.1306922,0.109499596,0.018148364,0.2377402,0.38108864,0.002961018,0.28021276,-0.28814045,0.3822692,-0.066993706,-0.13462768,0.15599777,0.1643738,0.1266154,-0.10262882,-0.20901495,0.03245071,0.33575347,0.01360108,0.13185428,0.012554758,0.3130997,0.42483264,0.37395087,0.20101562,0.28760853,0.096410975,0.16928595,0.036792338,0.42774487,0.009045581,-0.06063725,-0.042679396,-0.10126165,0.2513952,0.080025196,0.36532104,-0.024912192,0.35837027,0.06801431,0.12765187,0.4909203,0.33467963,0.22303171,-0.003672196,-0.20577586,0.3646945,0.20568521,0.13607396,0.30484918,-0.3090977,0.24005285,0.17022367,0.148806,0.35367858,0.005263007,-0.17402871,0.23640504,0.071332864,0.3656487,0.09481633,0.20834573,-0.19692774,-0.2415727,0.35692877,0.06337205,0.34960446,0.38036874,0.22967894,-0.03516114,0.036978353,0.099934086,0.1978839,-0.10449962,-0.004447791,0.078337915,0.003050202,0.106777206,0.14144257,0.18899828,0.122415476,0.009045011,0.18726078,0.07270119,0.18937768,0.07714304,-0.1719577,-0.14822814,-0.10982013,0.117799446,-0.19581059,0.41470456,0.36631888,-0.0110742,-0.028133173,0.021200681,-0.010030176,-0.084754586,0.2693605,-0.120171376,0.20975803,-0.07467725,0.1333768,0.0866444,0.51230806,-0.15779479,-0.14598761,-0.057866815,-0.10402199,0.5033889,-0.07471312,0.30461144,0.16913232,-0.25254324,0.10603421,0.04768154,0.20066689,0.35783938,0.5243239,0.044961814,0.025168495,0.091595136,0.24729858,0.29024455,0.26844993,0.13537344,0.060108554,0.019691344,0.06326379,0.31341633,-0.016553475,0.26870567,0.28263584,0.09363464,-0.17904863,0.041431393,-0.057540793,0.37971476,0.25829056,0.21110138,0.52173144,0.21954955,0.28558585,0.121318586,0.09882416,0.09126611,-0.15166917,-0.03325333,-0.13006094,-0.14314634,0.18356761,-0.1210842,-0.09857223,0.029739195,-0.021896884,0.3443501,0.58450186,0.06354889,0.3783545,0.049800616,-0.17514722,-0.087410204,-0.010837564,0.297771,-0.080320634,-0.013876117,0.07923371,0.18642616,0.12690963,0.047246046,0.32636043,0.2624788,-0.18767959,0.30125183,0.038401634,0.23155114,-0.028210925,-0.057425085,0.076428674,-0.0801285,0.13693216,-0.15046333,0.46545276,-0.11909679,-0.22358009,0.23252584,0.25277603,-0.24402305,-0.11196064,0.32535675,0.19336052,0.02332353,0.2651343,0.41059592,-0.17987573,-0.053871978,-0.11426072,0.097153775,0.25103822,0.27197415,0.028595358,-0.14984956,0.15607032,0.20201136,0.27812296,-0.122727156,0.099282146,0.27954602,-0.103388794,0.49334574,0.41234893,-0.06384161,0.39596763,-0.12010984,0.040746633,-0.12591542,0.10036952,-0.051928192,0.051200196,-0.109161735,0.2338129,-0.015265682,-0.07863073,0.19718267,-0.12650853,0.36597556,0.10036635,0.24023362,0.18801785,0.22088674,-0.17559172,0.30306,0.35803825,0.3033119,-0.23672837,0.03809606,-0.09662342,0.31069878,0.12924811,-0.07453505,0.108123034,0.2516555,0.12207904,0.07814262,0.23557754,-0.006062537,-0.2846459,-0.062078215,-0.22931387,-0.016298952,0.31130952,-0.007299813,-0.13002057,0.41588295,0.16955142,0.19413002,-0.21374688,0.19203128,0.339858,0.055739865,0.28060523,0.31118062,-0.043308794,0.19304678,0.1742083,0.23676004,0.005191515,0.21201636,0.034741353,0.33624068,-0.06677492,0.06040294,0.116797134,0.25380018,0.3711318,-0.22109199,0.21764277,0.02935406,-0.05101216,0.17246453,-0.01924475,0.016048154,0.009927443,0.1210306,0.3126989,0.19159111,0.24390115,-0.15968096,0.31520456,-0.029793162,-0.045935888,-0.07722738,-0.12052927,0.002251117,0.047552854,0.12567726,0.1647027,-0.1112152,-0.1607605,-0.31404558,0.43025774,0.044609092,-0.006659361,0.11740537,-0.07936896,-0.02827518,-0.043214884,0.19617103,-0.012876712,0.17839427,0.3422197,-0.28718162,0.033932123,0.04737619,0.2877811,0.15358685,-0.092276864,0.06836456,0.35809216,0.010343905,0.40148777,0.11808881,0.11144508,0.33844897,0.23569043,0.33933285,-0.180278,0.13101795,0.32435238,0.123877205,-0.31110817,-0.10140257,0.38143617,0.2218191,-0.032266133,-0.007688106,-0.2235571,0.04030843,0.43254688,0.14191504,0.43286213,-0.20570551,0.11339577,0.37113583,0.027918503,0.23463807,-0.054632854,0.028907975,-0.004833115,0.28154933,0.15686697,0.10297486,0.05419671,-0.15285487,0.20782273,0.114143826,-0.08465259,-0.15634146,0.26517826,0.43019024,0.08734673,0.27479368,0.035397507,0.18300524,0.068022415,-0.035336144,0.03974995,-0.09485984,0.3505294,0.1785778,-0.21661372,0.20854618,0.050183807,0.49366048,0.26257703,0.42411825,0.31398615,-0.025056481,0.4431344,-0.14655825,0.29531127,-0.10269282,-0.18621174,0.11704145,-0.03226877,-0.19808349,0.07210783,0.013591114,0.16112489,-0.035013683,0.16332169,-0.093485795,0.002622344,0.061233137,0.12868983,0.28037962,0.23912424,0.053659607,0.3028006,-0.1944324,0.111454085,0.11197803,0.40913922,0.10502058,0.04589546,-0.082579516,0.24907415,-0.18961404,0.18945013,-0.07125333,-0.13130532,0.2911604,0.3396884,-0.01984463,0.021875178,0.23621379,-0.29141858,0.059694204,-0.22048737,0.23964225,0.24607094,0.23524937,0.16650398,0.09056548
0,0,0,0,0,0,0,0,0,0,0,0,0,0,0,0,0,0,0,0,0,0,0,0,0,0,0,0,0,0,0,0,0,0,0,0,0,0,0,0,0,0,0,0,0,0,0,0,0,0,0,0,0,0,0,0,0,0,0,0,0,0,0,0,0,0,0,0,0,0,0,0,0,0,0,0,0,0,0,0,0,0,0,0,0,0,0,0,0,0,0,0,0,0,0,0,0,0,0,0,0,0,0,0,0,0,0,0,0,0,0,0,0,0,0,0,0,0,0,0,0,0,0,0,0,0,0,0,0,0,0,0,0,0,0,0,0,0,0,0,0,0,0,0,0,0,0,0,0,0,0,0,0,0,0,0,0,0,0,0,0,0,0,0,0,0,0,0,0,0,0,0,0,0,0,0,0,0,0,0,0,0,0,0,0,0,0,0,0,0,0,0,0,0,0,0,0,0,0,0,0,0,0,0,0,0,0,0,0,0,0,0,0,0,0,0,0,0,0,0,0,0,0,0,0,0,0,0,0,0,0,0,0,0,0,0,0,0,0,0,0,0,0,0,0,0,0,0,0,0,0,0,0,0,0,0,0,0,0,0,0,0,0,0,0,0,0,0,0,0,0,0,0,0,0,0,0,0,0,0,0,0,0,0,0,0,0,0,0,0,0,0,0,0,0,0,0,0,0,0,0,0,0,0,0,0,0,0,0,0,0,0,0,0,0,0,0,0,0,0,0,0,0,0,0,0,0,0,0,0,0,0,0,0,0,0,0,0,0,0,0,0,0,0,0,0,0,0,0,0,0,0,0,0,0,0,0,0,0,0,0,0,0,0,0,0,0,0,0,0,0,0,0,0,0,0,0,0,0,0,0,0,0,0,0,0,0,0,0,0,0,0,0,0,0,0,0,0,0,0,0,0,0,0,0,0,0,0,0,0,0,0,0,0,0,0,0,0,0,0,0,0,0,0,0,0,0,0,0,0,0,0,0,0,0,0,0,0,0,0,0,0,0,0,0,0,0,0,0,0,0,0,0,0,0,0,0,0,0,0,0,0,0,0,0,0,0,0,0,0,0,0,0,0,0,0,0,0,0,0,0,0,0,0,0,0,0,0,0,0,0,0,0,0,0,0,0,0,0,0
0,0,0,0,0,0,0,0,0,0,0,0,0,0,0,0,0,0,0,0,0,0,0,0,0,0,0,0,0,0,0,0,0,0,0,0,0,0,0,0,0,0,0,0,0,0,0,0,0,0,0,0,0,0,0,0,0,0,0,0,0,0,0,0,0,0,0,0,0,0,0,0,0,0,0,0,0,0,0,0,0,0,0,0,0,0,0,0,0,0,0,0,0,0,0,0,0,0,0,0,0,0,0,0,0,0,0,0,0,0,0,0,0,0,0,0,0,0,0,0,0,0,0,0,0,0,0,0,0,0,0,0,0,0,0,0,0,0,0,0,0,0,0,0,0,0,0,0,0,0,0,0,0,0,0,0,0,0,0,0,0,0,0,0,0,0,0,0,0,0,0,0,0,0,0,0,0,0,0,0,0,0,0,0,0,0,0,0,0,0,0,0,0,0,0,0,0,0,0,0,0,0,0,0,0,0,0,0,0,0,0,0,0,0,0,0,0,0,0,0,0,0,0,0,0,0,0,0,0,0,0,0,0,0,0,0,0,0,0,0,0,0,0,0,0,0,0,0,0,0,0,0,0,0,0,0,0,0,0,0,0,0,0,0,0,0,0,0,0,0,0,0,0,0,0,0,0,0,0,0,0,0,0,0,0,0,0,0,0,0,0,0,0,0,0,0,0,0,0,0,0,0,0,0,0,0,0,0,0,0,0,0,0,0,0,0,0,0,0,0,0,0,0,0,0,0,0,0,0,0,0,0,0,0,0,0,0,0,0,0,0,0,0,0,0,0,0,0,0,0,0,0,0,0,0,0,0,0,0,0,0,0,0,0,0,0,0,0,0,0,0,0,0,0,0,0,0,0,0,0,0,0,0,0,0,0,0,0,0,0,0,0,0,0,0,0,0,0,0,0,0,0,0,0,0,0,0,0,0,0,0,0,0,0,0,0,0,0,0,0,0,0,0,0,0,0,0,0,0,0,0,0,0,0,0,0,0,0,0,0,0,0,0,0,0,0,0,0,0,0,0,0,0,0,0,0,0,0,0,0,0,0,0,0,0,0,0,0,0,0,0,0,0,0,0,0,0,0,0,0,0,0,0,0,0,0,0,0,0,0,0,0,0,0,0,0,0,0,0,0
0,0,0,0,0,0,0,0,0,0,0,0,0,0,0,0,0,0,0,0,0,0,0,0,0,0,0,0,0,0,0,0,0,0,0,0,0,0,0,0,0,0,0,0,0,0,0,0,0,0,0,0,0,0,0,0,0,0,0,0,0,0,0,0,0,0,0,0,0,0,0,0,0,0,0,0,0,0,0,0,0,0,0,0,0,0,0,0,0,0,0,0,0,0,0,0,0,0,0,0,0,0,0,0,0,0,0,0,0,0,0,0,0,0,0,0,0,0,0,0,0,0,0,0,0,0,0,0,0,0,0,0,0,0,0,0,0,0,0,0,0,0,0,0,0,0,0,0,0,0,0,0,0,0,0,0,0,0,0,0,0,0,0,0,0,0,0,0,0,0,0,0,0,0,0,0,0,0,0,0,0,0,0,0,0,0,0,0,0,0,0,0,0,0,0,0,0,0,0,0,0,0,0,0,0,0,0,0,0,0,0,0,0,0,0,0,0,0,0,0,0,0,0,0,0,0,0,0,0,0,0,0,0,0,0,0,0,0,0,0,0,0,0,0,0,0,0,0,0,0,0,0,0,0,0,0,0,0,0,0,0,0,0,0,0,0,0,0,0,0,0,0,0,0,0,0,0,0,0,0,0,0,0,0,0,0,0,0,0,0,0,0,0,0,0,0,0,0,0,0,0,0,0,0,0,0,0,0,0,0,0,0,0,0,0,0,0,0,0,0,0,0,0,0,0,0,0,0,0,0,0,0,0,0,0,0,0,0,0,0,0,0,0,0,0,0,0,0,0,0,0,0,0,0,0,0,0,0,0,0,0,0,0,0,0,0,0,0,0,0,0,0,0,0,0,0,0,0,0,0,0,0,0,0,0,0,0,0,0,0,0,0,0,0,0,0,0,0,0,0,0,0,0,0,0,0,0,0,0,0,0,0,0,0,0,0,0,0,0,0,0,0,0,0,0,0,0,0,0,0,0,0,0,0,0,0,0,0,0,0,0,0,0,0,0,0,0,0,0,0,0,0,0,0,0,0,0,0,0,0,0,0,0,0,0,0,0,0,0,0,0,0,0,0,0,0,0,0,0,0,0,0,0,0,0,0,0,0,0,0,0,0,0,0,0,0,0,0,0,0
0,0,0,0,0,0,0,0,0,0,0,0,0,0,0,0,0,0,0,0,0,0,0,0,0,0,0,0,0,0,0,0,0,0,0,0,0,0,0,0,0,0,0,0,0,0,0,0,0,0,0,0,0,0,0,0,0,0,0,0,0,0,0,0,0,0,0,0,0,0,0,0,0,0,0,0,0,0,0,0,0,0,0,0,0,0,0,0,0,0,0,0,0,0,0,0,0,0,0,0,0,0,0,0,0,0,0,0,0,0,0,0,0,0,0,0,0,0,0,0,0,0,0,0,0,0,0,0,0,0,0,0,0,0,0,0,0,0,0,0,0,0,0,0,0,0,0,0,0,0,0,0,0,0,0,0,0,0,0,0,0,0,0,0,0,0,0,0,0,0,0,0,0,0,0,0,0,0,0,0,0,0,0,0,0,0,0,0,0,0,0,0,0,0,0,0,0,0,0,0,0,0,0,0,0,0,0,0,0,0,0,0,0,0,0,0,0,0,0,0,0,0,0,0,0,0,0,0,0,0,0,0,0,0,0,0,0,0,0,0,0,0,0,0,0,0,0,0,0,0,0,0,0,0,0,0,0,0,0,0,0,0,0,0,0,0,0,0,0,0,0,0,0,0,0,0,0,0,0,0,0,0,0,0,0,0,0,0,0,0,0,0,0,0,0,0,0,0,0,0,0,0,0,0,0,0,0,0,0,0,0,0,0,0,0,0,0,0,0,0,0,0,0,0,0,0,0,0,0,0,0,0,0,0,0,0,0,0,0,0,0,0,0,0,0,0,0,0,0,0,0,0,0,0,0,0,0,0,0,0,0,0,0,0,0,0,0,0,0,0,0,0,0,0,0,0,0,0,0,0,0,0,0,0,0,0,0,0,0,0,0,0,0,0,0,0,0,0,0,0,0,0,0,0,0,0,0,0,0,0,0,0,0,0,0,0,0,0,0,0,0,0,0,0,0,0,0,0,0,0,0,0,0,0,0,0,0,0,0,0,0,0,0,0,0,0,0,0,0,0,0,0,0,0,0,0,0,0,0,0,0,0,0,0,0,0,0,0,0,0,0,0,0,0,0,0,0,0,0,0,0,0,0,0,0,0,0,0,0,0,0,0,0,0,0,0,0,0,0,0
